tree
version=v4
num_class=4
num_tree_per_iteration=4
label_index=0
max_feature_idx=17
objective=multiclass num_class:4
feature_names=word_zero_to_end_count_max word_one_to_end_count_max word_many_to_end_min word_many_to_end_max word_one_to_end_count_min word_zero_to_end_count_mean word_one_to_end_count_mean word_many_to_end_mean user_intro_acc user_intro_wpm apostrophe_len comma_len period_len exclamation_len passage_len punc_len caps_len numbers_len
feature_infos=[0:0.98224852071005919] [0:0.55555555555555558] [0:1] [0.087591240875912413:1] [0:0.44444444444444442] [0:0.9051094890510949] [0:0.44444444444444442] [0.087591240875912413:1] [0.51162790697674421:1] [1.5562197716300781:126.64648613270064] [0:15] [0:39] [0:21] [0:5] [15:596] [0:45] [0:111] [0:79]
tree_sizes=3118 3448 3463 3519 3231 3570 3620 3623 3466 3564 3618 3612 3555 3560 3623 3635 3548 3581 3624 3632 3565 3573 3628 3630 3555 3584 3625 3630 3547 3576 3641 3613 3546 3579 3628 3631 3556 3573 3629 3634 3561 3581 3632 3634 3574 3591 3627 3630 3569 3596 3630 3633 3570 3589 3630 3636 3567 3598 3638 3628 3574 3586 3634 3645 3578 3578 3644 3638 3585 3591 3639 3635 3554 3584 3652 3637 3563 3592 3648 3632 3586 3595 3636 3629 3563 3591 3649 3635 3574 3583 3649 3631 3583 3591 3652 3629 3572 3608 3638 3637 3590 3613 3655 3641 3571 3610 3658 3643 3578 3594 3662 3632 3581 3589 3655 3650 3593 3598 3648 3630 3593 3615 3643 3647 3578 3601 3640 3633 3563 3594 3641 3643 3581 3604 3649 3635 3573 3600 3660 3650 3604 3604 3648 3651 3572 3585 3647 3620 3590 3618 3661 3642 3586 3602 3649 3614 3587 3594 3640 3619 3621 3596 3667 3623 3580 3604 3658 3643 3598 3592 3648 3643 3607 3606 3658 3628 3581 3624 3651 3617 3593 3611 3657 3628 3612 3601 3656 3643 3610 3595 3658 3641 3602 3599 3656 3637 3578 3608 3649 3636 3593 3603 3643 3624 3578 3603 3654 3638 3573 3598 3651 3613 3599 3613 3654 3626 3587 3613 3644 3642 3570 3605 3656 3648 3600 3600 3649 3634 3615 3590 3661 3613 3620 3613 3664 3639 3580 3615 3655 3619 3609 3601 3655 3633 3584 3619 3663 3647 3565 3612 3655 3624 3615 3598 3661 3627 3609 3606 3659 3626 3588 3617 3665 3639 3576 3611 3651 3647 3613 3627 3660 3622 3603 3601 3656 3632 3591 3607 3647 3643 3603 3616 3645 3606 3599 3621 3660 3621 3604 3613 3661 3622 3597 3615 3652 3637 3621 3593 3666 3634 3592 3602 3664 3622 3610 3606 3666 3606 3572 3617 3670 3625 3602 3578 3664 3612 3578 3601 3653 3639 3595 3610 3648 3615 3570 3606 3646 3612 3626 3588 3665 3629 3603 3609 3665 3629 3578 3586 3654 3626 3596 3608 3658 3617 3610 3606 3663 3629 3581 3604 3653 3622 3600 3615 3667 3598 3605 3616 3659 3619 3599 3590 3645 3633 3608 3579 3676 3636 3587 3597 3660 3609 3591 3599 3662 3623 3585 3598 3667 3635 3566 3615 3665 3617 3579 3590 3653 3613 3583 3593 3656 3586 3603 3588 3641 3636 3628 3590 3645 3619 3580 3616 3658 3624 3612 3584 3661 3629 3582 3577 3654 3641 3582 3582 3645 3626 3602 3612 3649 3625 3577 3605 3664 3627 3608 3605 3654 3634 3590 3597 3653 3626 3603 3596 3669 3606 3589 3590 3657 3626 3606 3578 3650 3606 3580 3590 3663 3622 3591 3580 3665 3637 3598 3621 3661 3610 3574 3569 3649 3591 3588 3599 3655 3634 3600 3594 3658 3626 3565 3578 3643 3565 3605 3579 3654 3609 3552 3612 3649 3627 3571 3589 3645 3566 3571 3572 3648 3619 3575 3576 3640 3624 3572 3581 3640 3613 3558 3567 3643 3603 3572 3582 3658 3629 3560 3589 3654 3611 3579 3599 3674 3616 3577 3574 3660 3620 3572 3610 3661 3629 3587 3590 3655 3597 3560 3579 3660 3636 3569 3555 3667 3616 3545 3580 3646 3651 3584 3594 3655 3595 3562 3591 3619 3610 3556 3569 3646 3603 3580 3572 3643 3630 3567 3583 3647 3612 3589 3577 3638 3629 3571 3587 3634 3607 3562 3571 3649 3607 3557 3603 3639 3613 3570 3578 3627 3612 3578 3594 3659 3634 3559 3598 3647 3624 3571 3574 3648 3610 3571 3570 3634 3623 3601 3606 3622 3648 3603 3585 3638 3630 3600 3603 3647 3602 3615 3587 3660 3613 3580 3611 3642 3635 3579 3588 3655 3613 3554 3587 3613 3609 3630 3593 3647 3631 3579 3610 3644 3614 3560 3612 3647 3667 3577 3604 3654 3583 3602 3573 3648 3623 3573 3601 3645 3602 3565 3604 3630 3626 3563 3599 3639 3623 3571 3593 3642 3619 3561 3592 3657 3622 3577 3557 3654 3611 3598 3614 3640 3582 3598 3584 3642 3629 3589 3621 3635 3613 3575 3577 3646 3565 3541 3588 3646 3620 3610 3574 3649 3586 3584 3617 3654 3615 3557 3584 3663 3610 3574 3580 3661 3643 3598 3590 3645 3628 3582 3605 3658 3611 3567 3573 3658 3588 3552 3588 3627 3593 3578 3608 3639 3611 3540 3594 3645 3632 3587 3626 3658 3624 3595 3623 3659 3573 3541 3588 3642 3612 3580 3603 3653 3623 3580 3593 3637 3613 3592 3603 3628 3595 3605 3606 3650 3613 3549 3596 3660 3638 3591 3609 3630 3597 3590 3606 3668 3627 3541 3587 3647 3588 3565 3568 3649 3571 3569 3599 3648 3566 3583 3569 3649 3625 3583 3593 3640 3561 3562 3570 3650 3599 3570 3590 3647 3586 3589 3598 3648 3571 3591 3570 3654 3561

Tree=0
num_leaves=28
num_cat=0
split_feature=5 11 0 5 0 5 11 12 0 11 0 5 8 5 5 8 5 12 5 0 3 8 0 5 5 0 14
split_gain=29538.8 14685.9 4988.9 4444.26 3318.11 1526.46 918.325 617.047 608.953 593.67 605.815 714.399 358.143 305.851 218.068 174.93 139.948 92.0362 78.9366 77.5031 62.3018 59.1282 41.7766 12.0779 3.18288 5.6905 1.08959
threshold=0.10973650437138954 31.500000000000004 0.78502747252747274 0.031752035723666937 0.19714924160346697 0.06495289280905038 21.500000000000004 1.5000000000000002 0.16609195402298851 inf 0.24417344173441738 0.41977911646586352 0.90606162843004967 0.22235635547751445 0.16365001365001369 0.95909416398138203 0.089132313938714555 1.0000000180025095e-35 0.012506364658854288 0.14042253521126766 0.49509803921568635 0.94527480450335544 0.031754032258064523 0.0185326332429991 0.0097985875525400598 0.012802301864801866 179.50000000000003
decision_type=10 8 10 8 10 10 8 10 10 8 10 10 2 10 10 2 10 10 10 10 10 2 10 10 10 10 2
left_child=1 3 4 18 6 7 8 17 14 10 13 -12 -9 -6 -2 -10 19 -5 24 -7 -4 -18 23 -20 -1 -26 -24
right_child=2 -3 20 5 9 16 -8 12 15 -11 11 -13 -14 -15 -16 -17 21 -19 22 -21 -22 -23 26 -25 25 -27 -28
leaf_value=-2.8724726476878137 -2.8559471620033245 -2.7331701898303145 -2.79264760430791 -2.8693693005769672 -2.8449328939494496 -2.8624104640005963 -2.7351843487840668 -2.8646723493784134 -2.8501286794608069 -2.735765776815315 -2.8361286516269089 -2.864651235029243 -2.8660893580529883 -2.8546086137497446 -2.863458963585642 -2.8556381167498412 -2.8590889762414373 -2.8674670792611532 -2.8703367308799601 -2.8701645921728471 -2.7367559709926832 -2.8617590326577722 -2.8713393006254266 -2.868368928548986 -2.8698936872040419 -2.8725047029611859 -2.872421980219185
leaf_weight=9489.2005600109696 4527.3092204779387 82.859463900327682 2.6520762667059889 3432.8618551716208 2593.8022665753961 4349.3333996608853 6.3793185874819747 26250.895987488329 2944.3780779391527 5.0174415856599799 1270.7745981737971 94.256224073469639 55656.544210828841 374.65953097492456 422.89864793419838 718.71266827732325 2412.7443030700088 9850.0262877568603 538.37148214131594 132.67549107223749 38.275911524891853 1267.3340668007731 137.76461039483547 758.0637458562851 141.85024140030146 219.40555276721716 569.69465318322182
leaf_count=132387 63162 1156 37 47893 36187 60679 89 366235 41078 70 17729 1315 776483 5227 5900 10027 33661 137421 7511 1851 534 17681 1922 10576 1979 3061 7948
internal_value=-2.86456 -2.86617 -2.85027 -2.86627 -2.85062 -2.8656 -2.85421 -2.86596 -2.8543 -2.84349 -2.84362 -2.8381 -2.86564 -2.84615 -2.85659 -2.85121 -2.86145 -2.86796 -2.87207 -2.86264 -2.74017 -2.86001 -2.87026 -2.86919 -2.87244 -2.87148 -2.87221
internal_weight=128289 115290 12999.1 115207 12958.2 103352 8619.68 95190.3 8613.3 4338.51 4333.49 1365.03 81907.4 2968.46 4950.21 3663.09 8162.09 13282.9 11854.4 4482.01 40.928 3680.08 2003.89 1296.44 9850.46 361.256 707.459
internal_count=1789799 1608444 181355 1607288 180784 1441904 120256 1328032 120167 60528 60458 19044 1142718 41414 69062 51105 113872 185314 165384 62530 571 51342 27957 18087 137427 5040 9870
is_linear=0
shrinkage=1


Tree=1
num_leaves=31
num_cat=0
split_feature=6 4 1 1 1 1 8 12 8 1 8 17 8 12 16 8 1 1 1 8 8 1 8 8 1 8 6 9 8 6
split_gain=26578.1 5365.99 3548.98 2328.42 858.212 525.678 416.595 249.699 159.841 137.214 137.207 134.315 118.855 112.961 107.197 106.781 105.844 84.3234 62.7606 56.1089 52.9318 51.1622 47.1948 44.9278 64.6675 43.1346 40.9869 36.9781 36.9368 36.5583
threshold=0.10623855311355314 0.014337101747173691 0.19803921568627456 0.071067821067821071 0.267948717948718 0.16552511415525115 0.90606162843004967 1.0000000180025095e-35 0.87677086992155495 0.32666666666666672 0.95896025151583209 2.5000000000000004 0.85559210526315799 1.0000000180025095e-35 2.5000000000000004 0.95909416398138203 0.22140522875816995 0.090619233966625454 0.14134615384615387 0.97507516481924228 0.96300343175343184 0.17871660859465741 0.96429940972650219 0.96555214295686176 0.36931818181818188 0.90298382173382186 0.14176587301587304 21.735574683516045 0.89056366658655783 0.089506667716870172
decision_type=10 8 10 10 10 10 2 10 2 10 2 10 2 10 10 2 10 10 10 2 2 10 2 2 10 2 10 2 2 10
left_child=1 -1 5 6 8 15 13 -8 27 22 21 -9 29 -3 -15 18 26 -14 -2 -18 -19 28 -6 24 -11 -20 -10 -4 -7 -5
right_child=2 3 4 12 9 10 7 11 16 23 -12 -13 17 14 -16 -17 19 20 25 -21 -22 -23 -24 -25 -26 -27 -28 -29 -30 -31
leaf_value=-2.9109711826343787 -2.8945735077531198 -2.906638250499745 -2.8805034933465326 -2.8977453565716904 -2.8686641795733374 -2.8859178310444333 -2.9078930667848342 -2.9050843401668147 -2.8953046910334495 -2.8604314526519121 -2.8924381676676534 -2.9041435721695912 -2.9007364718314896 -2.9019844818940648 -2.903509758963466 -2.8965147458300313 -2.8790887227196564 -2.8980216149683247 -2.8903121332595347 -2.8869750904616431 -2.9005685104762975 -2.8853984729935092 -2.8788712089546893 -2.8715021311102595 -2.8431590000411262 -2.8929550690347154 -2.8842700250343611 -2.8739985127709842 -2.889607897953665 -2.8938300500937251
leaf_weight=11762.190371990204 1392.2688610553741 986.93351197242737 124.83554577827454 434.91985273361206 277.87314176559448 402.916055560112 2440.3759378194809 31470.515758395195 35.39080810546875 106.51803767681122 610.42231714725494 29323.634686231613 2677.5358257293701 5797.6641207933426 22446.412672877312 994.88261926174164 826.43066740036011 4017.962682723999 1008.7762763500214 103.20014941692352 1026.6099257469177 1007.3247002363205 56.40410041809082 25.92100203037262 28.755031585693359 1625.4887566566467 975.7356390953064 327.57234299182892 865.7614678144455 534.45650053024292
leaf_count=170164 20142 14278 1806 6292 4020 5829 35305 455285 512 1541 8831 424226 38736 83875 324733 14393 11956 58128 14594 1493 14852 14573 816 375 416 23516 14116 4739 12525 7732
internal_value=-2.90315 -2.90458 -2.88816 -2.90383 -2.87867 -2.89162 -2.9043 -2.90476 -2.88115 -2.86668 -2.88822 -2.90463 -2.89889 -2.90331 -2.9032 -2.89358 -2.8824 -2.8993 -2.89285 -2.87996 -2.89854 -2.88709 -2.87038 -2.85906 -2.85671 -2.89194 -2.88465 -2.87579 -2.88843 -2.89558
internal_weight=123716 112919 10796.5 101157 2888.64 7907.84 92465.5 63234.5 2393.17 495.471 2886.42 60794.2 8691.48 29231 28244.1 5021.42 1940.76 7722.11 4026.53 929.631 5044.57 2276 334.277 161.194 135.273 2634.27 1011.13 452.408 1268.68 969.376
internal_count=1789799 1633606 156193 1463442 41790 114403 1337702 914816 34622 7168 41758 879511 125740 422886 408608 72645 28077 111716 58252 13449 72980 32927 4836 2332 1957 38110 14628 6545 18354 14024
is_linear=0
shrinkage=1


Tree=2
num_leaves=31
num_cat=0
split_feature=3 3 8 4 5 5 5 16 3 8 2 2 4 7 3 5 1 7 8 5 15 16 9 6 0 1 7 14 16 6
split_gain=5315.33 3502.39 385.105 364.43 321.164 239.05 152.311 139.011 138.365 129.844 127.907 122.254 88.3056 75.6773 73.7492 68.6759 68.269 64.3519 63.6061 62.5995 54.5284 73.8182 51.4006 45.9902 45.6818 84.7152 45.5992 43.9652 43.0444 40.3855
threshold=0.6195238095238097 0.72653958944281538 0.90298382173382186 0.0060298864749193 0.083460967232897074 0.11101010101010104 0.16536601387890218 1.5000000000000002 0.97259759759759767 0.97629490392648288 0.58744828628538981 0.51191151446398198 0.13363095238095241 0.66200039184952986 0.76867335562987749 0.19876048817696418 0.23861283643892342 0.52006493506493523 0.8373038381546607 0.032322579353459828 1.5000000000000002 2.5000000000000004 48.766696250844852 0.13034371092841859 0.027587519025875192 1.0000000180025095e-35 0.58822043969102811 95.500000000000014 1.5000000000000002 0.10085722508928378
decision_type=8 10 2 10 10 10 10 10 10 2 10 10 10 10 10 10 10 10 2 10 10 10 2 10 10 10 10 2 10 10
left_child=3 2 20 5 11 18 10 27 14 13 17 12 -5 -9 -3 26 19 -6 -1 -13 -2 28 -11 -8 25 -16 -7 -4 -22 -12
right_child=1 8 7 4 6 15 23 9 -10 22 29 16 -14 -15 24 -17 -18 -19 -20 -21 21 -23 -24 -25 -26 -27 -28 -29 -30 -31
leaf_value=-3.0492517480204726 -3.0809288017660421 -3.0831354285705159 -3.0784138212185734 -3.0599283606775329 -3.0687793087405719 -3.0661456066997346 -3.0771888085857455 -3.0795950837108639 -3.087276849924161 -3.0802494513704102 -3.0753435354981074 -3.0685745208962754 -3.0706091175354095 -3.0814397807961189 -3.0827077689932421 -3.0747882048926907 -3.0806090512165381 -3.0734074972019569 -3.0628640922080259 -3.0721709181354657 -3.0798856339958389 -3.0786655397671323 -3.0819658145277229 -3.0821399303492694 -3.0862446057989965 -3.0857643241348631 -3.0735339873085525 -3.0827614180714336 -3.0769119681509816 -3.0786714605012717
leaf_weight=37.961008947342634 876.37873198464513 2127.5127556882799 259.70243409276009 157.10827431827784 338.72450356557965 273.03850503265858 930.54189729318023 45596.435984287411 2905.2747525647283 3352.5595529042184 1465.7979726046324 589.71169831603765 154.06671427935362 2337.9653137661517 1497.5588783957064 297.78042611852288 84.812731854617596 2715.9961316809058 391.65934655070305 2751.6759705990553 551.28275705501437 19065.668154761195 3643.4964689351618 234.72654685005546 2815.0807991027832 2306.9647979848087 121.54541847854853 2198.287518132478 4122.2497173696756 486.53262314945459
leaf_count=649 14983 36373 4440 2686 5791 4668 15909 779539 49670 57317 25060 10082 2634 39971 25603 5091 1450 46434 6696 47044 9425 325956 62291 4013 48128 39441 2078 37583 70476 8318
internal_value=-3.07948 -3.08026 -3.07953 -3.07292 -3.07353 -3.06751 -3.07493 -3.07997 -3.08539 -3.07987 -3.07417 -3.07121 -3.06521 -3.07969 -3.08476 -3.07115 -3.07176 -3.07289 -3.06165 -3.07154 -3.07848 -3.07839 -3.08114 -3.07819 -3.08528 -3.08456 -3.06842 -3.0823 -3.07726 -3.07617
internal_weight=104688 93656.4 82004 11031.7 9909.7 1121.98 6172.32 57388.4 11652.4 54930.5 5007.05 3737.38 311.175 47934.4 8747.12 692.364 3426.2 3054.72 429.62 3341.39 24615.6 23739.2 6996.06 1165.27 6619.6 3804.52 394.584 2457.99 4673.53 1952.33
internal_count=1789799 1601196 1401981 188603 169421 19182 105525 981141 199215 939118 85603 63896 5320 819510 149545 11837 58576 52225 7345 57126 420840 405857 119608 19922 113172 65044 6746 42023 79901 33378
is_linear=0
shrinkage=1


Tree=3
num_leaves=31
num_cat=0
split_feature=7 3 11 2 8 0 12 8 6 8 3 0 12 5 2 8 8 2 2 10 6 5 6 8 8 8 4 5 8 8
split_gain=26476.4 7756.95 4767.77 2459.85 1427.37 1276.72 718.184 608.77 531.324 445.814 403.929 333.746 315.944 309.105 288.454 213.428 187.38 154.339 150.311 121.705 117.77 111.515 103.576 93.3127 76.1661 62.118 60.408 78.2429 45.9562 41.0585
threshold=0.75010026737967939 0.89047619047619053 22.500000000000004 0.57196045303798271 0.90606162843004967 0.78502747252747274 1.0000000180025095e-35 0.90298382173382186 0.14706250393133843 0.97629490392648288 0.96791352093342498 0.14907407407407411 1.0000000180025095e-35 0.41977911646586352 0.66797900262467202 0.95909416398138203 0.86370920745920754 0.66797900262467202 0.4555335968379447 14.500000000000002 0.058512887219289635 0.055579501915708825 0.089274163740528559 0.95896025151583209 0.95896025151583209 0.96664839181286555 0.015504807692307694 0.032322579353459828 0.99205899035734546 0.99205899035734546
decision_type=8 10 8 10 2 10 10 2 10 2 10 10 10 10 10 2 2 10 10 8 10 10 10 2 2 2 10 10 2 2
left_child=3 2 4 5 12 8 -6 17 11 -8 26 21 -2 -13 15 20 -14 19 25 22 -9 -1 -5 -20 -16 -10 27 -3 -17 -26
right_child=1 10 -4 7 6 -7 9 14 18 -11 -12 13 16 -15 24 28 -18 -19 23 -21 -22 -23 -24 -25 29 -27 -28 -29 -30 -31
leaf_value=-0.17541504108898193 -0.16841115379906893 -0.16471563140123124 -0.21927516141343756 -0.17760463276380539 -0.16691837801590709 -0.21658137632207597 -0.17064637667677035 -0.17531073271001948 -0.18906407458427632 -0.16903977737907483 -0.16300460411678164 -0.18227580557904569 -0.1726931046427411 -0.17048109555542867 -0.1748204631863986 -0.17511707644220686 -0.17165884209520371 -0.1764900978155082 -0.18404750166103817 -0.21855853087868529 -0.1773208824147661 -0.1788740827211435 -0.17961560427222398 -0.17970034463817042 -0.17314546040133236 -0.18064935705555291 -0.16684077558674548 -0.16679416074356707 -0.1721379303251783 -0.16853035360940305
leaf_weight=1174.3732773959637 2389.3338594287634 6212.1616922318935 203.2909974604845 4277.6183293014765 6027.8350685536861 101.20240588486195 132922.71373708546 3673.594162479043 703.80867560207844 19852.686318695545 9058.2356566786766 4688.9857269525528 30955.175126820803 233.06683667004108 5949.496253490448 6907.8174594789743 40347.680026054382 3789.5072508305311 2353.7091946601868 7.6211969405412665 14180.211712136865 4547.7277278453112 6412.0851840674877 627.77394333481789 2434.7065667957067 101.20240588486195 3751.4012661278248 2564.0896776467562 560.60106797516346 209.13982301950455
leaf_count=6626 13481 35050 1147 24135 34010 571 749971 20727 3971 112012 51108 26456 174654 1315 33568 38975 227648 21381 13280 43 80007 25659 36178 3542 13737 571 21166 14467 3163 1180
internal_value=-0.171785 -0.170348 -0.17088 -0.177593 -0.170838 -0.181201 -0.170304 -0.176509 -0.180952 -0.170438 -0.164614 -0.179807 -0.171988 -0.181717 -0.175776 -0.176313 -0.172108 -0.178225 -0.18417 -0.17884 -0.176907 -0.178164 -0.178811 -0.183133 -0.174193 -0.188009 -0.165777 -0.165323 -0.174894 -0.17278
internal_weight=317219 254285 232699 62934.2 232495 14531.9 158803 48402.4 14430.6 152775 21585.9 10644.2 73692.2 4922.05 33915.6 25322.2 71302.9 14486.8 3786.49 10697.3 17853.8 5722.1 10689.7 2981.48 8593.34 805.011 12527.7 8776.25 7468.42 2643.85
internal_count=1789799 1434714 1312923 355085 1311776 81991 895993 273094 81420 861983 121791 60056 415783 27771 191357 142872 402302 81737 21364 60356 100734 32285 60313 16822 48485 4542 70683 49517 42138 14917
is_linear=0
shrinkage=1


Tree=4
num_leaves=28
num_cat=0
split_feature=0 11 0 0 0 0 10 12 0 3 10 0 8 0 3 0 0 0 16 3 0 0 12 3 0 3 0
split_gain=27249.2 12338.5 4121.64 4037.53 3097.81 1371.37 743.971 653.317 595.133 531.194 513.197 511.185 357.96 296.335 204.379 203.288 195.169 194.625 148.772 127.917 100.497 94.643 83.9123 17.3911 6.90722 6.19934 0.0969189
threshold=0.11952090562986424 22.500000000000004 0.78502747252747274 0.031754032258064523 0.19714924160346697 0.074234268870947084 10.500000000000002 1.5000000000000002 0.24417344173441738 0.54964788732394376 inf 0.16609195402298851 0.90298382173382186 0.32905794211485878 0.92824967824967841 0.33166210878152541 0.2223711647304141 0.16336342229199374 3.5000000000000004 0.77525510204081638 0.090697393092602691 0.0084800574919152005 1.0000000180025095e-35 0.98589030206677275 0.021786595785076895 0.8099343185550083 1.0000000180025095e-35
decision_type=10 8 10 8 10 10 8 10 10 10 8 10 2 10 10 10 10 10 10 10 10 10 10 10 10 10 10
left_child=1 3 4 21 6 7 11 22 10 13 16 17 -9 -10 -13 -11 -6 -2 -4 20 -7 26 -5 24 -23 -21 -1
right_child=2 -3 18 5 8 19 -8 12 9 15 -12 14 -14 -15 -16 -17 -18 -19 -20 25 -22 23 -24 -25 -26 -27 -28
leaf_value=-0.0079077243409124247 0.0081333242753572552 0.11157965678977533 0.109672748839082 -0.0047811249539812962 0.018671841271656536 0.0017964554385076854 0.11244366641222119 -5.2169635669676444e-05 0.025854772864301833 0.026195664235014245 0.11314644113988749 0.0127154457738205 -0.0014774335953077389 0.0060656345864920757 -0.0030500951035080559 0.036243873665062702 0.0125268828672925 0.0012065316394658909 0.0097076535333931353 -0.0025605380553744578 0.0042013547533307927 -0.0056254553803363663 -0.0029625585635815388 -0.0079395055446938433 -0.0043053621944203957 -0.0066838704965801752 -0.0071061393117206216
leaf_weight=8868.3668728321791 4285.1906207725406 96.204181119799614 46.029313161969185 3412.1806510388851 2421.7717745155096 2842.165261156857 6.9540026709437361 25316.007928080857 125.53723005950451 836.42987259477377 5.510414905846118 3797.8810715526342 57988.921536616981 190.93474210053682 83.907725349068642 267.46034835278988 659.77221738547087 448.46693413704634 1.582241803407668 53.99827741086483 4479.6512254849076 969.03442857414484 9931.5617271587253 245.37009838968515 691.73426468670368 119.71780572086573 49.582234598696232
leaf_count=124923 59153 1153 555 47960 33073 39433 85 353107 1693 11325 68 52186 810766 2620 1174 3617 9060 6231 20 752 61972 13638 138987 3468 9707 1679 700
internal_value=-3.2506e-06 -0.0015632 0.013618 -0.00165798 0.0132806 -0.00105381 0.00976826 -0.00137339 0.019999 0.0253586 0.0175319 0.00968397 -0.00104431 0.0139244 0.0123743 0.0286342 0.017357 0.00747733 0.106399 0.00306667 0.003268 -0.00747084 -0.0034277 -0.00544598 -0.00507651 -0.00541013 -0.00790346
internal_weight=128242 115064 13177.4 114968 13129.8 104144 8622.4 96648.7 4507.42 1420.36 3087.05 8615.45 83304.9 316.472 3881.79 1103.89 3081.54 4733.66 47.6116 7495.53 7321.82 10824.1 13343.7 1906.14 1660.77 173.716 8917.95
internal_count=1789105 1608245 180860 1607092 180285 1454656 118829 1350820 61456 19255 42201 118744 1163873 4313 53360 14942 42133 65384 575 103836 101405 152436 186947 26813 23345 2431 125623
is_linear=0
shrinkage=0.01


Tree=5
num_leaves=31
num_cat=0
split_feature=6 4 1 1 1 1 15 17 16 16 1 1 1 1 9 6 4 2 9 9 1 6 9 9 9 4 4 1 1 4
split_gain=25524.4 5301.16 3208.84 2334.67 753.944 492.794 302.98 173.939 482.422 132.816 132.493 113.081 112.097 65.6946 61.0727 58.2637 42.8097 41.4999 40.2057 37.4085 34.5636 34.3516 33.3028 30.53 26.5357 26.483 26.4198 24.4013 21.2766 20.4258
threshold=0.10623855311355314 0.014337101747173691 0.19803921568627456 0.071067821067821071 0.267948717948718 0.16552511415525115 1.0000000180025095e-35 2.5000000000000004 2.5000000000000004 1.5000000000000002 0.22140522875816995 0.088986679069323713 0.32666666666666672 0.15285947712418305 42.336889346924956 0.14896885315553815 0.15424266455194294 0.60041152263374498 32.287457046790259 42.851556374047739 0.17871660859465741 0.14448950318515538 19.168014318852169 42.498384037579406 48.107697371890914 0.085357322192050639 0.093573818095367481 0.40588235294117653 0.1330383480825959 0.0060298864749193
decision_type=10 8 10 10 10 10 10 10 10 10 10 10 10 10 2 10 10 10 2 2 10 10 2 2 2 10 10 10 10 10
left_child=1 29 5 6 10 13 -3 9 -9 -8 21 25 -6 18 20 -12 -15 23 -2 -17 -7 -4 -22 -13 -23 -5 -19 -14 -20 -1
right_child=2 3 4 11 12 14 7 8 -10 -11 15 17 27 16 -16 19 -18 26 28 -21 22 24 -24 -25 -26 -27 -28 -29 -30 -31
leaf_value=-0.0079048104288860655 0.0099215010515300434 -0.004656638593218773 0.010247624486808087 0.0028631980678293246 0.031115989688992665 0.014375040035563494 -0.0046447992996282838 0.0018778612625497415 -0.0010619733812509084 -0.0013982377182973679 0.010119262899758827 0.0060204839557149838 0.039658537699351751 0.01239980012980918 0.012588393132881029 0.025238978166255924 0.0088050904311780427 0.004600875561777058 0.0063959651115698107 0.02139021499810748 0.012211564776675937 0.02000858078220857 0.01795975697547255 0.0042934647660772228 0.016520775742693145 -0.00026907790061516041 0.0018704494604969842 0.052215548931193505 0.0084914951941285049 -0.0056527574075688316
leaf_weight=11215.249358572066 1447.5764123648405 2418.2304264977574 45.517921768128872 2294.0636609122157 350.29846275597811 1038.0364662408829 1295.8169030472636 6605.5423637107015 36010.825383976102 45988.982086859643 31.990709513425827 3113.7353943511844 149.21172831952572 955.09689553827047 1062.6403017267585 745.0420309305191 513.43661054968834 905.78914904594421 752.49031285941601 398.34804681688547 119.94736045598984 939.24684339761734 711.3462852910161 1535.1193861812353 294.57932741940022 305.25068055838346 585.00433016568422 19.171566553413868 1399.5680287033319 422.25796657800674
leaf_count=163739 20680 35194 649 33001 4889 14766 18817 95626 521604 666499 451 44639 2061 13648 15127 10484 7340 13003 10762 5616 1700 13276 10092 22032 4172 4389 8392 261 20020 6176
internal_value=-1.4325e-05 -0.00143198 0.0145444 -0.000695968 0.0234147 0.0112473 -0.00116362 -0.00106964 -0.000606272 -0.00148724 0.0210972 0.00424416 0.0343743 0.00935861 0.0145112 0.0235276 0.0111444 0.00498449 0.00862951 0.023901 0.0156029 0.0188619 0.0171331 0.00545052 0.0191781 0.00249498 0.00353029 0.0411243 0.00775957 -0.00782323
internal_weight=123669 112696 10973.5 101058 2973.41 8000.14 92319.4 89901.2 42616.4 47284.8 2454.72 8738.96 518.682 5068.17 2931.97 1175.38 1468.53 6139.65 3599.63 1143.39 1869.33 1279.34 831.294 4648.85 1233.83 2599.31 1490.79 168.383 2152.06 11637.5
internal_count=1789105 1633111 155994 1463196 41859 114135 1337740 1302546 617230 685316 34648 125456 7211 72450 41685 16551 20988 88066 51462 16100 26558 18097 11792 66671 17448 37390 21395 2322 30782 169915
is_linear=0
shrinkage=0.01


Tree=6
num_leaves=31
num_cat=0
split_feature=3 3 5 8 4 12 4 5 2 3 8 5 4 2 7 7 3 12 7 14 5 0 6 8 8 9 6 7 4 15
split_gain=5078.64 3455.07 351.219 345.669 257.75 189.493 158.241 152.477 241.456 139.779 137.805 109.997 101.721 96.9785 91.7505 70.682 67.6186 66.9342 67.7006 63.4491 49.3375 47.3337 81.8642 44.898 43.4972 42.5667 39.7451 36.1083 28.7883 24.7562
threshold=0.62189997950399689 0.72653958944281538 0.045469026850211265 0.90298382173382186 0.096781010552722715 1.5000000000000002 0.11172295643661283 0.22560705810986817 0.51191151446398198 0.97090562843842576 0.97629490392648288 0.15257363557353756 0.0176214873466853 0.51191151446398198 0.66200039184952986 0.52006493506493523 0.76867335562987749 1.0000000180025095e-35 0.65834740990991003 91.500000000000014 0.11497924797550825 0.028726147498710681 1.0000000180025095e-35 0.86370920745920754 0.89056366658655783 48.766696250844852 0.19274891774891775 0.44458616780045362 0.029631255487269536 1.5000000000000002
decision_type=8 10 10 2 10 10 10 10 10 10 2 10 10 10 10 10 10 10 10 2 10 10 10 2 2 2 10 10 10 10
left_child=2 3 6 17 7 19 15 8 20 16 14 13 -10 -6 -7 24 -3 -2 23 -5 -4 22 -18 -19 -1 -12 -15 -13 -17 -21
right_child=1 9 4 5 11 10 -8 -9 12 -11 25 27 -14 26 -16 28 21 18 -20 29 -22 -23 -24 -25 -26 -27 -28 -29 -30 -31
leaf_value=0.038233229374393669 -0.0019348751065014459 -0.0036898782372284797 0.01768034531238093 0.00036667469745138884 0.0092181178624536481 7.7165582948460239e-05 0.0076491211640197145 0.00097111930868596611 0.01032736589381324 -0.0077794660089276222 -0.00075535916687414313 0.0063541175222540389 0.0062091185892859113 0.0039602248786155658 -0.0019901314299865685 0.018420735923342351 -0.0031947106479963032 0.0016612880045013957 -0.0012054070659587601 -0.0032002697903206301 0.011308497630850949 -0.0067566302066492572 -0.0061932034531781257 0.00076629626115288401 0.01995139055451943 -0.002399570100750491 -0.00058426811087682919 -0.0014227211202302878 0.012740218357481625 -0.0018737379103193545
leaf_weight=18.115229919552803 774.77292558923364 2131.6577400974929 201.45977182686329 1051.189430527389 345.77561795711517 40990.387724325061 507.73810331895947 414.10566296428442 676.44389693439007 2888.4944645054638 3023.2778237313032 67.39928600564599 5367.7783223465085 1953.3110729493201 2265.3947214111686 116.66495284438133 1492.6705839112401 10362.594890411943 1258.8265325538814 2021.9693644680083 313.31009842827916 2706.2475151829422 2343.4815775565803 12223.687204770744 49.85429472848773 3291.2281077355146 213.03447413817048 515.58879605308175 406.05950988829136 4655.1706022210419
leaf_count=303 13272 36491 3378 17989 5812 701215 8558 7026 11387 50044 51806 1142 90902 33093 38720 1955 25721 176818 21425 34722 5284 46630 40412 208747 835 56493 3610 8756 6849 79710
internal_value=5.2582e-06 -0.000756126 0.0063792 -3.38369e-05 0.0057931 -0.000459653 0.0117494 0.00685923 0.00723081 -0.00587328 -0.00023256 0.00339071 0.00667034 0.00429888 -3.10843e-05 0.0152702 -0.00523831 0.000957136 0.00105115 -0.0019161 0.0138071 -0.00574261 -0.00502685 0.00117697 0.0248876 -0.00161253 0.00351286 -0.00052099 0.0140132 -0.00227563
internal_weight=104648 93481.1 11166.6 81918.5 10068.2 57298.6 1098.43 6973.1 6558.99 11562.6 49570.3 3095.11 6044.22 2512.12 43255.8 590.694 8674.06 24619.9 23845.1 7728.33 514.77 6542.4 3836.15 22586.3 67.9695 6314.51 2166.35 582.988 522.724 6677.14
internal_count=1789105 1600215 188890 1400917 170390 980655 18500 117977 110951 199298 848234 52413 102289 42515 739935 9942 149254 420262 406990 132421 8662 112763 66133 385565 1138 108299 36703 9898 8804 114432
is_linear=0
shrinkage=0.01


Tree=7
num_leaves=31
num_cat=0
split_feature=7 3 11 2 8 0 12 8 1 8 3 0 12 5 2 1 8 2 5 8 8 1 8 0 1 3 8 10 1 4
split_gain=25549.6 7638.51 4332.92 2298.37 1373.29 1153.45 729.056 566.716 534.38 426.971 405.325 317.075 314.635 291.199 278.408 204.12 172.51 157.822 145.938 113.777 99.9629 96.1633 95.6859 83.8667 92.7187 70.7535 69.1386 67.4493 61.5939 59.4872
threshold=0.75010026737967939 0.89047619047619053 22.500000000000004 0.57196045303798271 0.90606162843004967 0.78502747252747274 1.0000000180025095e-35 0.90298382173382186 0.17871660859465741 0.97629490392648288 0.96791352093342498 0.14907407407407411 1.0000000180025095e-35 0.41977911646586352 0.66797900262467202 0.104454502713342 0.86370920745920754 0.60041152263374498 0.066697994987468687 0.95350361335040368 0.95909416398138203 0.082585767439135163 0.97076972734867484 0.23285712046644308 0.065395580898075567 0.60225569203932194 0.98297841518180518 6.5000000000000009 0.26138716356107666 0.016225560742742815
decision_type=8 10 8 10 2 10 10 2 10 2 10 10 10 10 10 10 2 10 10 2 2 10 2 10 10 10 2 8 10 10
left_child=3 2 4 5 12 8 -6 17 11 -8 29 21 -2 -13 15 19 -14 25 28 -9 -17 -1 -20 24 -19 27 -16 -5 -10 -3
right_child=1 10 -4 7 6 -7 9 14 18 -11 -12 13 16 -15 26 20 -18 23 22 -21 -22 -23 -24 -25 -26 -27 -28 -29 -30 -31
leaf_value=-0.0043284421525460384 0.003381497467268426 0.0064177528101697348 -0.043870882823805878 -0.0066476715198962016 0.0048913255177172451 -0.041665527847871718 0.0011240748099001106 -0.0044010296358926553 -0.008043353285638169 0.0026991147705897 0.0087641541544913656 -0.010232398560613672 -0.00087107880534623182 0.0011419544012885746 -0.0026026345726295509 -0.0062749727572743857 0.00012142041022559437 -0.0037119960988675955 -0.014596853243653972 -0.0026480385787247137 -0.00399007626477931 -0.0071082909811613559 -0.0077119835700724384 -0.01024140376328524 -0.0059601755774172909 -0.0091022511235589847 0.0011050004221596231 -0.042683641972119067 -0.013083296750286483 0.0048947895974491354
leaf_weight=1739.7630002498627 2386.5344636440277 8803.75628516078 215.89929991960526 3006.1358566135168 5967.4175345003605 108.1783792078495 132783.69101461768 10216.489420577884 828.13488909602165 19775.938294827938 8952.8531496971846 4827.4693759828806 30958.068798601627 235.90179538726807 8092.0674075335264 6709.8275989741087 40319.761876314878 2558.9315415471792 1988.4676121324301 5813.9811613857746 2684.5747481882572 4396.6316919177771 225.80081188678741 361.47242805361748 6512.0742186754942 2110.0538435727358 535.83781081438065 5.116878241300582 344.98755425214767 3632.2855160683393
leaf_count=9750 13527 50094 1143 16818 33874 575 750345 57288 4613 111909 51087 26889 174536 1332 45486 37563 227487 14354 11023 32652 15068 24588 1258 2021 36442 11796 3020 27 1915 20625
internal_value=5.16628e-06 0.00142279 0.000896489 -0.0056785 0.000938139 -0.00914402 0.00146239 -0.00463072 -0.00890249 0.00132825 0.00714142 -0.00784949 -0.000190037 -0.00970226 -0.00392471 -0.00445149 -0.000309638 -0.00628252 -0.0123834 -0.00376533 -0.00562219 -0.00632041 -0.0138956 -0.0055147 -0.00532612 -0.00769638 -0.00237225 -0.00671065 -0.00952732 0.00597305
internal_weight=317098 253796 232407 63301.9 232191 14695.3 158527 48606.6 14587.2 152560 21388.9 11199.8 73664.4 5063.37 34052.8 25424.9 71277.8 14553.8 3387.39 16030.5 9394.4 6136.39 2214.27 9432.48 9071.01 5121.31 8627.91 3011.25 1173.12 12436
internal_count=1789105 1434627 1312821 354478 1311678 81943 896128 272535 81368 862254 121806 62559 415550 28221 191077 142571 402023 81458 18809 89940 52631 34338 12281 52817 50796 28641 48506 16845 6528 70719
is_linear=0
shrinkage=0.01


Tree=8
num_leaves=30
num_cat=0
split_feature=5 11 5 0 0 5 11 12 0 5 0 11 8 5 5 0 5 8 3 12 0 5 8 0 3 5 5 0 14
split_gain=27704.5 10826.1 4453.34 3400.27 2720.51 1649.33 671.893 603.293 506.796 629.335 495.214 421.02 363.305 303.673 214.914 194.786 165.696 151.804 103.923 85.3817 79.4907 76.9087 66.2861 40.3469 34.9761 10.4715 2.62906 4.813 1.55541
threshold=0.11478862264408797 22.500000000000004 0.031752035723666937 0.78502747252747274 0.19714924160346697 0.064329885221478617 21.500000000000004 1.5000000000000002 0.24417344173441738 0.41977911646586352 0.16609195402298851 21.500000000000004 0.90606162843004967 0.22235635547751445 0.16365001365001369 0.33166210878152541 0.089132313938714555 0.95909416398138203 0.49509803921568635 1.0000000180025095e-35 0.13250300120048022 0.012506364658854288 0.94513021225350002 0.031754032258064523 0.49509803921568635 0.0185326332429991 0.0097985875525400598 0.012802301864801866 186.50000000000003
decision_type=10 8 8 10 10 10 8 10 10 10 10 8 2 10 10 10 10 2 8 10 10 10 2 10 10 10 10 10 2
left_child=1 2 21 4 6 7 10 19 11 15 14 13 -9 -6 -2 -10 20 -12 -11 -4 -7 26 -18 25 -5 -23 -1 -28 -25
right_child=3 -3 5 24 8 16 -8 12 9 18 17 -13 -14 -15 -16 -17 22 -19 -20 -21 -22 23 -24 28 -26 -27 27 -29 -30
leaf_value=-0.0078974065925179488 0.0085614307308632086 0.097080335058141967 -0.0047261194603623125 0.056177424245902288 0.018589822885490923 0.0020051516736564376 0.10003301671861055 -7.8595096542691975e-05 0.02432551830486266 -0.0020135991560987342 0.013786651535168852 0.10096465537451586 -0.0015100652508147061 0.0091177817167235522 0.0010469963247046645 0.03317792824255382 0.0053690588129863106 0.008719251861877355 0.052485944347929074 -0.0028829169036615077 -0.0052500992142987916 -0.005712502943002973 0.0028139108246315893 -0.0066438459137219694 0.095615751074286964 -0.003862939250343349 -0.0055146807438714272 -0.0079380470279065002 -0.0078752681522682166
leaf_weight=9314.2908093258739 4019.576279014349 111.10751962661743 3385.8274100199342 3.0104311406612387 2694.7696110382676 4761.3967325463891 8.2213411182165128 26138.452117212117 1020.6190719008446 92.77125409245491 3006.7957430109382 5.9502474889159194 55124.586588412523 387.93496537208557 420.78234332054853 331.22729825973511 2813.3799046799541 738.26988007873297 3.5357915163040152 9784.4656871855259 155.79279904812574 529.3142097517848 1592.5207221806049 147.11284073442221 50.410422816872597 744.63384371250868 140.57943101972342 215.71364778280258 557.15043348819017
leaf_count=132459 54870 1171 47946 35 36057 65833 90 364517 13422 1290 40643 66 772505 5265 5825 4322 38523 10056 48 137352 2164 7512 21909 2080 535 10514 1997 3052 7822
internal_value=7.3993e-06 -0.00153846 -0.0016335 0.0139759 0.0136413 -0.000975277 0.010201 -0.00137144 0.0198541 0.0247381 0.0101094 0.0175631 -0.00104964 0.0173985 0.0078496 0.0264976 0.0030373 0.0127882 2.92766e-05 -0.00335688 0.00177498 -0.00749618 0.00444581 -0.00569713 0.0935211 -0.00463259 -0.00786402 -0.0069865 -0.00762044
internal_weight=128300 115516 115405 12783.9 12730.5 103756 8193.65 94433.3 4536.81 1448.15 8185.42 3088.65 81263 3082.7 4440.36 1351.85 9323.09 3745.07 96.307 13170.3 4917.19 11648.8 4405.9 1978.21 53.4209 1273.95 9670.58 356.293 704.263
internal_count=1789880 1617356 1616185 172524 171954 1450749 111484 1322320 60470 19082 111394 41388 1137022 41322 60695 17744 128429 50699 1338 185298 67997 165436 60432 27928 570 18026 137508 5049 9902
is_linear=0
shrinkage=0.01


Tree=9
num_leaves=31
num_cat=0
split_feature=6 4 1 1 1 1 8 12 8 8 8 8 12 16 8 1 1 1 1 8 8 8 8 1 8 8 8 8 1 1
split_gain=24680.3 5268.75 2955.44 2262.76 594.702 445.735 419.383 224.353 146.658 129.84 115.439 112.881 106.998 105.782 91.0082 85.9073 82.2032 78.0949 71.2712 48.5758 47.2365 43.9435 35.773 35.3405 34.9451 33.4453 33.4252 29.4858 27.201 25.78
threshold=0.10623855311355314 0.014337101747173691 0.19803921568627456 0.071067821067821071 0.267948717948718 0.16345083487940634 0.90606162843004967 1.0000000180025095e-35 0.87677086992155495 0.95896025151583209 0.97629490392648288 0.85559210526315799 1.0000000180025095e-35 2.5000000000000004 0.96429940972650219 0.22140522875816995 0.090619233966625454 0.32666666666666672 0.14134615384615387 0.97507516481924228 0.95882264429980324 0.96300343175343184 0.98819966583124497 0.17871660859465741 0.90298382173382186 0.98367319738771164 0.90520100281491922 0.97076972734867484 0.42261904761904767 0.21320346320346323
decision_type=10 8 10 10 10 10 2 10 2 2 2 2 10 10 2 10 10 10 10 2 2 2 2 10 2 2 2 2 10 10
left_child=1 -1 5 6 8 14 12 -8 29 23 -9 -5 -3 -14 18 22 -13 21 -2 -17 -18 -6 -10 26 -20 -11 -7 28 -19 -4
right_child=2 3 4 11 17 9 7 10 15 25 -12 16 13 -15 -16 19 20 27 24 -21 -22 -23 -24 -25 -26 -27 -28 -29 -30 -31
leaf_value=-0.0078171936612827248 0.0080506654506019622 -0.0034011812598399821 0.022715701388532804 0.0073283864296237932 0.03103135316102049 0.016002601463810672 -0.0046062632046811724 -0.0013232638870572877 0.017673814824754493 0.011173336509922558 -0.0026223801639807297 0.0023323631210710348 0.0011549070688581531 -0.00035966742000877709 0.0062903545382380537 0.022275036246639481 0.005064685587440017 0.037461635679471812 0.012240754466894826 0.015077063139345629 0.0028900668818165323 0.021576485876108213 0.0066403167674738382 0.016540846652029321 0.0099075260706804509 0.0053090636545789207 0.012734622445157908 0.025084222024705824 0.051074091261462055 0.027516896679881695
leaf_weight=11552.662088528275 1472.5737714096904 984.89636672288179 201.01740995049477 991.12888039648533 296.78794956952333 533.78337528556585 2405.3698271736503 52690.213877752423 1019.3958710134029 511.33106511086226 7862.8401185423136 2702.1375568807125 5804.6195479333401 22429.993013739586 878.01837594807148 871.00010342895985 3774.2755991518497 141.38673890382051 1033.5552427992225 107.12967331707478 1362.5636475905776 61.162245973944664 30.722059562802315 1047.408279761672 1736.7111086249352 121.33214516192675 783.04359426349401 18.043599680066109 17.840654224157333 278.91144961863756
leaf_count=170233 20793 14378 2759 14049 3992 7445 35282 765127 14143 7195 114438 38676 83859 324772 12470 11944 53642 1866 14530 1488 19464 834 429 14563 24542 1712 10977 242 229 3807
internal_value=-1.34793e-05 -0.00141991 0.0141702 -0.000688209 0.0225747 0.0110189 -0.00115146 -0.00161098 0.0205299 0.0140829 -0.00149198 0.00414757 -0.000161317 -4.82549e-05 0.0092254 0.019349 0.00374519 0.0321497 0.00983239 0.0214893 0.00448812 0.0294251 0.0173526 0.0151608 0.0107788 0.0100513 0.0140612 0.0376259 0.0390242 0.0255132
internal_weight=123722 112561 11161.2 101008 3043.4 8117.76 92177.9 62958.4 2508.18 2996.9 60553.1 8830.11 29219.5 28234.6 5120.86 2028.25 7838.98 535.221 4242.84 978.13 5136.84 357.95 1050.12 2364.24 2770.27 632.663 1316.83 177.271 159.227 479.929
internal_count=1789880 1633920 155960 1463687 41733 114227 1337856 914847 34570 41892 879565 125831 423009 408631 72335 28004 111782 7163 59865 13432 73106 4826 14572 32985 39072 8907 18422 2337 2095 6566
is_linear=0
shrinkage=0.01


Tree=10
num_leaves=31
num_cat=0
split_feature=3 3 4 8 5 5 12 2 3 8 6 7 5 4 14 12 2 4 3 7 2 2 14 0 1 2 0 8 8 8
split_gain=4866.83 3444.15 352.534 341.954 282.415 226.055 178.938 170.391 135.491 124.551 109.986 96.0406 87.3566 71.8858 78.817 71.0449 68.2801 85.077 66.4604 62.8824 58.2998 54.2579 52.3735 45.2964 73.4105 44.3277 40.023 37.4744 37.1527 36.0133
threshold=0.6195238095238097 0.72653958944281538 0.0060298864749193 0.90298382173382186 0.10527708159287107 0.12952933565182917 1.5000000000000002 0.55607966457023073 0.97259759759759767 0.97629490392648288 0.11410906472198734 0.66200039184952986 0.19051053113553115 0.083729815455594006 162.50000000000003 1.0000000180025095e-35 0.49489795918367352 0.086797966778539529 0.76867335562987749 0.65834740990991003 0.52223320158102771 0.48212005108556838 99.500000000000014 0.029520697167755995 1.0000000180025095e-35 0.55470085470085484 0.27128427128427129 0.86552164725539349 0.90062617234911191 0.99205899035734546
decision_type=8 10 10 2 10 10 10 10 10 2 10 10 10 10 2 10 10 10 10 10 10 10 2 10 10 10 10 2 2 2
left_child=2 3 5 15 7 20 22 10 18 11 21 -8 16 -9 -15 -2 -6 -18 -3 27 -1 -4 -5 24 -20 26 -7 -17 -12 -11
right_child=1 8 4 6 12 25 9 13 -10 29 28 -13 -14 14 -16 19 17 -19 23 -21 -22 -23 -24 -25 -26 -27 -28 -29 -30 -31
leaf_value=0.022486549693311448 -0.0020315848827010129 -0.0037288831370878356 0.021679923396476238 7.9202107619884218e-06 0.0091220213350735688 0.013149118961556365 6.1075902664825936e-05 0.0093904756827350271 -0.0077833920023057807 -0.0012014437820553495 0.011247782781270609 -0.0020524331096159264 0.00030096228132128723 0.0069104155425864866 0.0043291148702418415 0.0015899482368575951 0.0053152247850957049 0.0017143762583046172 -0.0033485009035278839 -0.0011268055242705756 0.014372474756965369 0.012496911640598924 -0.0022381643981720925 -0.0067707862414923539 -0.0061773074171233722 0.0049029408727419019 0.0039824179766553766 0.00077533933893306564 0.0059627040325190232 -0.0031736540715751895
leaf_weight=111.53439271450043 775.75294994190335 2132.6577440053225 76.689261700958014 1235.1582377888262 252.89292480051517 166.36260899528861 40973.509293798357 596.04889085888863 2834.7222295291722 5162.6623518355191 193.91009037196636 2268.9844492971897 738.14004127308726 2532.4025737009943 2227.293861605227 10804.709509138018 1446.2938118614256 1203.1091558299959 1509.0751814581454 1264.7256296612322 449.36756455153227 419.14178968593478 6479.443175856024 2657.2025711834431 2349.7648787274957 357.65863255411386 67.372726038098335 11846.859569828957 430.64564916491508 1129.3980269394815
leaf_count=1829 13324 36551 1257 21159 4196 2749 701220 9979 49774 88804 3216 38769 12454 42460 37386 183923 24262 20232 26198 21470 7421 6971 111422 46154 40866 5981 1125 202132 7152 19444
internal_value=-7.46594e-06 -0.00075629 0.00620053 -3.7496e-05 0.00560329 0.0114421 -0.000461762 0.00685615 -0.00588519 -0.000241105 0.0104041 -4.98038e-05 0.00337413 0.00611358 0.00570283 0.000946134 0.00415535 0.00368056 -0.00526283 0.00104277 0.0159914 0.0139233 -0.00187843 -0.00576466 -0.00507142 0.00712367 0.010514 0.00116395 0.00760674 -0.00155565
internal_weight=104693 93424.6 11268.9 81941.2 10116.6 1152.3 57249.2 6476.13 11483.4 49534.6 1120.39 43242.5 3640.44 5355.75 4759.7 24692 2902.3 2649.4 8648.7 23916.3 560.902 495.831 7714.6 6516.04 3858.84 591.394 233.735 22651.6 624.556 6292.06
internal_count=1789880 1601210 188670 1401667 169565 19105 980818 108421 199543 848237 18596 739989 61144 89825 79846 420849 48690 44494 149769 407525 9250 8228 132581 113218 67064 9855 3874 386055 10368 108248
is_linear=0
shrinkage=0.01


Tree=11
num_leaves=31
num_cat=0
split_feature=7 3 11 7 8 0 12 8 8 3 6 7 0 12 3 8 6 8 0 6 0 5 5 10 8 4 5 7 0 8
split_gain=24722.5 7532.23 4021.53 1613.01 1381.13 1028.8 675.736 671.347 418.713 395.295 386.288 329.25 316.073 305.598 227.704 188.63 175.107 164.616 154.551 196.623 291.421 142.249 108.096 100.256 73.1906 59.1343 79.7377 58.5943 46.9178 39.5367
threshold=0.76006617038875124 0.89047619047619053 22.500000000000004 0.57139804639804648 0.90606162843004967 0.78502747252747274 1.0000000180025095e-35 0.90298382173382186 0.97629490392648288 0.96791352093342498 0.064380877742946721 0.67588566827697272 0.17974358974358975 1.0000000180025095e-35 0.67602554010321014 0.95909416398138203 0.18757151029748287 0.86370920745920754 0.23285712046644308 0.065257024834521074 0.090697393092602691 0.41977911646586352 0.12509398496240604 inf 0.95896025151583209 0.015504807692307694 0.040031055900621122 0.6296431963098631 0.19292803970223329 0.99205899035734546
decision_type=8 10 8 10 2 10 10 2 2 10 10 10 10 10 10 2 10 2 10 10 10 10 10 8 2 10 10 10 10 2
left_child=3 2 4 5 13 10 -6 18 -8 25 21 14 16 -2 15 -9 -12 -15 19 -5 -21 22 -1 -14 28 26 -3 -16 -13 -26
right_child=1 9 -4 7 6 -7 8 11 -10 -11 12 24 23 17 27 -17 -18 -19 -20 20 -22 -23 -24 -25 29 -27 -28 -29 -30 -31
leaf_value=-0.0039132814923769129 0.0033260406734191179 0.0069498220290891343 -0.040839622982654138 -0.0043147488257139635 0.0047673210202900497 -0.039141722005491771 0.0011297713168024869 -0.004967526009202446 0.002694044349762567 0.0087328847815360006 -0.0077695796395142822 -0.002788985347145001 -0.013245159915616853 -0.00086403655860748947 -0.0102851309682032 -0.0030708280253858816 -0.012041422992756151 0.00010631674281260749 -0.011078569334060808 -0.0054747715147291489 -0.0086161947114745761 0.0018273904907043193 -0.0081183386176106927 -0.042523666141176378 -0.0016621908674000852 0.0049032764610728924 0.0046735973477493959 -0.0067059069880396043 -0.0049359521950805155 0.0024735539486864084
leaf_weight=1073.6514799743891 2381.3742629140615 6594.8644990622997 230.57981283962727 3713.3911236673594 5951.2972398251295 113.12498940527439 132213.80171404779 17825.958304926753 19656.945942491293 8872.5722615122795 4155.3901112526655 6012.8775068223476 1979.9809955060482 30933.3050673455 645.35528111457825 7434.3313663601875 1249.9019414782524 40203.216174185276 715.73342774808407 6281.6912176907063 5579.4100494682789 234.68103069067001 1424.4307885915041 11.717755153775213 2968.452440559864 3694.542458102107 2012.8998752385378 1589.5029779523611 1227.4619043767452 250.39631502330303
leaf_count=5989 13564 37878 1154 20720 33990 570 748187 99195 111547 51201 22978 33655 10833 174287 3554 41511 6828 226894 3947 34920 30878 1324 7855 61 16644 21113 11518 8825 6849 1411
internal_value=4.72836e-06 0.00141484 0.000892813 -0.0055219 0.000934431 -0.00916157 0.00146179 -0.0048346 0.00133225 0.00712372 -0.00882628 -0.00410567 -0.0100134 -0.000197644 -0.00468018 -0.00440936 -0.00875778 -0.000315622 -0.00653282 -0.00632378 -0.00695263 -0.00561231 -0.00631168 -0.01342 -0.0025953 0.00596303 0.00641771 -0.00774033 -0.00315316 -0.00134009
internal_weight=317233 252745 231571 64487.4 231340 10242.9 157822 54244.6 151871 21174.9 10129.8 37954.3 7396.99 73517.9 27495.1 25260.3 5405.29 71136.5 16290.2 15574.5 11861.1 2732.76 2498.08 1991.7 10459.2 12302.3 8607.76 2234.86 7240.34 3218.85
internal_count=1789880 1431333 1309623 358547 1308469 56438 893724 302109 859734 121710 55868 211644 40700 414745 153085 140706 29806 401181 90465 86518 65798 15168 13844 10894 58559 70509 49396 12379 40504 18055
is_linear=0
shrinkage=0.01


Tree=12
num_leaves=31
num_cat=0
split_feature=5 11 5 0 0 5 10 12 0 0 5 10 8 5 5 0 5 8 8 3 15 0 5 9 8 0 3 3 8 5
split_gain=26515.7 9630.24 4340.56 3227.32 2427.65 1349.3 628.308 587.715 498.496 458.917 602.349 344.084 342.858 283.665 193.314 183.469 119.823 118.829 106.627 85.5461 80.7595 78.6262 77.5428 75.3777 49.4746 42.1721 36.1673 33.6366 22.8866 14.0586
threshold=0.10973650437138954 22.500000000000004 0.031752035723666937 0.19714924160346697 0.78502747252747274 0.063680926916221042 10.500000000000002 1.5000000000000002 0.16609195402298851 0.24417344173441738 0.41977911646586352 inf 0.90606162843004967 0.22235635547751445 0.16365001365001369 0.33166210878152541 0.089132313938714555 0.90298382173382186 0.97663208502024301 0.49509803921568635 2.5000000000000004 0.13250300120048022 0.012506364658854288 27.01974735549577 0.94527480450335544 0.031754032258064523 0.7974358974358976 0.49509803921568635 0.94527480450335544 0.021742247304946269
decision_type=10 8 8 10 10 10 8 10 10 10 10 8 2 10 10 10 10 2 2 8 10 10 10 2 2 10 10 10 2 10
left_child=1 2 22 6 9 7 8 20 14 11 15 13 -9 -5 18 -11 21 26 -2 -12 -4 -7 -1 -19 -18 29 -10 -6 -16 -24
right_child=3 -3 5 4 27 16 -8 12 17 10 19 -13 -14 -15 28 -17 24 23 -20 -21 -22 -23 25 -25 -26 -27 -28 -29 -30 -31
leaf_value=-0.0078595356241175102 0.0085276279369106197 0.085909711883796633 -0.0042141406819619564 0.017864093601742119 0.049559614111217662 0.0019393463381585485 0.091064814288025028 -0.00010977253064828298 0.014370177361066754 0.023208633332253842 -0.0025961400083701525 0.089261795788191794 -0.0015017282561333497 0.0087470143509055538 -0.0020579689754364667 0.031662613715720073 0.0048978783714300929 0.014825721609514328 0.0028039676972677931 0.046779137483824389 -0.0026338114167306957 -0.005223637320171024 -0.0054830735966373114 0.010321946809819096 0.0024786705927126464 -0.0076565248780478381 0.020694627903732485 0.084650538366722206 0.0027796861255014178 -0.0033421545535643939
leaf_weight=9577.3451232612133 4328.8464318141341 125.58098151534796 5821.943937420845 2753.772313401103 3.5378905907273284 4860.5841505602002 9.3710785359144193 26099.235429570079 1095.1806786283851 1055.0381063818932 91.697533831000328 6.4664486795663825 54966.942629151046 390.40399994701147 150.9885791093111 341.94641897827387 2484.0704335942864 450.27725069969893 352.64767905324697 3.5478435158729544 7289.3083442077041 158.06589342653751 741.02157749980688 2181.5845112577081 1285.1547073870897 697.19438748806715 100.00434508919716 57.08165867626667 276.44694626331329 530.39260197430849
leaf_count=137504 58445 1184 82572 36094 38 66897 94 363902 14528 13497 1279 64 772034 5233 2078 4304 33732 6008 4784 46 102660 2205 10592 29173 17612 9874 1343 543 3814 7524
internal_value=-8.8279e-06 -0.00157757 -0.0016736 0.0131669 0.0198731 -0.00102163 0.00964048 -0.00137132 0.00955396 0.0190507 0.0236219 0.0168847 -0.0010536 0.0167327 0.00750896 0.0252808 0.0027258 0.0122834 0.00809676 -0.000699313 -0.00333565 0.00171344 -0.00748764 0.0110934 0.00407338 -0.00567756 0.0149019 0.082704 0.0010684 -0.00459107
internal_weight=128286 114637 114511 13648.8 4703.49 102965 8945.35 94177.4 8935.98 4642.87 1492.23 3150.64 81066.2 3144.18 5108.93 1396.98 8787.88 3827.05 4681.49 95.2454 13111.3 5018.65 11546 2631.86 3769.23 1968.61 1195.19 60.6195 427.436 1271.41
internal_count=1789657 1608292 1607108 181365 61098 1441614 120267 1321168 120173 60517 19126 41391 1135936 41327 69121 17801 120446 51052 63229 1325 185232 69102 165494 35181 51344 27990 15871 581 5892 18116
is_linear=0
shrinkage=0.01


Tree=13
num_leaves=31
num_cat=0
split_feature=6 4 1 1 1 1 8 17 16 16 8 8 15 8 16 1 8 1 6 8 1 8 1 8 8 3 8 1 1 8
split_gain=23792.4 5246.87 2807.79 2162.65 639.264 456.351 398.313 195.348 218.448 190.776 138.14 110.227 99.0086 90.0458 86.8679 83.7376 77.281 72.3378 62.4909 55.3532 52.5907 47.0992 46.5464 43.501 40.7546 39.9927 36.7113 35.3997 35.0451 30.9019
threshold=0.10623855311355314 0.014337101747173691 0.19803921568627456 0.071067821067821071 0.267948717948718 0.16552511415525115 0.90606162843004967 2.5000000000000004 2.5000000000000004 1.5000000000000002 0.90411599089992623 0.95896025151583209 1.0000000180025095e-35 0.85957662751921138 2.5000000000000004 0.36931818181818188 0.90298382173382186 0.092136895362701823 0.15389676113360326 0.97629490392648288 0.22140522875816995 0.96815060306065981 0.15184453227931491 0.96555214295686176 0.95909416398138203 0.75782013685239502 0.99148920759090264 0.17871660859465741 0.29814814814814822 0.96429940972650219
decision_type=10 8 10 10 10 10 2 10 10 10 2 2 10 2 10 10 2 10 10 2 10 2 10 2 2 10 2 10 10 2
left_child=1 -1 5 6 10 16 12 9 -9 -8 20 27 -3 -5 -14 21 25 -15 -12 -20 -4 28 29 -17 -19 -2 -13 -7 -6 -18
right_child=2 3 4 13 15 11 7 8 -10 -11 18 26 14 17 -16 23 22 24 19 -21 -22 -23 -24 -25 -26 -27 -28 -29 -30 -31
leaf_value=-0.007808303362500376 0.010088577734609472 -0.0038642847812145622 0.020665402082664035 0.0067799108709201876 0.028169661740984054 0.013700361463177614 -0.0050260763597249911 0.0011676071215099601 -0.0013183726155434237 -0.001893420186494778 0.0091825579488917161 0.010795259452358485 0.0010094945439815084 0.0025157807524703504 -0.00034598737196361639 0.049914903564921329 0.0080100179415572292 0.0049879145771711776 0.019259667194058468 0.013797613558905254 0.025737980751214126 0.022379272576460191 0.0098689421162140717 0.019929703121650228 0.0027609228882616668 0.014508218781130185 0.0016526220770733486 0.016164000647685143 0.033977650197596243 0.00544032971837549
leaf_weight=11440.746022373438 1355.3438146412373 701.40136255323887 432.18095230311155 1062.9459068030119 182.41602646559477 1324.8649176433682 2072.3464634865522 4112.517930381 25138.792099356651 31491.213819824159 75.123690448701382 589.21350269764662 5983.707998521626 3187.3621162846684 22525.433104738593 34.416564173996449 1896.8389537259936 3566.6213095709682 1447.5363833084702 215.87237258255482 401.76088679581881 64.779396288096905 1068.2896221801639 5.9802366942167273 1071.3821368440986 243.42670249938965 47.781686335802078 1069.1430197656155 268.86955733597279 626.53399512916803
leaf_count=170144 18777 10272 5810 14896 2375 18235 30510 59698 365750 458977 1028 8195 86387 45316 326189 424 26515 50265 19538 2954 5334 857 14944 77 15238 3402 671 14587 3463 8829
internal_value=3.62856e-06 -0.00139028 0.0138016 -0.000662642 0.021864 0.0107328 -0.00111761 -0.00156625 -0.000968825 -0.00208689 0.0197592 0.0138166 -0.000152812 0.00404775 -6.14512e-05 0.0315875 0.00893148 0.00367642 0.0181485 0.0185523 0.0231132 0.0304831 0.00811565 0.0455608 0.00447376 0.010763 0.0101114 0.0148016 0.031639 0.00737262
internal_weight=123705 112354 11350.4 100914 3128.94 8221.44 92025.4 62814.9 29251.3 33563.6 2572.47 3031 29210.5 8888.31 28509.1 556.462 5190.43 7825.37 1738.53 1663.41 833.942 516.065 3591.66 40.3968 4638 1598.77 636.995 2394.01 451.286 2523.37
internal_count=1789657 1633642 156015 1463498 41860 114155 1337783 914935 425448 489487 34664 41688 422848 125715 412576 7196 72467 110819 23520 22492 11144 6695 50288 501 65503 22179 8866 32822 5838 35344
is_linear=0
shrinkage=0.01


Tree=14
num_leaves=31
num_cat=0
split_feature=3 3 8 4 5 5 12 3 5 8 7 16 4 7 3 12 16 7 14 8 6 7 6 9 12 7 5 5 5 4
split_gain=4727.77 3394.23 351.077 320.378 314.595 196.015 185.59 136.237 135.054 122.545 112.768 99.1192 97.7488 83.592 67.6187 66.7135 68.3511 57.469 57.1128 54.3743 53.6584 51.2808 50.1994 47.3693 46.5676 46.002 45.2526 44.7437 41.8891 70.815
threshold=0.6195238095238097 0.72653958944281538 0.90298382173382186 0.0060298864749193 0.085688252293932829 0.13331207482993199 1.5000000000000002 0.97259759759759767 0.15257363557353756 0.97629490392648288 0.57139804639804648 2.5000000000000004 0.13363095238095241 0.59990118577075113 0.76867335562987749 1.0000000180025095e-35 2.5000000000000004 0.52006493506493523 95.500000000000014 0.85559210526315799 0.11769144027392943 0.52006493506493523 0.16236541236541238 48.766696250844852 1.5000000000000002 0.65834740990991003 0.034511826874078076 0.19876048817696418 0.017867545999724174 1.0000000180025095e-35
decision_type=8 10 2 10 10 10 10 10 10 2 10 10 10 10 10 10 10 10 2 2 10 10 10 2 10 10 10 10 10 10
left_child=3 2 15 5 10 19 18 14 13 11 12 -8 17 21 -3 -2 24 -5 -4 -1 -10 -6 26 -11 -17 -18 -12 -7 29 -16
right_child=1 7 6 4 8 27 9 -9 20 23 22 -13 -14 -15 28 16 25 -19 -20 -21 -22 -23 -24 -25 -26 -27 -28 -29 -30 -31
leaf_value=0.023375872997635168 -0.0019288910241240854 -0.0036845414479111803 0.00015606527625418358 0.019916806639729882 0.0095609393471900415 0.0098500036596960924 0.0011301501756511435 -0.0077773055251652116 0.0025232379764460826 -0.00063512968211412908 0.010722382378388899 -0.00024093158673911487 0.0069752021142491204 0.0026556479568255725 -0.0033708843464840803 0.00026934877970862507 0.00092095256572101935 0.011884413852138105 -0.0022662991741259973 0.01398107614622285 -0.0019007899811498826 0.0053253282868245466 0.002962438541947512 -0.0023731736152490276 0.0026687767019937742 -0.0011023411720942897 0.0067959383331319834 0.0042875531810442451 -0.0066274213909566252 -0.0062364673653950674
leaf_weight=70.584355156868696 770.88520737364888 2124.5932742469013 1142.5205367170274 122.89461639896035 316.36686552688479 275.71198507398367 6146.1240016929805 2794.2547181881964 1110.1050988174975 3013.9351804405451 330.54571540281177 37095.57245413959 342.55461906641722 1208.2983271069825 1513.2672317251563 1038.8782552182674 18043.522775847465 332.8276387937367 6542.112524703145 518.54460770636797 363.72189333289862 3043.4797967858613 305.37339977547526 3273.3829184360802 3668.529349733144 1197.8290520273149 2719.1742153763771 306.57440153509378 2932.8511110320687 2012.9610273018479
leaf_count=1135 13278 36452 19587 1973 5158 4520 105288 49723 18538 51907 5441 634994 5614 20202 26496 17676 307093 5452 112863 8410 6087 50593 5081 56579 62373 20275 45150 5077 51366 35276
internal_value=1.17931e-06 -0.000740553 -2.98077e-05 0.0060902 0.00552083 0.0110439 -0.00046009 -0.00585855 0.00406394 -0.000235724 0.0076398 -4.60287e-05 0.0110204 0.00491324 -0.00523374 0.000966039 0.00105927 0.0140566 -0.00190602 0.0151122 0.00143071 0.00572473 0.00683486 -0.00154019 0.00213948 0.00079494 0.00722217 0.00692432 -0.00574309 -0.00500713
internal_weight=104678 93311.2 81933.3 11366.8 10195.3 1171.42 57213.6 11377.9 6041.97 49529 4153.37 43241.7 798.277 4568.14 8583.67 24719.6 23948.8 455.722 7684.63 589.129 1473.83 3359.85 3355.09 6287.32 4707.41 19241.4 3049.72 582.286 6459.08 3526.23
internal_count=1789657 1601226 1401913 188431 169289 19142 981218 199313 100578 848768 68711 740282 13039 75953 149590 420695 407417 7425 132450 9545 24625 55751 55672 108486 80049 327368 50591 9597 113138 61772
is_linear=0
shrinkage=0.01


Tree=15
num_leaves=31
num_cat=0
split_feature=7 3 11 2 8 0 12 8 1 8 3 5 12 5 2 8 8 2 1 1 5 0 1 3 1 8 8 4 5 8
split_gain=23864.9 7458.3 3776.08 2053.93 1351.07 950.226 679.567 502.495 477.902 408.631 395.181 305.667 302.616 300.74 270.981 170.61 169.139 146.436 128.959 109.164 108.908 78.1928 84.1494 72.3457 76.6982 66.618 65.0605 61.6416 77.5069 53.1715
threshold=0.75010026737967939 0.89047619047619053 22.500000000000004 0.574944933920705 0.90606162843004967 0.78502747252747274 1.0000000180025095e-35 0.90298382173382186 0.19098277608915909 0.97629490392648288 0.96791352093342498 0.12509398496240604 1.0000000180025095e-35 0.41977911646586352 0.66797900262467202 0.86370920745920754 0.95727117726261579 0.60041152263374498 0.062114197530864203 0.07419919919919922 0.071471861471861478 0.23285712046644308 0.065395580898075567 0.60225569203932194 0.12521777003484322 0.95909416398138203 0.99148920759090264 0.015504807692307694 0.023883928571428573 0.99205899035734546
decision_type=8 10 8 10 2 10 10 2 10 2 10 10 10 10 10 2 2 10 10 10 10 10 10 10 10 2 2 10 10 2
left_child=3 2 4 5 12 8 -6 17 11 -8 27 19 -2 -13 16 -14 18 23 -9 -1 -10 22 -19 24 -5 -22 -16 28 -3 -18
right_child=1 10 -4 7 6 -7 9 14 20 -11 -12 13 15 -15 26 -17 29 21 -20 -21 25 -23 -24 -25 -26 -27 -28 -29 -30 -31
leaf_value=-0.0035693543478221988 0.003310861577499618 0.0070984858270645148 -0.038245476036896549 -0.0055940072267555282 0.0047578390280642599 -0.03654173690148866 0.0011018514852078087 -0.0030855183019300354 -0.0097705085136626773 0.0026460325264413219 0.0087104124925005272 -0.0096872627851828288 -0.00088281009656301121 0.0018632214353661142 -0.0023860207089860222 0.00010374995705220791 -0.0033725999900909454 -0.0035432401050664829 -0.0053092898716130257 -0.0067540597813844673 -0.014842989682489274 -0.0097387595316814398 -0.0056717284194697697 -0.0087587038316515996 -0.009800061377827322 -0.0096967884599443843 0.0032563917386407336 0.0048447380067178107 0.0051071390319138987 -0.00019945734740782809
leaf_weight=1359.704306691885 2364.5141744762659 5536.3475212901831 246.46255055069923 2442.3435698598623 5911.0028738826513 120.96295239031315 132340.24274013937 3231.9338070452213 1101.0750191509724 19687.646562948823 8767.7250224649906 5685.1379647105932 31019.536791920662 234.545444637537 8491.4722763448954 40301.597663894296 8217.6592606604099 2587.1258370727301 13567.930298760533 5199.0674379020929 1311.8485823869705 374.46251107752323 6619.9645975828171 2136.9446267932653 528.40824307501316 313.83167342841625 209.16378137469292 3679.5846670418978 3031.1744998693466 565.07821008563042
leaf_count=7548 13531 32106 1173 13475 33962 581 750007 17957 5970 112074 51175 30927 174623 1325 47384 227447 45670 14378 74958 28565 7016 2044 36488 11715 2893 1694 1181 21160 17479 3151
internal_value=1.75981e-06 0.00138489 0.000867878 -0.00543806 0.000909517 -0.00863299 0.00143118 -0.00443816 -0.00841066 0.00130183 0.00708939 -0.00758159 -0.000208619 -0.00922943 -0.003775 -0.000325319 -0.00429353 -0.00598579 -0.00488156 -0.00609405 -0.012204 -0.00525631 -0.00507379 -0.0073539 -0.00634278 -0.0138508 -0.00225023 0.00592875 0.00639414 -0.00316856
internal_weight=317184 252886 231871 64298.7 231625 15326.2 157939 48972.5 15205.2 152028 21014.8 12478.5 73685.6 5919.68 34283.2 71321.1 25582.6 14689.2 16799.9 6558.77 2726.76 9581.55 9207.09 5107.7 2970.75 1625.68 8700.64 12247.1 8567.52 8782.74
internal_count=1789657 1434737 1312817 354920 1311644 83626 896043 271294 83045 862081 121920 68365 415601 32252 190301 402070 141736 80993 92915 36113 14680 52910 50866 28083 16368 8710 48565 70745 49585 48821
is_linear=0
shrinkage=0.01


Tree=16
num_leaves=31
num_cat=0
split_feature=5 11 5 5 2 5 16 12 10 4 1 5 8 10 5 5 5 8 5 8 8 5 15 5 8 1 7 8 2 9
split_gain=25400.2 8427.48 4293.43 2706.88 1538.04 1307.55 632.625 604.797 526.988 378.737 1055.93 426.19 347.331 303.518 301.437 209.098 160.584 158.829 106.285 105.984 99.4434 84.0231 80.1683 69.6552 56.323 42.4839 36.9098 34.5258 33.8098 25.7749
threshold=0.10973650437138954 22.500000000000004 0.031752035723666937 0.17867395762132607 0.27128427128427129 0.066657294946768655 3.5000000000000004 1.5000000000000002 10.500000000000002 0.011396103896103899 0.042973784302014907 0.2354248366013072 0.90606162843004967 inf 0.16399249349616998 0.16365001365001369 0.13043574840595165 0.89722826782742293 0.089132313938714555 0.95909416398138203 0.95555755827925992 0.012506364658854288 2.5000000000000004 0.22546065046065047 0.94527480450335544 0.082585767439135163 0.68184046345811067 0.95350361335040368 0.60987755755039186 49.14472606230806
decision_type=10 8 8 10 10 10 10 10 8 10 10 10 2 8 10 10 10 2 10 2 2 10 10 10 2 10 8 2 10 2
left_child=1 2 21 8 6 7 -5 22 14 11 23 17 -9 -12 15 16 -2 -6 27 28 -13 -1 -4 -11 -20 -8 -17 -7 -16 -21
right_child=3 -3 5 4 9 18 25 12 -10 10 13 20 -14 -15 19 26 -18 -19 24 29 -22 -23 -24 -25 -26 -27 -28 -29 -30 -31
leaf_value=-0.0078496948453353147 0.0063858281189897908 0.077050754398028221 -0.0042081515438287713 0.076128902611913879 0.022633822012936896 0.0022695023392304342 0.00058153338228256787 -6.4346955893047357e-05 0.083100378287175425 0.0066865710846139162 0.017494311526026526 0.030529540225078425 -0.0014611853564768038 0.082915553136319445 0.01558763845875109 0.00090315749977748743 0.0098240855824984451 0.016526155609394126 0.0049163536982315169 0.0099346468171093421 0.020415078941602591 -0.0055688026286899693 -0.002630364239475633 -0.0014804328976168633 0.0023448837103316241 0.028321666835456463 0.034558581086725014 0.00022963080782565211 0.012467081286780694 0.0049527875238144668
leaf_weight=9469.2724875435233 2284.8320856019855 136.14755772054195 5779.5748570263386 63.744622424244881 587.87739556282759 3380.0942889750004 11.541480578482153 26272.91221434623 9.5328227803111059 156.62436410784721 2312.1258696094155 412.60619919002056 55216.485918700695 7.0291487351059905 482.45811116695404 422.87291503697634 3362.205608330667 1568.0732002481818 2509.1159450411797 237.6937063112855 129.32693204283714 1952.7893062382936 7288.3800102993846 312.56451667845249 1292.7741107419133 10.625394091010092 3.1861140057444564 1101.1903852522373 1297.5739053562284 187.0187314003706
leaf_count=137280 30442 1164 82444 554 7578 46247 152 366212 88 2050 29590 5102 777148 65 6236 5801 44692 20342 33783 3159 1610 27956 102933 4163 17628 131 42 15153 17068 2486
internal_value=-7.18314e-07 -0.00154969 -0.00164342 0.0127846 0.0181744 -0.000997391 0.0601426 -0.00133113 0.00916035 0.0175159 0.0149288 0.0201888 -0.00101085 0.0176966 0.00907407 0.00792356 0.00843326 0.018193 0.0028123 0.0122423 0.0281219 -0.00745988 -0.00332828 0.00124458 0.00404231 0.0139908 0.00116523 0.00176848 0.0133143 0.00774496
internal_weight=128258 114399 114263 13859.5 5572.14 102841 85.9115 94557.4 8287.37 5486.23 2788.34 2697.88 81489.4 2319.16 8277.84 6073.1 5647.04 2155.95 8283.17 2204.74 541.933 11422.1 13068 469.189 3801.89 22.1669 426.059 4481.28 1780.03 424.712
internal_count=1789299 1607948 1606784 181351 71337 1441548 837 1328737 110014 70500 35868 34632 1143360 29655 109926 80977 75134 27920 112811 28949 6712 165236 185377 6213 51411 283 5843 61400 23304 5645
is_linear=0
shrinkage=0.01


Tree=17
num_leaves=31
num_cat=0
split_feature=1 1 1 1 1 8 1 12 8 1 1 17 12 7 3 16 3 1 8 8 8 8 2 3 8 8 1 8 1 8
split_gain=22023.3 4240.65 3265.2 1380.9 782.137 401.387 294.478 229.6 157.127 149.61 132.359 124.344 115.134 112.056 106.63 103.677 101.208 78.546 77.1018 73.3555 68.4787 65.2662 64.4805 57.4523 54.1547 47.0279 41.4526 38.9849 38.834 35.0702
threshold=0.10530995191913993 0.02793383270911361 0.17990752416981928 0.082585767439135163 0.24283374283374287 0.90606162843004967 0.15285947712418305 1.0000000180025095e-35 0.95896025151583209 0.29814814814814822 0.21320346320346323 2.5000000000000004 1.0000000180025095e-35 0.6072796231732116 0.92459291806668398 2.5000000000000004 0.93302876417821945 0.006988486681627477 0.97369330546423882 0.96429940972650219 0.95324370115319457 0.93837079967216963 0.61167800453514753 0.92705099778270517 0.8631307809390002 0.86824972839627201 0.14134615384615387 0.98819966583124497 0.36931818181818188 0.85559210526315799
decision_type=10 8 10 10 10 2 10 10 2 10 10 10 10 10 10 10 10 10 2 2 2 2 10 10 2 2 10 2 10 2
left_child=1 17 6 5 8 12 16 -7 10 -6 23 -9 -3 21 18 -14 19 -1 24 26 28 29 -15 -4 -8 -12 -2 -10 -11 -5
right_child=2 3 4 13 9 7 14 11 27 20 25 -13 15 22 -16 -17 -18 -19 -20 -21 -22 -23 -24 -25 -26 -27 -28 -29 -30 -31
leaf_value=-0.0078850985981215836 0.0069439430542465206 -0.0035487558154503143 0.016763223042297784 0.0072564632841386626 0.024071783031098894 -0.0046417775605999507 0.014673473409266526 -0.0019015851531473777 0.013768593020833466 0.033562533893395335 0.025528106224198436 -0.0009997165619373301 0.001127380389412794 -0.00081800743391765044 -0.0010713121773458653 -0.00036381491264176892 -0.0046989106171996991 -0.0054763312437577987 0.0063528557611888057 0.0045541026837516057 0.024896995057282906 0.0028090869919216261 0.0034084096220706205 -0.00030616721126453591 0.011023569703533643 0.019994789242657712 0.0089834380235021723 0.0065377318695544221 0.045819940239562609 0.0045624079600959759
leaf_weight=8827.3807850405574 2425.9232790693641 977.78485790640116 1946.9056200310588 591.46078746020794 549.35418841987848 2362.8528582677245 487.03719755262136 31572.343212857842 677.45777559280396 237.50235883146524 197.36440566182137 29653.178978964686 5857.8017976880074 819.63888914883137 73.082832813262939 22845.041198119521 71.91174291819334 1603.8171997070312 308.79998630285263 848.38872426003218 92.886553451418877 2162.1968767344952 644.56980177760124 19.800306841731071 2560.1268485113978 752.88381733745337 1706.2720201462507 84.715187542140484 30.522943280637264 2690.4830353334546
leaf_count=132713 33622 14386 25968 8192 7085 35125 6601 461140 9144 2945 2545 431979 84401 11647 1075 330773 1080 23889 4293 11912 1172 30497 9129 288 35074 9866 23561 1163 357 37677
internal_value=3.60999e-06 -0.001447 0.0122789 -0.000815148 0.0190736 -0.00113469 0.00860197 -0.00158288 0.0170186 0.0273759 0.0180763 -0.0014648 -0.000174443 0.00349876 0.0108645 -5.94475e-05 0.00706607 -0.0075149 0.0111247 0.00723623 0.0323944 0.0041593 0.00104196 0.0165909 0.0116077 0.0211477 0.00778653 0.0129672 0.0349787 0.00504843
internal_weight=123679 110609 13070.9 100177 4589.39 93269 8481.54 63588.4 3679.13 910.266 2916.95 61225.5 29680.6 6908.35 3429.05 28702.8 5052.5 10431.2 3355.96 4980.58 360.912 5444.14 1464.21 1966.71 3047.16 950.248 4132.2 762.173 268.025 3281.94
internal_count=1789299 1611548 177751 1454946 60533 1357804 117218 928244 48974 11559 38667 893119 429560 97142 47043 415174 70175 156602 45968 69095 4474 76366 20776 26256 41675 12411 57183 10307 3302 45869
is_linear=0
shrinkage=0.01


Tree=18
num_leaves=31
num_cat=0
split_feature=3 3 5 12 16 6 5 2 3 5 6 7 17 2 9 3 5 14 5 1 17 6 7 0 1 16 2 7 2 14
split_gain=4524.87 3371.62 338.008 247.455 208.176 186.069 135.691 211.749 131.785 123.826 121.002 118.537 87.7203 79.5977 79.0075 65.2734 59.2797 57.0475 56.3633 54.4148 50.8514 48.3792 45.4748 44.8298 76.8764 40.8752 39.9288 31.9137 30.6362 28.0132
threshold=0.6195238095238097 0.72653958944281538 0.045469026850211265 1.5000000000000002 2.5000000000000004 0.096906730079355574 0.24996677299308881 0.55607966457023073 0.97090562843842576 0.15257363557353756 0.089506667716870172 0.66200039184952986 8.5000000000000018 0.58487141000715237 48.360984297276588 0.76867335562987749 0.1111159563151478 95.500000000000014 0.10527708159287107 0.040408163265306128 9.5000000000000018 0.19053221288515407 0.44458616780045362 0.027587519025875192 1.0000000180025095e-35 6.5000000000000009 0.51191151446398198 0.52006493506493523 0.4555335968379447 228.50000000000003
decision_type=8 10 10 10 10 10 10 10 10 10 10 10 10 10 2 10 10 2 10 10 10 10 10 10 10 10 10 10 10 2
left_child=2 3 10 17 12 6 7 16 15 13 27 14 29 26 -6 -3 -4 -2 -9 -13 -14 28 -11 24 -17 -19 -7 -1 -12 -5
right_child=1 8 5 4 11 9 -8 18 -10 22 21 19 20 -15 -16 23 -18 25 -20 -21 -22 -23 -24 -25 -26 -27 -28 -29 -30 -31
leaf_value=0.025384744309152885 0.00031014853960784544 -0.0037229936470243906 0.0136643863407347 0.0013300599083770433 0.00028044030280281816 0.0084505548418884521 3.2164395207835247e-05 0.0066784805236331799 -0.0077538887571397272 0.0067643410245214518 0.019440272207248369 0.00035982237090045237 0.0034941441052299071 0.0025882260330508254 -0.00058360593703846218 -0.0032244306469802531 0.0088312712272689345 -0.0019949345799454392 0.0044806140972240491 -0.0024984172865842118 -0.0011225827013920402 0.0053645949409330705 -0.0012800958236976407 -0.0067232853731294786 -0.0061935816705908642 0.0001169994016169741 0.0049723080791675162 0.015299935582386058 0.010071912869695165 2.5249812086391939e-05
leaf_weight=36.247005611658096 1567.6152594164014 2122.8536510206759 429.99477337300777 5589.5624147616327 42983.822371218354 427.7277962602675 318.68570784851909 3199.2049166075885 2777.5833239406347 79.793901920318604 37.570416878908873 880.32369662076235 2417.1030146889389 1363.9050318412483 14038.647107712924 1440.3252231776714 627.48130260780454 8058.9930970221758 1844.3179733045399 2728.9162084534764 264.30953981354833 243.73646172881126 582.71384742483497 2719.0990169644356 2218.9404953494668 1032.9984422326088 1467.5876957476139 265.54052345082164 555.71539497748017 2334.0128913037479
leaf_count=566 26846 36471 6889 95478 734589 6871 5309 52564 50088 1312 591 14985 41287 22641 240918 25405 10174 139001 30468 46407 4521 3973 9711 47970 39248 17783 24115 4254 9011 39853
internal_value=-6.15292e-06 -0.000736038 0.00591757 -3.0082e-05 0.000182541 0.00534787 0.00639651 0.00672878 -0.00586191 0.00363093 0.0110891 -4.35266e-05 0.00147512 0.00443207 6.76982e-05 -0.00524355 0.0107986 -0.0014511 0.00587507 -0.001801 0.00303867 0.00912714 -0.000308822 -0.00574939 -0.00502529 -0.00175488 0.0057582 0.0165225 0.01067 0.000945839
internal_weight=104655 93175.1 11480.2 81896.3 71236.7 10341.4 6419.68 6101 11278.8 3921.73 1138.81 60631.7 10605 3259.22 57022.5 8501.22 1057.48 10659.6 5043.52 3609.24 2681.41 837.022 662.508 6378.36 3659.27 9091.99 1895.32 301.788 593.286 7923.58
internal_count=1789299 1600850 188449 1401668 1218038 170054 105404 100095 199182 64650 18395 1036899 181139 53627 975507 149094 17063 183630 83032 61392 45808 13575 11023 112623 64653 156784 30986 4820 9602 135331
is_linear=0
shrinkage=0.01


Tree=19
num_leaves=31
num_cat=0
split_feature=7 7 11 2 8 0 12 8 1 8 7 12 2 0 1 8 8 2 1 2 1 0 8 8 0 1 4 11 8 8
split_gain=22972.7 7308.8 3465.56 1976.45 1326.26 847.55 671.881 528.856 434.985 411.753 307.746 295.869 263.682 259.236 237.303 178.821 167.068 131.175 126.332 125.273 82.5859 73.9172 73.0912 70.8546 69.4161 68.5067 58.8165 49.3855 45.1107 44.7586
threshold=0.75010026737967939 0.85739087301587313 22.500000000000004 0.57196045303798271 0.90606162843004967 0.78502747252747274 1.0000000180025095e-35 0.90298382173382186 0.17445652173913045 0.97629490392648288 0.96002819548872187 1.0000000180025095e-35 0.66797900262467202 0.14907407407407411 0.05866708385481853 0.95909416398138203 0.86370920745920754 0.60041152263374498 0.10411953242835598 0.4555335968379447 0.095361711275932501 0.09107013447137452 0.95896025151583209 0.98297841518180518 0.23285712046644308 0.1856158484065461 0.015504807692307694 17.500000000000004 0.96555214295686176 0.99205899035734546
decision_type=8 10 8 10 2 10 10 2 10 2 10 10 10 10 10 2 2 10 10 10 10 10 2 2 10 10 10 8 2 2
left_child=3 2 4 5 11 8 -6 17 13 -8 26 -2 15 20 -15 18 -13 21 -9 28 -1 -5 -21 -14 25 -19 -3 -23 -10 -17
right_child=1 10 -4 7 6 -7 9 12 19 -11 -12 16 23 14 -16 29 -18 24 -20 22 -22 27 -24 -25 -26 -27 -28 -29 -30 -31
leaf_value=-0.004456165707179955 0.0032741862630851692 0.0065413328482883696 -0.036011104166379045 -0.0057502897775600715 0.0047354371485897493 -0.034578720115632136 0.0010913921191781323 -0.0040591678240342712 -0.0154369266960796 0.0026412513082673525 0.0085921348721507713 -0.00086778896624124953 -0.002393700798294394 -0.0057918409501876156 -0.010397923927732138 -0.0031021265060226792 0.00010685003070157387 -0.004726546482637514 -0.0057708547408938608 -0.011031567571941741 -0.0068274515714100851 -0.0081126771833011559 -0.0070299037539960953 0.0013614376191258676 -0.0094568854649865874 -0.0072961927127770535 0.0049723658047789053 -0.036725731824966308 -0.0090008890554728899 -0.00017747362401060169
leaf_weight=2397.7999802827835 2368.7371813058853 8284.1823827177286 254.50033682584763 2125.6970709115267 5885.1882008314133 123.26594686508179 132536.32324199378 11357.980414286256 763.87699624896049 19689.425737887621 8483.5479346960783 31175.995229765773 8171.6149748265743 1636.9402354061604 3543.3104723095894 7030.7249218672514 40347.630552202463 8074.1865155845881 6960.6443095356226 2205.8452538698912 3808.3398995399475 3131.6530113071203 578.48557566106319 534.98788718879223 373.73184464871883 1192.8902788460255 3370.3739653080702 5.9719867110252371 128.55579520761967 566.14927425980568
leaf_count=13188 13614 48407 1158 11642 34006 567 752306 62593 4010 112411 50064 175379 45425 8904 19007 38911 227708 44375 38096 11747 20756 17016 3112 3005 2018 6494 19517 28 685 3150
internal_value=9.13294e-07 0.00136379 0.000862705 -0.00531463 0.000903174 -0.00847072 0.00142005 -0.00434684 -0.00825677 0.00129186 0.00714285 -0.000202796 -0.00366874 -0.00729074 -0.00894275 -0.00417462 -0.000317966 -0.00592194 -0.00470965 -0.0112479 -0.00591153 -0.00719225 -0.0102008 -0.00216283 -0.00522825 -0.0050575 0.00608774 -0.00816863 -0.014512 -0.00288431
internal_weight=317109 252396 232258 64712.7 232003 15186.4 158111 49526.2 15063.2 152226 20138.1 73892.4 34622.1 11386.4 5180.25 25915.5 71523.6 14904.1 18318.6 3676.76 6206.14 5263.32 2784.33 8706.6 9640.81 9267.08 11654.6 3137.62 892.433 7596.87
internal_count=1789299 1434570 1316582 354729 1315424 81976 898723 272753 81409 864717 117988 416701 191180 61855 27911 142750 403087 81573 100689 19554 33944 28686 14859 48430 52887 50869 67924 17044 4695 42061
is_linear=0
shrinkage=0.01


Tree=20
num_leaves=31
num_cat=0
split_feature=5 11 5 0 0 5 12 10 0 0 5 8 10 5 5 0 5 8 3 5 8 12 0 8 0 5 9 3 8 5
split_gain=24607.7 7635.81 4341.37 2735.26 1745.45 1526.7 605.471 481.433 443.385 407.721 514.434 310.764 257.603 284.78 179.83 155.376 129.454 118.376 110.3 98.1618 82.1677 78.0635 75.5679 62.9426 53.1589 46.029 35.8631 27.2657 23.1716 17.2225
threshold=0.11478862264408797 22.500000000000004 0.033342727798043835 0.19714924160346697 0.78502747252747274 0.066657294946768655 1.5000000000000002 10.500000000000002 0.16609195402298851 0.24417344173441738 0.41977911646586352 0.90298382173382186 inf 0.22235635547751445 0.16365001365001369 0.33166210878152541 0.089132313938714555 0.95909416398138203 0.49509803921568635 0.012506364658854288 0.88313159951588227 1.0000000180025095e-35 0.13250300120048022 0.94513021225350002 0.033615819209039555 0.18666021921341072 48.766696250844852 0.49509803921568635 0.94527480450335544 0.021742247304946269
decision_type=10 8 8 10 10 10 10 8 10 10 10 2 8 10 10 10 10 2 8 10 2 10 10 2 10 10 2 10 2 10
left_child=1 2 19 7 9 6 21 8 14 12 15 -8 13 -5 20 -11 22 25 -12 -1 -2 -4 -7 -18 29 -10 -19 -6 -16 -21
right_child=3 -3 5 4 27 16 11 -9 17 10 18 -13 -14 -15 28 -17 23 26 -20 24 -22 -23 -24 -25 -26 -27 -28 -29 -30 -31
leaf_value=-0.0078465316432735736 0.01060059521020059 0.069939870354918401 -0.0046394145916916745 0.017022527815373126 0.039524648343055191 0.0020373395550401991 -5.4768295229730292e-05 0.076293883835272483 0.01309227158082586 0.021874928776961958 -0.0024914646180251815 -0.0013967741488998986 0.075572783207651553 0.0080045214688596635 -0.0020827112859489118 0.029473397335829696 0.0050786204221069343 0.010216978677524999 0.04877658188889903 -0.005337449411548633 0.0071296743355283897 -0.0028582134692209556 -0.0052337074359890068 0.0026166635319602133 -0.0076387483637987219 0.0093124426423358293 0.0058444266388835908 0.06925081823761646 0.0027701863986241797 -0.0030910849422136604
leaf_weight=9386.2153336927295 862.9140615388751 149.37583087384701 3301.3661396130919 2847.9612715616822 3.8765159398317328 4355.6589118093252 24863.020778208971 10.653991363942621 2784.9464109763503 1106.4373354464769 91.769065491855145 56403.682798072696 7.1697930246591559 400.08316306769848 151.54859989136457 358.63642556220293 2896.5948254466057 420.17118770629168 4.2971773669123641 744.11234110593796 3294.1090466156602 9696.8425426036119 147.62015460431576 1622.7342462465167 732.41092330217361 367.91646858304739 342.68134132027626 67.906888589262962 279.36976332217455 637.4149881452322
leaf_count=137379 11341 1172 47741 35931 37 59383 346420 91 35951 13487 1280 795406 61 5236 2074 4249 38605 5524 52 10813 43577 137398 2060 21950 10469 4743 4522 539 3821 9121
internal_value=8.73065e-06 -0.00148653 -0.00157955 0.0128318 0.0187943 -0.000930607 -0.00130675 0.00940839 0.00932358 0.0180635 0.0222677 -0.000986209 0.0160463 0.0159123 0.0072132 0.0237375 0.00299906 0.0117957 -0.000139438 -0.00740778 0.00785065 -0.00331072 0.00179866 0.00419492 -0.00545888 0.0126518 0.00825512 0.0677166 0.00106108 -0.00430203
internal_weight=128339 114937 114788 13402.4 4888.14 103288 94264.9 8514.31 8503.66 4816.35 1561.14 81266.7 3255.21 3248.04 4587.94 1465.07 9022.61 3915.72 96.0662 11500.2 4157.02 12998.2 4503.28 4519.33 2113.94 3152.86 762.853 71.7834 430.918 1381.53
internal_count=1790433 1617917 1616745 172516 60872 1448963 1326965 111644 111553 60296 19068 1141826 41228 41167 60813 17736 121998 50740 1332 167782 54918 185139 61443 60555 30403 40694 10046 576 5895 19934
is_linear=0
shrinkage=0.01


Tree=21
num_leaves=31
num_cat=0
split_feature=6 4 1 1 1 1 8 15 17 8 8 15 8 16 8 1 1 1 1 8 9 6 6 4 8 1 8 6 8 1
split_gain=22309.5 5164.36 2492.95 2015.41 466.524 404.325 384.222 182.357 127.075 112.866 104.544 99.9572 97.0347 90.0253 77.4432 70.4953 70.381 67.589 57.0361 50.1109 38.6002 33.6688 33.2207 30.7541 30.7379 30.2426 28.8143 28.7866 27.7995 25.1739
threshold=0.10623855311355314 0.014337101747173691 0.19803921568627456 0.071067821067821071 0.267948717948718 0.16552511415525115 0.90606162843004967 1.0000000180025095e-35 2.5000000000000004 0.87677086992155495 0.95896025151583209 1.0000000180025095e-35 0.85559210526315799 2.5000000000000004 0.96429940972650219 0.32666666666666672 0.088986679069323713 0.22140522875816995 0.14134615384615387 0.95909416398138203 21.735574683516045 0.13514126371269228 0.13514126371269228 0.085357322192050639 0.95555755827925992 0.17871660859465741 0.98367319738771164 0.089506667716870172 0.95909416398138203 0.22767145135566189
decision_type=10 8 10 10 10 10 2 10 10 2 2 10 2 10 2 10 10 10 10 2 2 10 10 10 2 10 2 10 2 10
left_child=1 -1 5 6 9 14 11 -8 -9 20 22 -3 27 -13 18 28 23 24 -2 -18 -4 -19 -7 -14 -11 -24 -12 -5 -6 -22
right_child=2 3 4 12 15 10 7 8 -10 17 26 13 16 -15 -16 -17 19 21 -20 -21 29 -23 25 -25 -26 -27 -28 -29 -30 -31
leaf_value=-0.0078053518865393526 0.0075455088385772097 -0.0038884569942516647 0.018441064075797046 0.0048929211116710055 0.0273399161770513 0.0093386451763103027 -0.004804751685544879 -0.0018900015163387375 -0.00097546891381250836 0.01705274980962234 0.010555956021398498 0.0010276431759161713 0.002440683415267153 -0.00035078265489140727 0.0058970116624778232 0.033390797214517591 0.0045968586930998506 0.0037437260117442186 0.0099424389261744215 0.0023537644934180481 0.023192676695786365 0.019748802247650705 0.01328409765160213 -0.0011140189139948256 0.013346790836187708 0.015591579399641148 0.0052040691269531645 0.0082670545623283326 0.020468021085673332 0.029554023131205445
leaf_weight=11227.966228686273 1525.931428141892 698.8333625793457 144.33386568725109 463.64912836998701 322.49688830971718 143.65514159947634 1666.8688764125109 31730.362792976201 29166.862981520593 797.33830493688583 522.43973098695278 6001.0225886404514 2073.3839900717139 22509.457326702774 905.80817930400372 199.68725103139877 4362.9488850459456 13.52144170552492 2878.8628038689494 1293.7220752090216 297.33954525738955 1039.2389371991158 1277.8601836264133 275.28523784130812 319.18616811931133 1052.6226025819778 125.99142787605524 563.62235701829195 75.743985839188099 82.94216687977314
leaf_count=169898 20813 10323 1830 6407 3933 1903 24948 464970 425674 10397 7081 86457 29268 325987 12569 2347 60539 177 39156 18212 3766 13322 17075 3887 4225 13836 1738 7705 955 1035
internal_value=1.33587e-06 -0.00137219 0.0131256 -0.000655636 0.0205062 0.0102442 -0.00109924 -0.00154135 -0.001452 0.0187301 0.0131006 -0.000152236 0.00385134 -6.06073e-05 0.00856436 0.0285023 0.00347971 0.0177192 0.0091125 0.00408407 0.0229041 0.0195446 0.0140385 0.00202358 0.0159955 0.0143274 0.00951858 0.00674577 0.0260409 0.0245902
internal_weight=123759 112034 11725 100806 3291.83 8433.17 91773.4 62564.1 60897.2 2693.9 3122.57 29209.3 9032.61 28510.5 5310.6 597.928 8005.34 2169.28 4404.79 5656.67 524.616 1052.76 2474.14 2348.67 1116.52 2330.48 648.431 1027.27 398.241 380.282
internal_count=1790433 1634275 156158 1464377 41987 114171 1338359 915592 890644 34752 41633 422767 126018 412444 72538 7235 111906 28121 59969 78751 6631 13499 32814 33155 14622 30911 8819 14112 4888 4801
is_linear=0
shrinkage=0.01


Tree=22
num_leaves=31
num_cat=0
split_feature=3 3 8 4 0 12 0 3 0 8 7 4 16 7 12 7 4 3 16 4 0 4 14 9 7 7 0 0 16 6
split_gain=4448.6 3311.84 330.674 278.496 244.539 163.662 152.78 134.272 117.015 114.912 101.971 104.694 88.4898 82.7819 72.1081 75.6364 70.9244 64.0108 57.8179 57.2843 49.4306 85.5823 47.1274 45.1594 41.4264 35.7013 34.3077 33.7846 31.4644 31.1936
threshold=0.62189997950399689 0.72653958944281538 0.90606162843004967 0.0060298864749193 0.086968989219785076 1.5000000000000002 0.1438923395445135 0.97090562843842576 0.19714924160346697 0.97629490392648288 0.52006493506493523 0.11172295643661283 2.5000000000000004 0.57139804639804648 1.0000000180025095e-35 0.65834740990991003 0.12865607072322019 0.76867335562987749 2.5000000000000004 0.13867521367521371 0.028726147498710681 1.0000000180025095e-35 95.500000000000014 48.766696250844852 0.51458510744422503 0.55413961038961046 0.035401002506265669 0.30901856763925734 1.5000000000000002 0.15389676113360326
decision_type=8 10 2 10 10 10 10 10 10 2 10 10 10 10 10 10 10 10 10 10 10 10 2 2 10 10 10 10 10 10
left_child=3 2 14 6 13 22 24 17 10 12 29 -12 -7 16 -2 18 -5 -3 -16 26 21 -19 -4 -11 -1 27 -15 -8 -24 -6
right_child=1 7 5 4 8 9 25 -9 -10 23 11 -13 -14 19 15 -17 -18 20 -20 -21 -22 -23 28 -25 -26 -27 -28 -29 -30 -31
leaf_value=0.020258775932525921 -0.0020114019137847734 -0.0036974195636247861 6.1441998064769919e-05 0.013242067071207316 0.011239202803371755 0.0010663242930006606 0.011520788896736118 -0.0077515185936514151 0.0006259447425932817 -0.0006295417376331507 0.004808923543292115 0.00080132278836207097 -0.00024795329525893707 0.010480911080176214 0.0020952853050157775 -0.0013122560004874234 0.0070204907073494636 -0.0031816525636199511 0.00087630272486089193 0.0034129901128501163 -0.0067590109905153505 -0.0062613623963924947 -0.0031816659395798932 -0.0023302109917609274 0.01275767622187399 0.0047190069171975206 0.0067266214106636458 5.2371684042070841e-05 -0.001681011434498483 0.0058490295708753587
leaf_weight=86.177809610962868 823.11866450682282 2119.7009629495442 1107.0198216512799 380.72668291628361 277.45991007238626 5971.3486019968987 182.24114648997784 2741.4667058363557 854.96954912319779 3006.6196331344545 4250.2682281881571 770.72081896290183 36049.288068566471 269.893434997648 4890.3893964476883 1344.1982480995357 356.01761287823319 1563.1870662793517 19078.222648818046 501.98787542805076 2622.8094619959593 2141.3871022500098 2082.777124337852 3252.8915117233992 543.15306390821934 360.16926995664835 2619.7138693705201 30.104047682136297 4263.9591968692839 177.44370518624783
leaf_count=1334 14264 36469 19007 6002 4419 102187 2895 50091 14109 51956 69570 12674 617707 4317 82921 22658 5687 27809 324169 8215 46640 38182 36317 56553 8567 5858 42687 485 73869 2815
internal_value=4.97638e-06 -0.000724624 -2.72082e-05 0.00582743 0.00530328 -0.000462429 0.0103873 -0.00582768 0.00406804 -0.000249482 0.00460526 0.00419398 -6.11618e-05 0.00719714 0.000900843 0.000995591 0.0102383 -0.0052031 0.00112506 0.00653593 -0.00570728 -0.00496223 -0.00184159 -0.00151351 0.0137895 0.00664393 0.00707797 0.00990042 -0.00217367 0.00914061
internal_weight=104719 93058.4 81869.8 11661 10459.2 55733.9 1201.85 11188.6 6330.86 48280.1 5475.89 5020.99 42020.6 4128.34 26135.9 25312.8 736.744 8447.08 23968.6 3391.6 6327.38 3704.57 7453.76 6259.51 629.331 572.514 2889.61 212.345 6346.74 454.904
internal_count=1790433 1600799 1401608 189634 170495 957596 19139 199191 103587 828403 89478 82244 719894 66908 444012 429748 11689 149100 407090 55219 112631 65991 129193 108509 9901 9238 47004 3380 110186 7234
is_linear=0
shrinkage=0.01


Tree=23
num_leaves=31
num_cat=0
split_feature=7 3 11 7 8 0 12 8 8 3 1 7 12 0 1 1 0 1 8 5 0 0 0 0 1 8 10 0 5 4
split_gain=22203.1 7207.97 3232.59 1433.77 1252.48 764.287 651.91 574.55 404.699 395.277 378.733 290.799 288.795 264.809 244.689 181.228 295.768 170.709 153.267 125.363 123.993 115.602 110.998 93.0435 92.944 66.1961 64.2942 57.9382 56.3343 79.8673
threshold=0.76006617038875124 0.89047619047619053 22.500000000000004 0.57139804639804648 0.90606162843004967 0.78502747252747274 1.0000000180025095e-35 0.90298382173382186 0.97629490392648288 0.97182539682539693 0.076505016722408045 0.67745426616394366 1.0000000180025095e-35 0.19378911892152145 0.104454502713342 0.087703438672617193 0.090697393092602691 0.17694497153700192 0.86370920745920754 0.41977911646586352 0.23285712046644308 0.13250300120048022 0.23285712046644308 0.17974358974358975 0.22431865828092246 0.95896025151583209 12.500000000000002 0.19538706256627789 0.029430193129883535 0.015504807692307694
decision_type=8 10 8 10 2 10 10 2 2 10 10 10 10 10 10 10 10 10 2 10 10 10 10 10 10 2 8 10 10 10
left_child=3 2 4 5 12 10 -6 15 -8 28 19 14 -2 17 20 22 24 -12 -14 23 -9 -16 -5 -1 -17 -13 -15 -18 29 -3
right_child=1 9 -4 7 6 -7 8 11 -10 -11 13 25 18 26 21 16 27 -19 -20 -21 -22 -23 -24 -25 -26 -27 -28 -29 -30 -31
leaf_value=-0.0040376051250474963 0.0032549043554474257 0.0069455455634564681 -0.034051346801581728 -0.0042492190523400206 0.0046710484636280835 -0.032611506456993546 0.0010618047719661886 -0.0034669663843172084 0.0026044273949599722 0.0086975518806333696 -0.0071367961242567888 -0.0029586374007283447 -0.00083590955938946999 -0.01268825254181391 -0.0049920433739470277 -0.0049096164030047939 -0.0081641578174433509 -0.010672851751951554 9.9952477981419426e-05 0.0019335177680030605 -0.0072818045503575714 -0.0074272843124253488 -0.0089920962735731934 -0.0079142727972259883 -0.0097471367920339263 -0.0012283739017384398 -0.036430590914438656 -0.011204268498650751 0.0046641935721670946 0.0050064455390357813
leaf_weight=1433.6268709301949 2350.0350115895271 5984.7854420542717 265.0783254802227 5432.9344927668571 5822.245037227869 130.27550455927849 131702.63761362433 16712.659420743585 19529.419411703944 8351.4535861611366 3857.1033748686314 7210.0894138514996 31020.456186100841 1704.6041651070118 8008.9287835657597 5216.6718547195196 4347.0773451924324 2117.7430073022842 40144.128760933876 233.91185675561428 898.3388759791851 2580.4875834435225 543.2486854493618 1092.5708104372025 430.46690964698792 3192.7520991265774 11.458497315645216 736.05378966033459 2932.6933012753725 3303.0582862198353
leaf_count=7847 13567 35354 1158 29743 33837 576 748645 91780 111785 49859 20767 39846 174395 8916 43653 28449 23374 11106 226577 1319 4848 13873 2901 5834 2306 17766 53 3914 17119 19266
internal_value=-5.70112e-06 0.00134855 0.000843056 -0.00517282 0.000883193 -0.00854548 0.00138744 -0.00452756 0.00126102 0.00702046 -0.00824508 -0.00385698 -0.000194062 -0.00938567 -0.00438418 -0.00607697 -0.00685449 -0.00839045 -0.000307974 -0.0050663 -0.00366166 -0.00558564 -0.00468067 -0.00571489 -0.00527871 -0.00242771 -0.0128495 -0.00860478 0.0058742 0.00625611
internal_weight=317297 251406 230834 65891 230569 10581.3 157054 55309.7 151232 20572 10451 38603.3 73514.6 7690.91 28200.4 16706.5 10730.3 5974.85 71164.6 2760.11 17611 10589.4 5976.18 2526.2 5647.14 10402.8 1716.06 5083.13 12220.5 9287.84
internal_count=1790433 1431562 1309964 358871 1308806 56418 894267 302453 860430 121598 55842 211766 414539 40842 154154 90687 58043 31873 400972 15000 96628 57526 32644 13681 30755 57612 8969 27288 71739 54620
is_linear=0
shrinkage=0.01


Tree=24
num_leaves=31
num_cat=0
split_feature=5 11 5 0 0 5 12 0 10 0 5 8 10 5 5 0 8 5 4 8 5 12 0 10 8 8 0 0 15 8
split_gain=24107.8 6971.7 4267 2781.43 1538.53 1197.7 586.595 459.417 383.915 375.507 489.829 296.656 261.162 241.045 163.854 152.129 120.454 115.322 96.1068 93.5872 78.0827 77.104 68.8547 60.2702 48.5799 46.533 42.004 31.4549 21.9741 18.1495
threshold=0.10973650437138954 22.500000000000004 0.031752035723666937 0.19714924160346697 0.78502747252747274 0.063680926916221042 1.5000000000000002 0.16609195402298851 10.500000000000002 0.24417344173441738 0.41977911646586352 0.90298382173382186 inf 0.22235635547751445 0.16365001365001369 0.33166210878152541 0.95909416398138203 0.089132313938714555 0.020478054235392788 0.97507516481924228 0.012506364658854288 1.0000000180025095e-35 0.12844079939668177 10.500000000000002 0.87145233113364462 0.94527480450335544 0.031754032258064523 0.17974358974358975 6.5000000000000009 0.94527480450335544
decision_type=10 8 8 10 10 10 10 10 8 10 10 2 8 10 10 10 2 10 10 2 10 10 10 8 2 2 10 10 8 2
left_child=1 2 20 7 9 6 21 8 14 12 15 -8 13 -5 19 -11 23 22 -12 -2 -1 -4 -7 24 -9 -19 -22 28 -18 -16
right_child=3 -3 5 4 -6 17 11 16 -10 10 18 -13 -14 -15 29 -17 27 25 -20 -21 26 -23 -24 -25 -26 -27 -28 -29 -30 -31
leaf_value=-0.0078433031365542378 0.0079173064064746636 0.063990539776626068 -0.0046055885453138616 0.016494629855625078 0.062116848542712884 0.0017517308463606488 -7.4558512295298224e-05 0.014714039423877152 0.070643099945284366 0.021093363921498048 0.046222268014438232 -0.0013889815772616314 0.068981187865978691 0.0082389186251957073 -0.0017911518013208889 0.028467322494265479 0.003068436376136058 0.0046176128507924219 -0.0025041742388675287 0.0029877203469332861 -0.0045261816711982469 -0.0028292580744071296 -0.0048023120332387386 0.068032128260716987 0.011736689836193802 0.0022958115735686739 -0.0076139558379895332 0.010284780136766225 0.0078496124682569651 0.0025310789692409162
leaf_weight=9296.0561467409134 4407.8217957019806 162.13876877725124 3274.3082212284207 2917.3905020877719 78.66981215775013 4915.0243164896965 24779.373490035534 708.4850789308548 9.3887096345424634 1143.077646382153 4.1335819810628882 55930.01115115732 9.0729123651981336 403.39356461167336 149.23138780146837 373.5110857412219 147.3237651437521 2552.5097826421261 92.013981938362122 422.90525935590267 1239.2752493023872 9668.294455178082 165.52618000656366 1.8611058369278897 2509.1247587203979 1308.0177501365542 687.07089537382126 344.03595220297575 282.12187257409096 277.08854614198208
leaf_count=137390 57632 1177 47695 36127 585 66791 345225 8960 75 13589 48 790486 71 5222 2040 4285 1931 33795 1288 5602 18036 137412 2315 15 31990 17657 9919 4466 3689 3770
internal_value=1.90607e-05 -0.00151555 -0.00160894 0.0122672 0.0182604 -0.000968531 -0.00130239 0.00901688 0.00707659 0.0175609 0.0215243 -0.000985441 0.0156405 0.0154923 0.00696153 0.0229119 0.0115755 0.00252827 -0.000353086 0.00748602 -0.00746325 -0.00327876 0.00153791 0.0124276 0.012393 0.00383128 -0.00562836 0.00802637 0.00621283 0.00101569
internal_weight=128258 113978 113815 14280.7 5021.26 102593 93652 9259.39 5266.44 4942.59 1612.74 80709.4 3329.86 3320.78 5257.05 1516.59 3992.95 8941.08 96.1476 4830.73 11222.4 12942.6 5080.55 3219.47 3217.61 3860.53 1926.35 773.482 429.446 426.32
internal_count=1789283 1607898 1606721 181385 61215 1441376 1320818 120170 69119 60630 19210 1135711 41420 41349 69044 17874 51051 120558 1336 63234 165345 185107 69106 40965 40950 51452 27955 10086 5620 5810
is_linear=0
shrinkage=0.01


Tree=25
num_leaves=31
num_cat=0
split_feature=6 4 1 6 1 8 1 12 8 17 1 1 12 16 8 8 1 8 8 6 1 8 9 8 6 8 8 1 6 4
split_gain=21526.2 4957.36 2790.5 1432.68 666.737 376.594 335.198 225.04 130.894 130.474 121.825 112.301 102.182 104.648 90.7507 83.4114 69.9709 68.5659 63.5968 55.048 48.5159 45.2322 32.5229 35.3453 31.5883 30.5744 29.5522 27.0397 26.4746 26.1272
threshold=0.09910292099095637 0.014337101747173691 0.17871660859465741 0.064380877742946721 0.24283374283374287 0.90606162843004967 0.15285947712418305 1.0000000180025095e-35 0.95896025151583209 2.5000000000000004 0.28869047619047622 0.22140522875816995 1.0000000180025095e-35 2.5000000000000004 0.95909416398138203 0.90298382173382186 0.12326848547638235 0.85559210526315799 0.95324370115319457 0.13514126371269228 0.088986679069323713 0.99205899035734546 48.766696250844852 0.98327991452991459 0.13336627140974969 0.95882264429980324 0.90062617234911191 0.36931818181818188 0.15566140848398916 0.085357322192050639
decision_type=10 8 10 10 10 2 10 10 2 10 10 10 10 10 2 2 10 2 2 10 10 2 2 2 10 2 2 10 10 10
left_child=1 -1 6 5 8 12 14 -7 11 -9 28 19 -3 -14 16 -8 -2 -5 27 -4 29 24 -10 -24 -17 -22 -13 -12 -6 -19
right_child=2 3 4 17 10 7 15 9 22 -11 18 26 13 -15 -16 21 -18 20 -20 -21 25 -23 23 -25 -26 -27 -28 -29 -30 -31
leaf_value=-0.0077957708420937398 0.0062906364143863339 -0.0033695313546684442 0.0082504255102277529 0.0060187386578788513 0.0042410110704430414 -0.0045949485026215891 0.013391128009054126 -0.0018798369174095044 0.014271551665431712 -0.00094507527427300868 0.030961070781480294 0.022844450228387943 0.001132819237732002 -0.00037069473365344038 0.0043863612817153915 0.0062000687345519639 0.0088297459525003702 0.0023274698786812697 0.022742149711917063 0.016277473378705668 0.0042336504405386423 0.00096520705182530657 0.01205333028526046 0.0046303985843423471 0.010534674960738771 0.0022864406774697112 0.018789456647667704 0.040902028565923267 0.022725593226472367 -0.00092022792166639026
leaf_weight=11133.065060365945 2053.5620231926441 964.23357273638248 89.798735983669758 878.79440107941628 8.0446973368525487 2330.9975092932582 1030.0343894809484 30875.436117060483 450.9321893081069 28930.131057836115 264.10341230034828 303.74517899006605 5839.3128493353724 22337.272309295833 1071.6270274072886 184.73130165785551 2316.3851342722774 2362.8359780907631 99.941210530698299 2171.0471383556724 3070.402526974678 54.79485909640789 250.38074500113726 87.136402308940887 2081.5719305500388 1097.7354755476117 471.12107856571674 32.539843522012234 557.88965825736523 276.19401576370001
leaf_count=170032 27931 14303 1177 12005 101 35129 13556 453384 5900 422909 3060 3722 83963 323477 14821 2480 31225 33342 1192 27805 42319 759 3280 1164 27912 15368 5901 350 6823 3893
internal_value=-4.01681e-06 -0.00146922 0.0118751 -0.000757486 0.0180192 -0.00110664 0.00853006 -0.00154652 0.0161452 -0.00142768 0.0254612 0.0170895 -0.000168653 -5.90682e-05 0.00699707 0.0110187 0.00763695 0.00338884 0.0297269 0.0159595 0.00304909 0.00996498 0.0125065 0.0101419 0.0101821 0.00372113 0.020383 0.0320683 0.0224654 0.00198717
internal_weight=123676 110096 13579.4 98963.3 4786.68 91277.4 8792.71 62136.6 3824.16 59805.6 962.519 3035.71 29140.8 28176.6 5441.57 3351.13 4369.95 7685.96 396.584 2260.85 6807.17 2321.1 788.449 337.517 2266.3 4168.14 774.866 296.643 565.934 2639.03
internal_count=1789283 1610124 179159 1440092 60475 1333165 118684 911422 48949 876293 11526 38605 421743 407440 73977 44707 59156 106927 4602 28982 94922 31151 10344 4444 30392 57687 9623 3410 6924 37235
is_linear=0
shrinkage=0.01


Tree=26
num_leaves=31
num_cat=0
split_feature=3 3 5 8 4 4 3 5 2 16 8 5 7 2 5 5 7 3 8 9 7 0 1 6 16 8 17 16 7 6
split_gain=4289.05 3221.24 320.376 312.035 229.031 146.924 139.318 138.582 187.487 119.217 109.095 102.717 88.2417 78.2386 72.8077 72.7724 64.2801 60.4683 55.8149 53.0773 52.5006 48.5811 86.093 40.4626 38.4664 37.5469 37.2255 32.0009 27.3263 25.5321
threshold=0.6195238095238097 0.72653958944281538 0.045469026850211265 0.90606162843004967 0.096781010552722715 0.11172295643661283 0.97259759759759767 0.24996677299308881 0.56280339805825252 1.5000000000000002 0.97629490392648288 0.15257363557353756 0.66200039184952986 0.51191151446398198 0.11210456210456211 0.10527708159287107 0.65834740990991003 0.76867335562987749 0.84738952784503641 48.766696250844852 0.52493226381461688 0.027587519025875192 1.0000000180025095e-35 0.18340198863636367 1.5000000000000002 0.93754667164497552 2.5000000000000004 2.5000000000000004 0.51458510744422503 0.061496182762601957
decision_type=8 10 10 2 10 10 10 10 10 10 2 10 10 10 10 10 10 10 2 2 10 10 10 10 10 2 10 8 10 10
left_child=2 3 5 16 7 20 17 8 14 26 12 13 -11 -6 -4 -10 18 -3 27 -12 25 22 -19 -15 -20 -1 -5 -2 -13 -22
right_child=1 6 4 9 11 -7 -8 -9 15 10 19 28 -14 23 -16 -17 -18 21 24 -21 29 -23 -24 -25 -26 -27 -28 -29 -30 -31
leaf_value=0.027421948133022452 0.0028787987802126897 -0.0036786057573067678 0.012408858062161361 -0.0034449988021901952 0.0080260781468415674 0.006796569216711644 -0.007759782588011104 -0.00018653552379234008 0.0064145584611491448 -9.104026213614311e-05 -0.00062872990242355728 0.0020032449592172915 -0.0021041228207695499 0.003554438598887866 0.0077465867867830829 0.0039905382972721809 -0.0012598375540700682 -0.0029664866324939088 -0.0015348596676314854 -0.0023879368048985252 0.016121686200722928 -0.0066548783588165298 -0.0061237711919209523 -0.00064663713523390733 0.0007666508774645277 0.013475693668915935 -0.00059648209602471494 0.0013367635984916405 -0.0024506106087260459 0.011397479808750282
leaf_weight=46.013730742037296 1758.8908253386617 2115.1793935410678 586.32628923654556 1699.9102503359318 371.63767925277352 535.70437798649073 2687.5801990367472 331.71010406687856 3756.574608899653 44147.779489085078 3312.4928649738431 216.34701019898057 2290.4350288212299 1991.0008339695632 788.27171797305346 1852.9656719490886 1353.0055713579059 1429.4515034556389 759.120146676898 3560.7371766902506 165.53720303997397 2685.5101731754839 2189.4232581891119 258.61953032389283 16568.764697346836 34.482454106211662 629.65332670137286 5756.8447915799916 378.19970651343465 390.15827988088131
leaf_count=686 29749 36435 9147 29808 5818 8529 49774 5463 60634 757724 57396 3513 38975 32435 12500 30170 22751 25609 13056 62139 2552 48128 39389 4213 281529 519 10913 97332 6266 6131
