tree
version=v4
num_class=4
num_tree_per_iteration=4
label_index=0
max_feature_idx=60
objective=multiclass num_class:4
feature_names=word_zero_to_end_count_max word_one_to_end_count_max word_many_to_end_min word_many_to_end_max word_one_to_end_count_min word_zero_to_end_count_mean word_one_to_end_count_mean word_many_to_end_mean time_hour day_of_week user_intro_acc user_intro_wpm a_len b_len c_len d_len e_len f_len g_len h_len i_len j_len k_len l_len m_len n_len o_len p_len q_len r_len s_len t_len u_len v_len w_len x_len y_len z_len 0_len 1_len 2_len 3_len 4_len 5_len 6_len 7_len 8_len 9_len apostrophe_len open_paren_len close_paren_len comma_len period_len exclamation_len question_len colon_len dash_len passage_len punc_len caps_len numbers_len
feature_infos=[0:0.98219584569732943] [0:0.55555555555555558] [0.011869436201780416:1] [0.22222222222222221:1] [0:0.55555555555555558] [0:0.64571428571428569] [0:0.55555555555555558] [0.22222222222222221:1] [0:23] [1:7] [0.51162790697674421:1] [1.3885388481784939:127.38853503184716] [0:71] [0:26] [0:39] [0:38] [0:76] [0:29] [0:31] [0:37] [0:58] [0:22] [0:26] [0:42] [0:37] [0:63] [0:55] [0:27] [0:18] [0:59] [0:50] [0:63] [0:30] [0:23] [0:29] [0:22] [0:26] [0:20] [0:35] [0:18] [0:23] [0:10] [0:10] [0:10] [0:14] [0:15] [0:16] [0:16] [0:15] [0:12] [0:12] [0:39] [0:18] [0:5] [0:3] [0:6] [0:30] [31:595] [0:47] [0:111] [0:79]
tree_sizes=3464 3454 3481 3529 3540 3534 3568 3581 3558 3539 3583 3582 3565 3543 3581 3587 3560 3540 3591 3583 3577 3545 3593 3587 3568 3537 3576 3584 3572 3553 3584 3582 3577 3534 3575 3587 3580 3550 3576 3575 3568 3524 3585 3567 3583 3540 3592 3575 3563 3514 3580 3566 3565 3550 3594 3583 3557 3511 3574 3578 3562 3533 3589 3555 3558 3552 3599 3560 3559 3549 3600 3545 3566 3548 3587 3538 3563 3556 3581 3548 3555 3548 3557 3573 3552 3553 3566 3532 3539 3586 3580 3564 3546 3577 3585 3550 3555 3568 3566 3546 3551 3541 3574 3533 3548 3562 3575 3539 3563 3543 3598 3543 3567 3575 3574 3554 3572 3537 3566 3520 3546 3564 3580 3570 3553 3582 3571 3578 3561 3567 3593 3521 3540 3552 3595 3573 3538 3557 3533 3540 3558 3561 3598 3571 3543 3512 3545 3552 3558 3535 3589 3540 3550 3496 3561 3587 3544 3555 3588 3561 3516 3505 3557 3539 3504 3532 3548 3549 3531 3486 3602 3552 3494 3536 3558 3555 3540 3558 3582 3569 3533 3516 3563 3573 3518 3569 3534 3572 3549 3529 3549 3550 3512 3522 3522 3502 3517 3484 3505 3582 3519 3504 3538 3542 3529 3556 3534 3612 3537 3497 3481 3553 3495 3488 3532 3569 3528 3505 3557 3512 3564 3513 3516 3557 3500 3495 3551 3515 3519 3549 3519 3550 3519 3520 3492 3572 3544 3540 3497 3505 3489 3512 3484 3520 3489 3508 3477 3509 3546 3531 3543 3550 3492 3523 3557 3532 3525 3518 3502 3561 3555 3513 3504 3548 3542 3524 3508 3577 3492 3540 3475 3582 3521 3510 3500 3516 3543 3438 3519 3476 3533 3550 3463 3563 3502 3457 3400 3579 3502 3495 3461 3540 3443 3540 3501 3592 3503 3473 3468 3552 3475 3532 3512 3525 3515 3483 3544 3554 3452 3492 3572 3483 3505 3497 3438 3570 3486 3486 3506 3529 3538 3489 3448 3599 3459 3565 3516 3547 3488 3483 3519 3543 3545 3458 3487 3582 3519 3543 3529 3559 3431 3496 3456 3558 3325 3501 3436 3563 2630 3532 3503 3593 3514 3472 3445 3549 3504 3499 3447 3459 3509 3445 3489 3466 3473 3442 3475 3504 2771 3438 3463 3525 3440 3528 3490 3509 3503 3536 3431 3560 3576 3450 3447 3543 3452 3479 3452 3451 3453 3481 3457 3552 3475 3441 3480 3508 3443 3395 3502 3546 3489 3471 3449 3482 3523 3420 3490 3499 3448 3545 3507 3551 3484 3475 3441 3524 3459 3460 3525 3564 3470 3445 3466 3474 3554 3461 3462 3522 3529 3461 3466 3542 3447 3238 3521 3485 3464 3466 3473 3516 3457 3566 2391 3528 3511 3532 3470 3505 3495 3540 3483 3537 3333 3509 3429 3498 3477 3442 3475 3501 3556 3450 3490 3524 3524 3528 3453 3463 3407 3509 3116 3545 3469 3512 3462 3538 3529 3524 3514 3545 3563 3448 3518 3532 3472 3438 3524 3492 3493 3484 3451 3518 3421 3455 3482 3546 3508 3480 3457 3465 3432 3343 3548 3538 3540 3273 3427 3559 3529 3463 3498 3513 3522 3528 3312 3470 3524 3563 3474 3538 3540 3360 3502 3494 3443 3132 3465 3481 2312 3431 3442 3561 3454 3460 3519 3575 3455 3463 3411 3503 3386 3480 3495 3555 3451 3540 3521 3507 3258 2093 3496 3549 3514 3476 3463 3550 3401 3534 3512 3533 3405 3112 3472 3483 3444 3454 3530 3526 3426 3464 3503 3515 3484 3475 3442 3511 3520 3453 3550 3523 3505 3479 3269 3551 3465 2884 3455 3537 3086 3446 3497 3464 3456 3430 3485 3483 3475 3511 3454 3454 3451 3479 3405 3484 3520 3407 3519 3503 3472 3496 3459 3541 3480 3508 3448 3551 3123 3493 3503 3533 3487 3427 3457 3462 3459 3434 3458 3514 3475 3412 3469 3502 3451 3494 3452 3551 3475 3566 3425 3576 3455 3440 3447 3482 2272 3532 3510 3540 3489 3491 3412 3491 3434 3451 3495 3501 3503 3414 3399 3455 3461 3520 3482 3474 3450 3505 3200 3538 3452 2825 3454 3539 3511 3432 3523 3565 3454 3454 3482 3540 3437 3433 3383 3520 3510 3532 3463 3529 3505 3460 3422 3569 3526 3436 3434 3486 3479 3433 3446 3521 3505 3463 3464 3540 3489 3456 2914 3555 3515 3511 3500 3511 3453 3483 3458 3454 3449 3507 3474 3515 3408 3481 3431 3502 3525 3428 3400 3529 3470 3499 3456 3502 3487 3527 3468 3542 3576 3399 3506 3512 3403 3526 3467 3524 3497 3449 3274 3522 3524 3396 3455 3538 3445 2205 3420 3567 3471 3443 3465 3539 3510 3454 3473 3537 3543 3484 3532 3532 3544 3482 3439 3539 3451 3516 3466 3544 3443 2727 3493 3497 3557 3501 3483 3465 3380 3513 3516 3483 3499 3422 3504 3495 2895 3453 3465 3513 3474 3493 3428 3500 2927 3528 3544 3529 3438 3498 3458 3518 3279 3536 3418 3538 2048 3517 3440 3508 3424 3490 3460 3540 3488 3490 3280 3529 3451 3465 3479 3477 3434 3421 3350 3511 3522 3435 3487 3542 3266 3521 3462 3453 3460 3456 3423 3454 3459 3064 3462 3483 3422 2255 3448 3536 3511 3484 3479 3525 3502 3470 3437 3509 3486 3486 3245 3430 3378 3436 3490 3492 3500 3476 3472 3474 3501 3449 3524 3499 3410 3410 3427 3477 3060 3455 2210 3520 3512 3460 3471 3500 3457 3181 2073 3554 3449 3496 3491 3568 3464 3440 3183 3533 3484 2296 3086 3486 3434 3427 3479 3488 3470 3509 3449 3514 3468 3434 3388 3507 3458 3465 3432 3455 2514 3459 3477 3468 3454 3508 3463 2395 3441 3455 3454 3484 3413 3468 3485 3459 3436 3457 3497 3527 3450 3498 3457 3562 3411 3432 3391 3518 3514 3451 3426 3547 3520 3459 3518 3520 3453 3452 3482 3515 3468 3223 3463 3522 3504 3435 3507 3493 3264 2620 3493 3450 3139 3475 3430 3490 3471 3488 3535 3573 3498 3478 3528 3444 3525 3511 3450 3283 3455 3436 3483 3512 3491 3441 3412 3522 3412 3469 3465 3514 3519 3474 3461 3551 3504 3427 2689 3520 3517 3507 3468 3454 3447 3457 3411 3425 3281 3027 3464 3459 3451 3536 3464 3521 3477 3487 3395 3467 3504 3486 3492 3486 3473 3437 3442 3513 3484 3446 3429 3520 3487 3402 3522 3460 3461 3489 3472 3469 3528 3471 3456 3545 3474 3451 3466 3466 3458 3466 3475 3475 3455 3484 3413 3456 3517 3511 3454 3553 3519 3192 3458 3503 3487 3474 3384 3429 3286 3450 3234 3544 3482 3460 3401 3529 3451 3487 3470 3491 2804 3438 3456 3467 3534 3442 3558 3506 3481 3436 3479 2944 3493 2065 3512 3520 3445 3292 3501 3524 3376 2920 3476 3568 3478 3450 3475 3489 3448 3471 3199 3532 3496 3515 3421 3555 3463 3482 3486 3527 3465 3442 2754 3478 3487 2777 3460 3464 3443 3487 2365 3430 3354 3464 3533 3509 3439 3526 3407 3519 3427 3419 3479 3404 3461 3475 3505 3492 3450 3472 3119 3499 3522 3448 3428 3530 3485 3474 3475 3462 3471 3538 3413 3509 3455 3535 3492 3560 3456 3446 3465 3302 3470 3487 3455 3498 3456 3503 3505 3527 3456 3459 3121 3533 3484 2384 3453 3510 3477 3472 2576 3532

Tree=0
num_leaves=31
num_cat=0
split_feature=5 5 0 52 5 0 10 4 1 5 0 10 5 57 0 5 0 0 5 5 10 4 10 0 1 57 0 3 4 10
split_gain=80494.9 14002.2 5658.55 3406.94 2512.24 1373.02 1287.1 711.327 1551.04 619.517 570.931 446.376 373.271 356.98 295.918 262.36 239.518 239.502 229.133 221.279 214.708 205.678 204.973 200.497 186.374 165.013 140.237 138.216 132.972 130.81
threshold=0.11059190395295317 0.029520697167755992 0.20881782945736438 1.5000000000000002 0.066382362445795096 0.16580756013745707 0.90606162843004967 0.013793759512937596 0.042853583884974025 0.2048465219421102 0.26365441906653431 0.90606162843004967 0.055344065716174111 227.50000000000003 0.1306379520520114 0.012850740212472952 0.17974358974358975 0.27140013271400137 0.30045454545454547 0.087035429653594273 0.90606162843004967 0.0072210636079249229 0.96124515503875985 0.1283882783882784 0.058578431372549027 285.50000000000006 0.029557367501456031 0.93301282051282064 0.012569363534035033 0.97402548725637195
decision_type=10 8 10 2 10 10 2 10 10 10 10 2 10 2 10 10 10 10 10 10 2 10 2 10 10 2 10 10 10 2
left_child=1 15 5 12 6 14 25 10 18 11 -4 21 20 -8 -2 -1 -13 -10 -9 23 -3 -7 28 -6 -19 -5 -17 29 -16 -12
right_child=2 3 7 4 19 9 13 8 17 -11 27 16 -14 -15 22 26 -18 24 -20 -21 -22 -23 -24 -25 -26 -27 -28 -29 -30 -31
leaf_value=-2.0681804866144229 -1.9232092704760058 -2.0086771157893017 -1.7845562055935482 -1.9844067876297029 -1.9597274354846412 -1.8033111874260463 -2.0027848463796687 -1.8514608885466624 -1.8081823643875674 -1.9664576316061946 -1.7047908454520551 -1.8786451505080011 -1.9634451961817712 -1.9929457566830779 -1.8603628175475921 -2.0283040908548613 -1.8484325480727311 -1.9569059804492024 -2.0080735037555275 -1.9398604576194747 -2.023540074411073 -1.8430152569827321 -1.91848599509805 -2.0372515764341546 -1.7483948272642764 -1.9744507420330137 -2.0636729244732481 -2.012328277267657 -1.8888367569690538 -1.800088818495865
leaf_weight=26555.888663634658 3084.3269328027964 13592.544135570526 3404.2240792959929 45770.431137248874 8938.7763415127993 2285.770114287734 62966.12689936161 120.17885041236877 3106.4651597589254 467.43247340619564 1676.6531055271626 4605.8544358164072 1226.6149177104235 89007.776720911264 2222.6762113720179 2800.4834501296282 6112.6758450269699 44.592678472399712 419.36093264818192 7914.4097851365805 34148.661922588944 3050.8033710122108 1809.0079528093338 346.46297213435173 1182.6547721475363 26161.512404248118 1871.9437054991722 15.496746376156805 6294.2091485708952 158.28819680213928
leaf_count=157324 15070 77387 15010 248919 44989 10360 353255 566 12875 2524 6496 22214 6341 495072 10926 16185 28225 232 2386 38980 199494 13353 9145 1912 4452 141044 10448 92 29752 711
internal_value=-1.98405 -2.00071 -1.85038 -1.99386 -1.98898 -1.87224 -1.99181 -1.78577 -1.8133 -1.85295 -1.76024 -1.84964 -2.01791 -1.99702 -1.89602 -2.06433 -1.86141 -1.79339 -1.97321 -1.95215 -2.01931 -1.82601 -1.8879 -1.96262 -1.75596 -1.98079 -2.04248 -1.71552 -1.8814 -1.71301
internal_weight=361362 321302 40060.7 290073 241105 29932.8 223906 10127.9 4873.25 16522.5 5254.66 16055.1 48967.8 151974 13410.2 31228.3 10718.5 4333.71 539.54 17199.6 47741.2 5336.57 10325.9 9285.24 1227.25 71931.9 4672.43 1850.44 8516.89 1834.94
internal_count=1975739 1791350 184389 1607393 1324171 141569 1238290 42820 20511 76676 22309 74152 283222 848327 64893 183957 50439 17559 2952 85881 276881 23713 49823 46901 4684 389963 26633 7299 40678 7207
is_linear=0
shrinkage=1


Tree=1
num_leaves=31
num_cat=0
split_feature=6 4 1 6 1 59 10 1 10 1 0 10 10 0 1 19 10 10 0 6 1 9 1 10 6 11 0 1 0 10
split_gain=55500.6 10722.5 6217.65 2224.26 1556.35 1305.87 830.522 803.631 305.661 247.422 215.635 209.72 209.462 208.875 183.133 179.8 140.132 133.514 105.421 98.0756 87.2879 83.3837 75.867 69.5516 63.314 62.4126 59.8616 57.7888 54.8328 51.7467
threshold=0.10531777439328874 0.013793759512937596 0.18016393442622955 0.062090383379738705 0.24662162162162166 1.5000000000000002 0.90606162843004967 0.15247584541062806 0.959124000477384 0.29520697167755999 0.013793759512937596 0.97634954844006583 0.95894416406312599 0.079823008849557536 0.098022930102273489 2.5000000000000004 0.95421640296602417 0.90606162843004967 0.017316341829085462 0.13335234233092555 0.14110105580693819 3.5000000000000004 0.19859154929577469 0.91381265149738067 0.15001485442661919 46.084186402297071 0.11853256021409457 0.37412587412587422 0.084038476072282361 0.95468420468420478
decision_type=10 8 10 10 10 2 2 10 2 10 10 2 2 10 10 2 2 2 10 10 10 2 10 2 10 2 10 10 10 2
left_child=1 -1 7 5 8 -3 15 10 13 23 29 -8 18 17 28 -7 20 -4 -9 -15 -12 27 -10 -6 -24 -23 -16 -11 -5 -2
right_child=2 3 4 14 9 6 11 12 22 21 16 -13 -14 19 26 -17 -18 -19 -20 -21 -22 25 24 -25 -26 -27 -28 -29 -30 -31
leaf_value=-2.5166761461319287 -2.3045246958110175 -2.4712379014004497 -2.1891843165940825 -2.3999568455811326 -2.1335001195979397 -2.4162030978691158 -2.4478500855609688 -2.2704093385896273 -2.3181523503267871 -2.1444814316518119 -2.3590128791188256 -2.4608441131476457 -2.3372842833165048 -2.3455490574248579 -2.3717118639849266 -2.4361270956207379 -2.3814066483680305 -2.2323385497478196 -2.3022906650728538 -2.2500046401501175 -2.3330078501824989 -2.0282934615170012 -2.4043825242802535 -2.1870115357435957 -2.2629362231534844 -2.1209353487684894 -2.3972794958664205 -2.0009039899795766 -2.4171686241517762 -2.347477309942871
leaf_weight=23198.106490254402 1150.175119638443 20788.697093009949 1199.1187417507172 2536.8756130933762 404.21047914028168 5011.826904296875 96184.006175041199 1470.330247759819 479.11550080776215 245.67570316791534 3225.5974955558777 14264.725063800812 1355.4191349744797 112.99592757225037 1597.6900644302368 47065.357414126396 1717.6019386053085 1797.7205200195312 3553.5197637081146 2361.3169685602188 2159.0521302223206 258.01800787448883 33.090144515037537 620.62640821933746 825.01923012733459 102.99440479278564 2153.8385704755783 32.026152729988098 6867.7477749586105 373.24831819534302
leaf_count=188369 9547 180576 9031 20372 2736 40088 796946 11954 3668 1699 23257 121030 10534 752 12216 380050 13080 13960 25379 15508 15801 1652 254 4393 6188 683 14059 206 48571 3180
internal_value=-2.43676 -2.45238 -2.29062 -2.44479 -2.22213 -2.44764 -2.44462 -2.32929 -2.24332 -2.13541 -2.34919 -2.44953 -2.30237 -2.23284 -2.40507 -2.43421 -2.35652 -2.21507 -2.29296 -2.25436 -2.34858 -2.0865 -2.2862 -2.1659 -2.26838 -2.0547 -2.38639 -2.12789 -2.41252 -2.31504
internal_weight=243146 219669 23476.9 196471 8471.93 183315 162526 15004.9 6808.38 1663.55 8625.68 110449 6379.27 5471.15 13156.2 52077.2 7102.25 2996.84 5023.85 2474.31 5384.65 638.714 1337.22 1024.84 858.109 361.012 3751.53 277.702 9404.62 1523.42
internal_count=1975739 1802277 173462 1613908 60730 1518690 1338114 112732 49361 11369 64865 917976 47867 39251 95218 420138 52138 22991 37333 16260 39058 4240 10110 7129 6442 2335 26275 1905 68943 12727
is_linear=0
shrinkage=1


Tree=2
num_leaves=31
num_cat=0
split_feature=3 3 5 5 4 3 10 4 52 2 4 5 58 6 5 5 10 7 6 2 3 0 1 9 4 5 4 55 8 3
split_gain=4502.82 2288.84 692.035 356.287 423.123 354.541 330.595 273.226 162.121 145.427 122.178 108.508 106.637 92.7386 89.0883 85.4394 84.6142 81.5541 79.0499 73.1858 70.4474 66.3287 89.8125 53.9862 48.1812 44.4319 40.3381 38.7073 35.7619 33.7331
threshold=0.69732205778717427 0.62203578166361695 0.054064644581885972 0.15383128948346345 0.041885964912280707 0.77608892921960082 0.90606162843004967 0.036206162751106573 1.5000000000000002 0.54558862965942623 0.11583184257602865 0.054064644581885972 3.5000000000000004 0.099610822831727217 0.22224424477331459 0.052704678362573108 0.97402548725637195 0.55878016273849618 0.054073810652758028 0.51389961389961403 0.97467948717948727 0.027874902874902876 1.0000000180025095e-35 5.5000000000000009 0.060790835181079091 0.20242287055667343 0.19292803970223329 1.0000000180025095e-35 9.5000000000000018 0.54415584415584417
decision_type=10 8 10 10 10 10 2 10 2 10 10 10 2 10 10 10 2 10 10 10 10 10 10 2 10 10 8 2 2 10
left_child=1 2 7 4 17 11 15 28 27 -6 19 -2 -10 14 -5 23 -14 -4 25 -9 21 22 -7 26 -17 -13 -3 -8 -1 -12
right_child=5 6 3 13 9 20 8 10 12 -11 29 18 16 -15 -16 24 -18 -19 -20 -21 -22 -23 -24 -25 -26 -27 -28 -29 -30 -31
leaf_value=-3.0815365669562302 -3.2985955973149701 -3.2319400929421098 -3.1001959601757543 -3.242907664328218 -3.2004289919491589 -3.3135665912105856 -3.3011896573783885 -3.0412788444184331 -3.2745929905030633 -3.2455825292486145 -3.1550664578850123 -3.3065867808808811 -3.2851538039183912 -3.3033066512972016 -3.2959923894017225 -3.2770692855862502 -3.2981859003303922 -3.1760868621493303 -3.3410486616399599 -3.1564770318304998 -3.3622880705774216 -3.3552791093190701 -3.3468408233550204 -3.2649134245854157 -3.3113560727297782 -3.3416906964424986 -3.2758426359675861 -3.2838516663679371 -2.9826125115876527 -3.2228936620599233
leaf_weight=73.580437108874321 1918.0351276248693 211.81374399363995 203.07816909998655 976.17674963921309 865.78208673745394 1310.6245372369885 8902.3209611549973 63.164941430091858 8282.2390024513006 4064.8272130712867 88.939693383872509 1734.1560585722327 33981.58676508069 757.01935827732086 467.16138812154531 742.28407124429941 5837.9093475416303 472.825110450387 2105.8500584512949 448.39428862929344 2900.2115654051304 2635.888397872448 2134.6966347768903 6783.1275957301259 914.30774070322514 455.92993465065956 18346.055764302611 1504.2471687272191 74.684383675456047 428.42725517600775
leaf_count=1514 33803 3701 3492 14731 13536 27048 172020 1172 151909 67322 1538 27527 615769 10288 6990 11220 108703 8200 32101 8379 60172 44391 40532 120688 13428 6288 332303 27973 1530 7471
internal_value=-3.28622 -3.2781 -3.23008 -3.24086 -3.22748 -3.33675 -3.28314 -3.1586 -3.28737 -3.23765 -3.17691 -3.31838 -3.28492 -3.27497 -3.2601 -3.27399 -3.28706 -3.15327 -3.32721 -3.14223 -3.34945 -3.34333 -3.33419 -3.27255 -3.29599 -3.3139 -3.27534 -3.29868 -3.03164 -3.21121
internal_weight=109685 94490 8984.06 7806.87 5606.51 15195.4 85505.9 1177.19 58508.3 4930.61 1028.93 6213.97 48101.7 2200.36 1443.34 26997.6 39819.5 675.903 4295.94 511.559 8981.42 6081.21 3445.32 25341 1656.59 2190.09 18557.9 10406.6 148.265 517.367
internal_count=1975739 1703877 146163 124559 92550 271862 1557714 21604 1076374 80858 18560 99719 876381 32009 21721 481340 724472 11692 65916 9551 172143 111971 67580 456692 24648 33815 336004 199993 3044 9009
is_linear=0
shrinkage=1


Tree=3
num_leaves=31
num_cat=0
split_feature=3 5 52 0 10 2 0 1 4 1 0 10 55 1 0 10 10 4 3 10 10 9 5 5 1 1 6 11 10 1
split_gain=58797 15096.5 5199.33 4547.47 2720.06 2228.88 1138.95 1084.18 959.09 842.173 767.594 763.963 623.786 491.239 547.673 386.525 372.268 333.923 330.536 317.59 303.771 284.952 248.364 244.289 235.256 220.015 198.127 194.645 175.93 173.813
threshold=0.84807692307692317 0.044997472194135496 1.5000000000000002 0.088581043250388194 0.90606162843004967 0.56280339805825252 0.21352583586626142 0.083256599140577051 1.0000000180025095e-35 0.21132376395534294 0.045804195804195813 0.97634954844006583 1.0000000180025095e-35 0.052911534154535277 0.19399641577060936 0.90606162843004967 0.959124000477384 0.022347066167290892 0.57021050546521901 0.90606162843004967 0.8654408457040037 5.5000000000000009 0.020844474153297685 0.19061596298438405 0.10019305019305021 0.16378539493293595 0.076945113709819615 50.11008863297743 0.95558226495726506 0.16247642991829042
decision_type=8 8 2 10 2 10 10 10 10 10 10 2 2 10 10 2 2 10 10 2 2 2 10 10 10 10 10 2 2 10
left_child=3 8 12 9 20 13 7 19 22 10 29 21 15 17 25 -3 -9 23 -8 -7 -4 -6 -2 -5 -12 -15 -10 -13 -26 -1
right_child=1 2 4 5 11 6 18 16 26 -11 24 27 -14 14 -16 -17 -18 -19 -20 -21 -22 -23 -24 -25 28 -27 -28 -29 -30 -31
leaf_value=-0.31119062798600367 -0.20856544297730908 -0.27782491116693597 -0.3163981692884017 -0.36198324505178481 -0.29185487294189794 -0.36616847791628915 -0.28492282520933665 -0.38609850992046724 -0.24673842017637165 -0.37564956713221609 -0.33289043701873272 -0.28506926000925253 -0.29065134513347718 -0.39069064528786507 -0.44323558393239715 -0.26072635146150236 -0.35475751659677385 -0.31719336320557973 -0.40381483366613891 -0.34419526567659459 -0.3059716778996705 -0.30046279911914464 -0.24334163299010456 -0.42352665988961508 -0.36111408946207701 -0.42287435174360422 -0.2992298369394919 -0.26924948984708497 -0.33437766366772592 -0.33065984926867903
leaf_weight=10849.855738520622 22063.532176494598 18294.246518611908 50085.724929213524 1298.1432191133499 157421.08819162846 9802.516576051712 239.45078659057617 19344.423998594284 6972.9720439910889 5570.3271346092224 7499.8669860363007 15560.430695414543 11557.112857103348 5593.8077613115311 5382.9981787204742 47707.472881793976 4715.7355341911316 760.92712247371674 9731.3006093502045 20013.23481631279 63210.62116920948 50893.613305091858 2266.267520070076 1283.69360268116 10590.794758200645 3429.4616428613663 802.21174085140228 15558.366464495659 3208.5889345407486 7944.4507201910019
leaf_count=37211 85140 64224 165177 4026 539594 28473 831 55071 25445 16964 24435 53869 39835 16217 13189 171611 14256 2492 25284 60915 211934 172064 8212 3246 32469 9303 2722 55076 10315 26139
internal_value=-0.304291 -0.287725 -0.292661 -0.364483 -0.297815 -0.378625 -0.36991 -0.364164 -0.221576 -0.339214 -0.334152 -0.291775 -0.269218 -0.409972 -0.417987 -0.265466 -0.379956 -0.375428 -0.400959 -0.35142 -0.310581 -0.293958 -0.211804 -0.392587 -0.347149 -0.402924 -0.252153 -0.27716 -0.354898 -0.319421
internal_weight=589653 462394 430289 127260 352730 81595.7 63846.7 53875.9 32105 45663.9 40093.6 239433 77558.8 17749 14406.3 66001.7 24060.2 3342.76 9970.75 29815.8 113296 208315 24329.8 2581.84 21299.3 9023.27 7775.18 31118.8 13799.4 18794.3
internal_count=1975739 1594903 1473384 380836 1197714 233303 184830 158715 121519 147533 130569 820603 275670 48473 38709 235835 69327 9764 26115 89388 377111 711658 93352 7272 67219 25520 28167 108945 42784 63350
is_linear=0
shrinkage=1


Tree=4
num_leaves=31
num_cat=0
split_feature=5 5 0 52 5 10 4 6 0 4 0 10 5 0 10 5 10 0 10 5 5 0 10 0 59 10 10 10 9 5
split_gain=55140.5 12593.4 2940.72 2691.42 1698.71 934.233 701.713 1186.05 437.845 419.833 330.539 301.574 286.948 201.932 186.548 180.863 175.554 168.188 151.392 151.146 149.273 167.926 124.297 124.094 107.571 103.338 96.8137 96.1563 94.2456 86.7865
threshold=0.11059190395295317 0.026566791093460117 0.17974358974358975 1.5000000000000002 0.066382362445795096 0.90606162843004967 0.0072210636079249229 0.042853583884974025 0.27140013271400137 0.014192202560782623 0.22967032967032971 0.95894416406312599 0.055344065716174111 0.1306379520520114 0.90352379235760638 0.0099256194276144041 0.90606162843004967 0.067491648952323124 0.96330342293041482 0.2048465219421102 0.087035429653594273 0.1306379520520114 0.97076972734867484 0.026491228070175444 6.5000000000000009 0.94878335949764525 0.96429940972650219 0.99205899035734546 4.5000000000000009 0.1818482443482444
decision_type=10 8 10 2 10 2 10 10 10 10 10 2 10 10 2 10 2 10 2 10 10 10 2 10 2 2 2 2 2 10
left_child=1 15 9 12 5 17 8 19 16 22 26 -7 14 -11 -3 -1 -4 -5 -15 -8 21 -6 28 -17 -16 -22 -9 -18 -2 -12
right_child=2 3 6 4 20 11 7 10 -10 13 29 -13 -14 18 24 23 27 -19 -20 -21 25 -23 -24 -25 -26 -27 -28 -29 -30 -31
leaf_value=-0.082939717232307281 0.09196306153540694 -0.021675609556801898 0.15463378071394857 0.0026617431737634661 0.018789587072395246 -0.0084879225759449152 0.071863475612865255 0.11535168042034583 0.18448363591014896 0.044500022334759047 0.076803742977989309 -0.018082883379214799 0.015800863184435795 0.077922345171386256 -0.037803724600354395 -0.045475428510723614 0.12707964715461792 -0.05267914060551121 0.048975794573275423 0.0026949207413015357 0.041635828894699564 -0.053450201828525529 0.056829067006926109 -0.07940425966134286 -0.017574347827319259 0.017356321151823541 0.08485628118455385 0.039191557945010655 0.11794956313664118 0.15273086528202692
leaf_weight=23416.498378440738 3415.5612586289644 12381.585950791836 3056.3257591724396 72084.146493285894 9284.274540618062 101842.76506559551 467.15178754925728 6166.6688049584627 2231.2194917500019 3044.5979385674 159.10976549983025 48294.811031907797 1282.341609120369 10878.062011137605 30419.196964263916 2397.6878646761179 5965.5342871546745 553.3647251278162 2169.1787899285555 976.87902466952801 5970.0711715519428 333.26993554830551 662.08859525620937 1962.0243824571371 2879.3739352375269 2484.0389280021191 1255.914702937007 127.47644950449467 2368.5696090757847 2985.3126553744078
leaf_count=151920 14977 72754 11045 388723 44988 573615 2022 22661 6847 13637 568 277731 6378 45777 187549 15113 23387 2813 9931 5194 27007 1869 3179 11750 17070 11864 4975 575 9974 9560
internal_value=-0.000254964 -0.0151541 0.102118 -0.00894827 -0.00467807 -0.00707006 0.126956 0.110093 0.144752 0.0763384 0.12171 -0.0115744 -0.0308478 0.067698 -0.0321575 -0.0794567 0.135062 0.00224001 0.0731106 0.0250782 0.0248083 0.0162853 0.0979059 -0.0607469 -0.0360548 0.0345031 0.110193 0.125243 0.102606 0.148892
internal_weight=361515 315585 45929.7 287809 240847 222775 23391.6 12011 11380.6 22538.1 10567 150138 46962.5 16091.8 45680.2 27776.2 9149.34 72637.5 13047.2 1444.03 18071.7 9617.54 6446.22 4359.71 33298.6 8454.11 7422.58 6093.01 5784.13 3144.42
internal_count=1975453 1791144 184309 1612361 1328610 1242882 86834 44980 41854 97475 37764 851346 283751 69345 277373 178783 35007 391536 55708 7216 85728 46857 28130 26863 204619 38871 27636 23962 24951 10128
is_linear=0
shrinkage=0.1


Tree=5
num_leaves=31
num_cat=0
split_feature=1 4 1 1 4 59 10 1 1 5 5 1 57 19 5 4 10 10 5 10 5 10 5 5 10 4 59 10 9 10
split_gain=36846.8 9973.64 2943.39 2281.26 1221.04 1057.48 686.447 551.251 430.073 245.028 243.287 241.234 157.779 154.094 149.452 117.733 112.105 89.6525 88.1269 85.6914 80.7851 77.8413 56.1634 54.7945 53.7947 52.1549 46.0739 45.4085 45.2945 42.9072
threshold=0.12517409470752092 0.014192202560782623 0.19859154929577469 0.066300366300366315 0.011561079925153704 1.5000000000000002 0.90606162843004967 0.15247584541062806 0.26491228070175443 0.029520697167755992 0.062509600614439345 0.098022930102273489 166.50000000000003 2.5000000000000004 0.011442121383947871 0.019803921568627456 0.95894416406312599 0.91787846856340016 0.063886636587046602 0.95421640296602417 0.1167451484018265 0.98297345928924884 0.071459780117647739 0.11767992725121341 0.959124000477384 1.0000000180025095e-35 1.0000000180025095e-35 0.98367319738771164 4.5000000000000009 0.90606162843004967
decision_type=10 8 10 10 10 2 2 10 10 10 10 10 2 2 10 10 2 2 10 2 10 2 10 10 2 10 2 2 2 2
left_child=1 25 4 5 -2 26 12 14 10 21 17 22 -7 -8 28 -12 -11 -4 24 -16 -13 -9 -5 -17 -10 -1 29 -19 -6 -3
right_child=2 3 8 11 7 6 13 9 18 16 15 20 -14 -15 19 23 -18 27 -20 -21 -22 -23 -24 -25 -26 -27 -28 -29 -30 -31
leaf_value=-0.079858145728697386 -0.080232832162438913 -0.021837506636000939 0.18986085609931241 0.037055017364033792 0.08758570147889963 0.012347455092841887 0.00033559957065244371 0.13265565763575593 0.24267225857514743 0.10437487157491721 -0.081922051257597259 0.057065680867173688 -0.00067393731223355324 -0.01279156991270184 0.073316202816953446 0.14195298118197244 0.072048115136863614 0.16072424279170261 0.18259869461520259 0.044977697270989742 0.033625969893126939 0.06038026094032261 0.016894208682785159 0.11113145886259893 0.18275909961234021 -0.050526131048938321 -0.045554586961512912 0.10003873582785892 0.12234594436241855 -0.032924726008942626
leaf_weight=20448.494740881026 408.61571406573057 4801.7433236092329 1403.1007317602634 1677.7735853791237 952.96054404973984 12097.50028771162 9830.6737618818879 3641.8999434262514 748.59157392382622 5337.3306340426207 25.852866604924202 3159.145286783576 40313.088123045862 98774.383158951998 4559.0961140096188 1843.0346570089459 1345.5444438382983 1763.2518198266625 651.70207915455103 1395.9302935227752 2756.4680462405086 155.91191942244768 7864.5634211748838 845.46893713623285 189.38702906668186 626.66306529194117 2110.0975207984447 133.55438955873251 622.52807857096195 12847.326711371541
leaf_count=179447 3371 42769 8351 13194 7171 97499 82723 25103 3908 31835 183 21907 323217 836029 30048 10224 8880 11190 2963 10027 16391 1193 53409 4157 1064 6001 19753 902 4591 117953
internal_value=-0.000148416 -0.0136147 0.1123 -0.00659385 0.0906907 -0.00974678 -0.00706742 0.094569 0.164645 0.1094 0.152412 0.0302778 0.00233149 -0.0116032 0.073926 0.13022 0.0978676 0.170663 0.210919 0.066675 0.0461453 0.129691 0.02044 0.132264 0.230586 -0.0789864 -0.0315801 0.156457 0.101327 -0.0299088
internal_weight=243332 217308 26023.8 196233 18419.8 180775 161016 18011.2 7603.94 10480.7 6014.26 15458 52410.6 108605 7530.52 2714.36 6682.88 3299.91 1589.68 5955.03 5915.61 3797.81 9542.34 2688.5 937.979 21075.2 19759.2 1896.81 1575.49 17649.1
internal_count=1975453 1810292 165161 1624844 122219 1519943 1339468 118848 42942 67011 35007 104901 420716 918752 51837 14564 40715 20443 7935 40075 38298 26296 66603 14381 4972 185448 180475 12092 11762 160722
is_linear=0
shrinkage=0.1


Tree=6
num_leaves=31
num_cat=0
split_feature=3 3 5 3 4 10 4 5 5 5 52 5 4 5 6 5 10 4 6 2 3 0 1 9 4 4 2 5 0 6
split_gain=4003.68 1595.52 523.274 316.835 290.92 252.482 189.621 145.49 142.059 109.473 107.947 108.092 98.6051 95.951 93.607 92.3008 84.2243 77.1771 76.6674 73.3791 72.1267 69.7717 93.4373 47.1366 46.3594 42.3845 39.9003 38.0845 37.7293 35.8085
threshold=0.69732205778717427 0.62453007518796999 0.08337826263182449 0.77608892921960082 0.074537037037037054 0.90606162843004967 0.013793759512937596 0.15383128948346345 0.18900073224800137 0.054064644581885972 1.5000000000000002 0.066382362445795096 0.061901286378980028 0.037051396930429192 0.1945946548380626 0.071459780117647739 0.97634954844006583 0.13079116179615113 0.054073810652758028 0.52223320158102771 0.97467948717948727 0.027874902874902876 1.0000000180025095e-35 5.5000000000000009 0.060790835181079091 0.11089152393500221 0.58222586076928351 0.037051396930429192 0.22361111111111112 0.20778499278499279
decision_type=10 8 10 10 10 2 10 10 10 10 2 10 10 10 10 10 2 10 10 10 10 10 10 2 10 10 10 10 10 10
left_child=1 2 4 9 19 15 8 17 26 29 -7 16 -13 14 -6 23 -12 -8 28 -1 21 22 -5 -3 -17 -9 -4 -21 -11 -2
right_child=3 5 6 20 13 10 7 25 -10 18 11 12 -14 -15 -16 24 -18 -19 -20 27 -22 -23 -24 -25 -26 -27 -28 -29 -30 -31
leaf_value=0.2152612884313897 -0.0074241573043855912 0.0098359220829409098 0.11873316675375012 -0.023864206342467675 0.11253814075157231 -0.010047629120559447 0.039466265787117524 0.0082337479810108746 0.01873150583552646 -0.021485876155287385 0.0042621394668181907 0.002227477416647632 -0.033132395429612008 0.049203993306351862 0.03631349939028055 0.0046399325181913495 -0.0087342585420037318 0.00048658702358562035 -0.054693972201287605 0.15563928217581038 -0.075759199487920884 -0.068092324750406899 -0.059103744269699533 0.019461402871269677 -0.030015128532105452 -0.025658088868590608 0.068851137771977378 0.10389964054426799 -0.055079569682861741 -0.052045575152470575
leaf_weight=95.233683113008738 1723.7554584369063 18866.284626748413 364.53905633091927 1211.7069528251886 570.531658180058 10071.214053206146 3092.8398982509971 1248.7460272312164 364.37375148013234 1779.298417519778 39067.3400096111 1486.8270864896476 1678.2455845400691 1785.5031183958054 225.11295786872506 769.01355769857764 5715.6266034804285 608.3743811994791 2060.531386192888 214.15406122803688 2565.8660141862929 2495.9436727724969 1990.1957065053284 6971.1744245588779 774.2161230891943 523.69382587447762 288.78213575482368 431.93914582207799 412.41949148848653 200.94652683660388
leaf_count=1464 30596 337582 5152 27010 9399 199837 46666 17752 4799 28173 718043 22757 25058 27991 3427 11146 109877 8408 32083 3473 60137 44366 40611 121406 11090 6936 4338 6998 5633 3245
internal_value=4.59865e-05 0.00748757 0.0456743 -0.049019 0.0779522 0.00309919 0.0291519 0.0217796 0.0687938 -0.0318831 -0.000635919 0.00134075 -0.0165186 0.0620868 0.0909844 0.0110142 0.00260319 0.0330618 -0.0408406 0.133179 -0.0618266 -0.0555506 -0.045771 0.0124333 -0.0127395 -0.00177446 0.0966995 0.121065 -0.0278118 -0.012088
internal_weight=109654 95213.8 9813.82 14440.7 3322.47 85399.9 6491.35 5473.65 1017.69 6176.95 58019.3 47948 3165.07 2581.15 795.645 27380.7 44783 3701.21 4252.25 741.327 8263.71 5697.85 3201.9 25837.5 1543.23 1772.44 653.321 646.093 2191.72 1924.7
internal_count=1975453 1703599 146803 271854 52752 1556796 94051 79762 14289 99730 1075572 875735 47815 40817 12826 481224 827920 55074 65889 11935 172124 111987 67621 458988 22236 24688 9490 10471 33806 33841
is_linear=0
shrinkage=0.1


Tree=7
num_leaves=31
num_cat=0
split_feature=3 5 52 0 10 2 4 0 0 10 55 1 10 6 1 10 9 9 10 0 4 10 11 1 6 6 10 10 59 6
split_gain=41362.1 12624.6 4125.48 2876.13 2097.56 1569.41 905.404 732.454 621.391 601.578 520.637 502.577 469.135 373.5 359.041 313.391 280.809 262.162 228.803 212.982 197.197 189.643 188.878 176.026 155.19 137.7 130.383 114.309 112.181 110.738
threshold=0.84807692307692317 0.030363155363155366 1.5000000000000002 0.070925553319919524 0.90606162843004967 0.60025125628140719 1.0000000180025095e-35 0.16145324209840342 0.21352583586626142 0.97634954844006583 1.0000000180025095e-35 0.19859154929577469 0.90069725596041394 0.1234409548994989 0.07507225433526013 0.90606162843004967 5.5000000000000009 5.5000000000000009 0.959124000477384 0.033520599250936332 0.013793759512937596 0.86817446119771713 50.11008863297743 0.099904030710172759 0.08577456181411558 0.051726090345233698 0.959124000477384 0.90606162843004967 6.5000000000000009 0.060053506405391817
decision_type=8 8 2 10 2 10 10 10 10 2 2 10 2 10 10 2 2 2 2 10 10 2 2 10 10 10 2 2 2 10
left_child=3 6 10 11 16 7 -2 13 12 17 15 19 23 25 20 -3 21 -6 -14 29 -9 -4 -11 -7 -8 -5 -16 -10 -17 -1
right_child=1 2 4 5 9 8 24 14 27 22 -12 -13 18 -15 26 28 -18 -19 -20 -21 -22 -23 -24 -25 -26 -27 -28 -29 -30 -31
leaf_value=0.032001950394885438 0.089672354989755967 0.023791397848677835 -0.0075939965154223025 -0.032483669394702104 0.011186341245170005 -0.049923644588741788 0.053373101638991671 -0.082994182693831423 -0.089175283009640005 0.016343480534974527 0.011785704078209799 -0.045782413332224575 -0.041860424299025034 -0.077819019038744164 -0.1042928603416043 0.040525095872575433 -0.013549401492238784 0.002911131979804932 -0.024351204652859098 -0.026138748423456423 -0.047190319666554209 0.0019794284867825046 0.032057510423118767 -0.071865654805303866 0.0044382800874966715 -0.056040655628408126 -0.076690278445118887 -0.064298885467403866 0.018429697715080857 -0.0099787139643201309
leaf_weight=660.41325026750565 21159.560901507735 17957.483519762754 38001.513311728835 3274.4188884198666 156194.65867888927 11098.698790758848 6377.5265820026398 4048.3777250349522 2758.8335543572903 15343.343234181404 11375.421330347657 7628.6722909212112 26207.438152760267 7801.9925606250763 8897.3062701821327 43721.010428592563 30836.71669536829 50718.129312545061 10439.525720387697 12217.410768330097 2483.8519847989082 45424.683261990547 15260.792590469122 5457.506698936224 721.88614943623543 10276.692063242197 2122.7860569059849 5611.2076325714588 2427.0717627704144 12901.134485214949
leaf_count=2545 88911 64481 125065 10137 541537 30655 24625 9853 6345 53965 39867 22748 74751 20596 20268 163552 100823 172695 31269 38322 6999 152697 55391 14447 2462 29383 5229 13824 8764 43247
internal_value=0.000209101 0.0145709 0.0102895 -0.0486538 0.00573772 -0.0571052 0.0793037 -0.0728281 -0.0471703 0.0110936 0.0315028 -0.0232348 -0.0431853 -0.0603866 -0.0879632 0.0350014 -0.00539534 0.00915798 -0.0368729 -0.016562 -0.0693815 -0.00238125 0.0241796 -0.0571571 0.0483987 -0.0503492 -0.0989767 -0.0724995 0.0393632 -0.00793362
internal_weight=589406 455520 427261 133886 351780 100479 28259 38905.4 61573.2 237517 75481 33407.6 53203.2 21353.1 17552.3 64105.6 114263 206913 36647 25779 6532.23 83426.2 30604.1 16556.2 7099.41 13551.1 11020.1 8370.04 46148.1 13561.5
internal_count=1975453 1594835 1478837 380618 1202173 273756 115998 102465 171291 823588 276664 106862 151122 60116 42349 236797 378585 714232 106020 84114 16852 277762 109356 45102 27087 39520 25497 20169 172316 45792
is_linear=0
shrinkage=0.1


Tree=8
num_leaves=31
num_cat=0
split_feature=5 5 52 0 5 10 4 1 57 0 5 0 58 0 0 58 4 1 10 5 0 10 5 10 10 59 5 0 10 11
split_gain=39869.8 11340.9 2140.54 1751.62 1143.88 732.752 430.661 867.286 320.025 282.378 272.209 258.923 231.091 200.131 161.471 142.8 134.314 129.516 122.478 110.481 142.867 109.49 107.694 82.4713 80.2086 76.7453 76.524 75.6389 72.3587 71.7236
threshold=0.11059190395295317 0.029520697167755992 1.5000000000000002 0.17974358974358975 0.06610471645025634 0.90606162843004967 0.0072210636079249229 0.042853583884974025 227.50000000000003 0.15339366515837108 0.0099256194276144041 0.27934426229508202 2.5000000000000004 0.24662162162162166 0.029557367501456031 7.5000000000000009 0.014192202560782623 0.055439643439374228 0.90606162843004967 0.087035429653594273 0.14909495077802479 0.92316126855600555 0.055344065716174111 0.8654408457040037 0.99148920759090264 9.5000000000000018 0.17821769733534443 0.20185185185185187 0.94827901290582794 42.956849366816506
decision_type=10 8 2 10 10 2 10 10 2 10 10 10 2 10 10 2 10 10 2 10 10 2 10 2 2 2 10 10 2 2
left_child=1 10 12 9 5 15 11 27 -7 23 -1 18 21 -9 -12 -4 24 26 -5 20 -6 -3 25 -2 -11 -14 -18 -8 -21 -20
right_child=3 2 4 6 19 8 7 13 -10 16 14 -13 22 -15 -16 -17 17 -19 29 28 -22 -23 -24 -25 -26 -27 -28 -29 -30 -31
leaf_value=-0.081490975728969225 0.071564794954629002 -0.025286243403510014 -0.0010863210378487709 0.1215565618761399 0.014120731400022969 -0.015856850514639424 0.048803670956308894 0.088895200984488984 -0.0063893342225827907 0.083490245901035237 -0.0409803682368464 0.14654927807849333 -0.022330134454839948 0.11967251937422528 -0.078025409384125069 0.0083889390551137241 0.049298751966600107 0.07041920721172111 0.10790000337350053 0.033240730247845983 -0.06033069517936588 -0.036995000229624729 0.015135079408999731 0.043543411103300789 -0.019344978413204227 0.0017801050052667765 -0.019905676620480605 -0.001641986191057568 0.013387524948924857 0.087797097019038567
leaf_weight=21364.957359239459 1233.5251636654139 13424.146305561066 49075.311339125037 3747.9702308177948 9887.5378181934357 60709.385893121362 422.92529785633087 9175.3551313877106 86695.368237361312 5934.1798720955849 3014.6405594050884 1934.2465513199568 9289.6590269953012 2748.2248523384333 1931.9919694215059 23531.476031467319 2665.6103800833225 7154.4064784348011 4150.1637761294842 6296.733792424202 264.59401869773865 19744.970077618957 1016.3946995139122 7127.4815214425325 76.669294685125351 1538.0540630370378 169.75788310170174 998.93822048604488 2594.0928603708744 3115.8450087606907
leaf_count=152159 4778 83250 264309 11631 46406 352517 1739 30457 495145 23254 19883 5012 57515 7611 12230 125211 11271 27219 14127 26971 1540 128564 4864 29707 380 9020 778 5162 11977 11062
internal_value=-0.000362631 -0.0137876 -0.00797004 0.081896 -0.00420318 -0.00623832 0.0997959 0.0871865 -0.0102886 0.062576 -0.0765958 0.112791 -0.0279747 0.0959898 -0.055451 0.00198442 0.0703599 0.0632486 0.106862 0.0193091 0.0121793 -0.0322566 -0.0159825 0.0476787 0.0821769 -0.0189044 0.0451518 0.0133558 0.0274492 0.0992808
internal_weight=361035 310379 284068 50655.3 239054 220012 26293.7 13345.4 147405 24361.6 26311.6 12948.2 45013.2 11923.6 4946.63 72606.8 16000.6 9989.77 11014 19043 10152.1 33169.1 11844.1 8361.01 6010.85 10827.7 2835.37 1421.86 8890.83 7266.01
internal_count=1975749 1791561 1607289 184188 1324076 1237182 86801 44969 847662 97387 184272 41832 283213 38068 32113 389520 62902 39268 36820 86894 47946 211814 71399 34485 23634 66535 12049 6901 38948 25189
is_linear=0
shrinkage=0.1


Tree=9
num_leaves=31
num_cat=0
split_feature=6 4 1 6 59 1 10 5 5 19 57 5 1 5 1 5 10 10 10 10 10 11 6 9 10 59 5 10 10 4
split_gain=28180.7 9219.11 1897.49 1083.04 859.081 508.986 489.773 234.859 180.738 152.373 147.601 116.413 106.245 81.8839 77.8044 72.383 68.9413 62.2777 60.0485 57.7122 57.4543 55.6985 55.4997 50.8026 46.0557 44.3683 38.8984 37.1797 37.0144 36.4446
threshold=0.10380006803224659 0.012569363534035033 0.16378539493293595 0.065811403508771946 1.5000000000000002 0.21807065217391305 0.90606162843004967 0.017273678058383837 0.038483107551184233 4.5000000000000009 166.50000000000003 0.076854395604395623 0.14110105580693819 0.066382362445795096 0.31698564593301443 0.1080944580944581 0.90480055658627101 0.91787846856340016 0.95558226495726506 0.97507516481924228 0.96429940972650219 21.465600341908452 0.083215548237457179 5.5000000000000009 0.98635073933107176 1.0000000180025095e-35 0.10512702460216274 0.95727759329178619 0.86817446119771713 1.0000000180025095e-35
decision_type=10 8 10 10 2 10 2 10 10 2 2 10 10 10 10 10 2 2 2 2 2 2 10 2 2 2 10 2 2 10
left_child=1 29 7 4 25 8 10 23 16 -8 -6 14 20 -5 17 19 21 -7 28 -10 26 -4 -15 -2 -18 27 -9 -3 -14 -1
right_child=2 3 5 13 6 11 9 12 15 -11 -12 -13 18 22 -16 -17 24 -19 -20 -21 -22 -23 -24 -25 -26 -27 -28 -29 -30 -31
leaf_value=-0.079104534160116591 0.079013655538806141 -0.02421413973358803 0.096649938953230111 0.041757328954771501 0.011247559310249159 0.16019041097588488 -0.0031693139189638594 0.058027809672687974 0.099012016194874999 -0.012163578586338555 -0.0012728620849887285 0.11729039732586506 0.087479102667928341 0.0090183669198446084 0.1907074844169574 0.072233929836045249 0.10841172748827249 0.13066027141576933 0.045880867241062662 0.058318175972528558 0.02225608686426447 0.14093121581872906 0.023422953293528642 0.10826202783284743 0.045226007390952443 -0.042899949274896459 0.03911632305578365 -0.034688704613931198 0.065464618281755843 -0.049895114600034096
leaf_weight=19240.60320045054 2339.6218566074967 12164.74519547075 366.51430584490299 1675.8043510243297 12259.414717942476 1268.2343774437904 24356.339562311769 2558.1724937111139 4315.8364731222391 83145.343430161476 40586.906212128699 1758.133247487247 964.50764919817448 4251.5901440382004 398.0331559330225 1827.9377296045423 3220.1441515982151 1652.0563429147005 1328.6807869300246 380.48879536986351 900.62595055252314 1289.4316227436066 7224.8103628605604 799.50544688105583 120.21541271358728 1999.880849711597 1900.520807877183 4706.6955697461963 3737.0697756484151 438.77895001322031
leaf_count=183161 15744 115114 2106 12660 97774 5842 208800 16463 22939 714069 324480 7463 5415 27573 1600 8648 19138 8370 8673 2281 6058 7110 45721 5197 826 19842 10690 45716 21703 4573
internal_value=-0.000220173 -0.0132625 0.0886334 -0.00659348 -0.00862615 0.111735 -0.00625091 0.0622423 0.100107 -0.0101259 0.00163147 0.138121 0.055565 0.0211041 0.149155 0.0891393 0.114427 0.143488 0.064674 0.0957172 0.0453138 0.131136 0.0180874 0.0864661 0.106141 -0.0288079 0.049969 -0.0271369 0.0699829 -0.0784538
internal_weight=243177 212051 31125.7 192372 179219 16597 160348 14528.7 11520.6 107502 52846.3 5076.46 11389.6 13152.2 3318.32 6524.26 4996.31 2920.29 6030.26 4696.33 5359.32 1655.95 11476.4 3139.13 3340.36 18871.3 4458.69 16871.4 4701.58 19679.4
internal_count=1975749 1799483 176266 1611749 1525795 86323 1345123 89943 63048 922869 422254 23275 69002 85954 15812 33868 29180 14212 35791 25220 33211 9216 73294 20941 19964 180672 27153 160830 27118 187734
is_linear=0
shrinkage=0.1


Tree=10
num_leaves=31
num_cat=0
split_feature=3 3 5 3 4 5 59 4 5 4 5 5 4 58 6 1 5 3 0 1 2 52 2 0 2 5 7 5 6 6
split_gain=3513.39 1078.73 401.205 294.188 282.138 182.277 125.664 118.784 115.892 103.952 98.8442 94.9397 87.9083 88.5593 77.2515 74.6933 73.3045 69.3867 74.5855 98.6948 62.333 62.2984 62.2443 55.1612 58.8323 40.8312 40.2487 39.5958 38.8735 32.8268
threshold=0.69732205778717427 0.62453007518796999 0.10347016967706625 0.77608892921960082 0.068573667711598757 0.066382362445795096 1.5000000000000002 0.062640134529148003 0.037051396930429192 0.074537037037037054 0.054064644581885972 0.22224424477331459 0.16760299625468167 3.5000000000000004 0.054073810652758028 0.19006568144499181 0.20553995006242201 0.97467948717948727 0.027874902874902876 1.0000000180025095e-35 0.58222586076928351 1.0000000180025095e-35 0.5447860962566845 0.21352583586626142 0.44543650793650796 0.11940850644675412 0.6364079390395182 0.20242287055667343 0.13070213887286711 0.20778499278499279
decision_type=10 8 10 10 10 10 2 10 10 10 10 10 8 2 10 10 10 10 10 10 10 2 10 10 10 10 10 10 10 10
left_child=1 2 4 10 20 6 21 16 15 11 29 25 28 -14 27 -6 26 18 19 -5 -1 -3 -10 24 -11 -4 -7 -12 -8 -2
right_child=3 5 9 17 8 7 12 -9 22 23 14 -13 13 -15 -16 -17 -18 -19 -20 -21 -22 -23 -24 -25 -26 -27 -28 -29 -30 -31
leaf_value=0.12586345542164742 -0.0077095813552921473 -0.0046107059791003482 0.076442754540315405 -0.020184172083601043 0.095240587737416671 0.034421419277576464 0.14807045806205013 -0.031282999679806051 0.070009893880215252 0.078157660891528327 -0.019645103772671774 -0.0098561159266768884 0.012092995982354096 0.0034699701480941821 -0.053696145198462455 0.032335156736270146 -0.027187000369108944 -0.074951452541494865 -0.067354406829861185 -0.057726714158677209 0.079285231814761103 -0.037299237953405354 0.030532849822480914 -0.032357653829821593 0.0053755295897563544 0.036021480603618927 0.0011253338829073456 -0.05333347838293543 0.03300394040008172 -0.05106405711099711
leaf_weight=494.61424478888512 1731.9856999143958 8191.3019638881087 304.76784439012408 1126.0860430449247 618.88288882002234 512.64219870790839 30.458927758038044 2423.3629722669721 459.56107999384403 116.84113346785307 1735.3306993097067 419.14000814408064 15160.333440963179 55584.021115798503 1995.9789522252977 272.38936035707593 712.44776303321123 2274.1794660910964 2363.6215986683965 1856.007328376174 690.71087133511901 627.85066615045071 3077.9808511026204 373.95092418789864 2259.4122998788953 1404.6761209890246 1246.4343193657696 437.4169706441462 858.94639276713133 194.39176489785314
leaf_count=6667 30675 165487 4146 27091 9128 7367 524 36111 6068 1458 27543 6038 278013 1012708 32114 3912 9542 60275 44387 40647 9979 12969 45195 4539 31081 18672 19483 6238 14436 3256
internal_value=0.000129746 0.0069042 0.0371615 -0.0472096 0.0553907 0.00318415 0.00432416 -0.0155511 0.0437891 0.0161827 -0.0308306 0.0327752 0.00571096 0.005318 -0.0394883 0.0760267 -0.000121703 -0.0603097 -0.0540789 -0.0435534 0.0987299 -0.00693899 0.0356641 0.00333699 0.00895846 0.0432338 0.0108344 -0.0264318 0.0369558 -0.0120897
internal_weight=109556 95840.7 10492.9 13715 5614.14 85347.8 80452.9 4894.89 4428.81 4878.79 6095.1 2128.58 71633.8 70744.4 4168.73 891.272 2471.52 7619.89 5345.71 2982.09 1185.33 8819.15 3537.54 2750.2 2376.25 1709.44 1759.08 2172.75 889.405 1926.38
internal_count=1975749 1703523 146883 272226 80949 1556640 1484137 72503 64303 65934 99826 28856 1305681 1290721 65895 13040 36392 172400 112125 67738 16646 178456 51263 37078 32539 22818 26850 33781 14960 33931
is_linear=0
shrinkage=0.1


Tree=11
num_leaves=31
num_cat=0
split_feature=3 5 52 0 10 2 4 10 10 55 0 1 1 11 10 1 9 5 0 1 5 1 4 2 11 8 1 19 5 4
split_gain=29525.6 10635.5 3238.03 2004.65 1545.05 1140.29 869.242 524.033 516.463 451.813 318.019 315.844 294.799 246.286 245.926 225.966 223.634 199.625 189.722 207.339 173.732 164.813 158.285 170.379 153.278 151.154 133.318 119.284 109.997 204.596
threshold=0.84807692307692317 0.040032051282051291 1.5000000000000002 0.070925553319919524 0.90606162843004967 0.56280339805825252 1.0000000180025095e-35 0.97634954844006583 0.90069725596041394 1.0000000180025095e-35 0.19976247030878863 0.21807065217391305 0.055439643439374228 29.108755712831559 0.90606162843004967 0.07507225433526013 5.5000000000000009 0.13516350672207395 0.22111111111111112 0.099904030710172759 0.020844474153297685 0.042853583884974025 0.044859969813852089 0.70064935064935074 50.11008863297743 3.5000000000000004 0.1356978447373928 4.5000000000000009 0.37651515151515158 0.014981483559645384
decision_type=8 8 2 10 2 10 10 2 2 2 10 10 10 2 2 10 2 10 10 10 10 10 10 10 2 2 10 2 10 10
left_child=3 6 9 11 16 15 20 13 18 14 12 22 -10 -6 -3 28 25 -17 19 -7 -2 -12 -1 -24 -9 -4 -8 -16 -5 -30
right_child=1 2 4 5 7 8 26 24 10 -11 21 -13 -14 -15 27 17 -18 -19 -20 -21 -22 -23 23 -25 -26 -27 -28 -29 29 -31
leaf_value=0.024847959966715585 0.086867062807813394 0.021302456971676469 0.0083351347614054015 -0.055118796099981451 0.0012563792612292034 -0.042731481876207678 0.048039727897796709 0.014743155509697646 -0.020061612256308824 0.0095260853958408845 -0.039188208713679645 -0.044153528182656908 -0.037678520474946492 0.0095497596142233559 0.030750320730924915 -0.061985908475036489 -0.011948361982436337 -0.084230510370206402 -0.076761455099840517 -0.062407214157919666 0.053542481038167333 -0.062079041045368391 -0.023291763624209039 -0.0077547928684248051 0.02905822722827317 -0.0037519252628716187 0.0042177520849174801 0.041217313755650666 -0.12405674075945516 0.015527248405081465
leaf_weight=951.7716166973114 18386.029103055596 17553.71179805696 12101.513471275568 5024.136557251215 46273.545564740896 14281.914726138115 6245.764171987772 15089.728593185544 13767.239758491516 11237.205973997712 6532.3796645104885 4338.9528287053108 30658.033162713051 158364.36473634839 25132.857838317752 7981.8942560851574 30978.354684382677 8169.2228075563908 3027.3553121089935 8575.8173632621765 1711.705487370491 6073.3664728403091 16382.962573170662 12404.540538936853 14840.292599931359 71313.153118640184 781.61831720173359 19229.479947328568 130.62454089522362 535.1678027510643
leaf_count=3620 85246 64269 40874 12749 159311 37933 25374 53949 39749 39920 16688 12131 84582 553086 96775 20513 100430 17468 6478 21471 6983 14154 51362 39817 55139 236101 2679 74903 222 1773
internal_value=0.000289503 0.012746 0.00884553 -0.0400167 0.0048354 -0.0468703 0.0734434 0.00948216 -0.0415153 0.0279748 -0.0361977 -0.0189483 -0.0322193 0.00767448 0.0313229 -0.0671993 -0.0046929 -0.0732378 -0.0532308 -0.0501139 0.0840293 -0.0502177 -0.0152705 -0.0165972 0.0218414 -0.00199826 0.0431671 0.0352876 -0.0500568 -0.0118433
internal_weight=588075 449239 422114 138835 348961 104757 27125.1 234568 82916.1 73153.3 57031 34078.2 44425.3 204638 61916 21841 114393 16151.1 25885.1 22857.7 20097.7 12605.7 29739.3 28787.5 29930 83414.7 7027.38 44362.3 5689.93 665.792
internal_count=1975749 1595039 1474757 380710 1198890 273780 120282 821485 221055 275867 155173 106930 124331 712397 235947 52725 377405 37981 65882 59404 92229 30842 94799 91179 109088 276975 28053 171678 14744 1995
is_linear=0
shrinkage=0.1


Tree=12
num_leaves=31
num_cat=0
split_feature=5 5 52 0 5 10 0 57 5 4 1 58 4 0 1 58 0 10 5 10 10 9 0 5 10 3 10 11 2 10
split_gain=29166.7 10231.1 1641.68 1169.58 832.462 546.589 319 293.481 258.725 242.21 636.065 205.286 163.489 148.488 143.461 131.629 130.392 98.5259 94.9561 93.391 79.4775 80.4388 77.0922 76.3911 75.1909 73.0507 71.8602 68.8177 61.8018 61.7628
threshold=0.11059190395295317 0.029520697167755992 1.5000000000000002 0.19976247030878863 0.076854395604395623 0.90606162843004967 0.15339366515837108 287.50000000000006 0.0099256194276144041 0.0072210636079249229 0.042853583884974025 2.5000000000000004 0.014192202560782623 0.029557367501456031 0.055439643439374228 4.5000000000000009 0.33215962441314556 0.90069725596041394 0.062495673158972385 0.93637062064028365 0.99148920759090264 4.5000000000000009 0.16740412979351035 0.16666868247056932 0.91462463653185322 0.93301282051282064 0.99205899035734546 29.824497670510954 0.67586600685192244 0.959124000477384
decision_type=10 8 2 10 10 2 10 2 10 10 10 2 10 10 10 2 10 2 10 2 2 2 10 10 2 10 2 2 10 2
left_child=1 8 11 6 5 15 -2 -7 -1 16 28 17 20 -10 -14 -4 19 -3 24 -5 21 -8 27 -12 -13 -18 -25 -6 -11 -16
right_child=3 2 4 9 22 7 12 -9 13 10 23 18 14 -15 29 -17 25 -19 -20 -21 -22 -23 -24 26 -26 -27 -28 -29 -30 -31
leaf_value=-0.080146526610117286 0.038893572852616132 -0.019996325838143203 -0.0047000076052616628 0.099844760950922762 0.029174692285668713 -0.012285071879049996 0.064586816059870031 -0.0030597203077463698 -0.039615767283197212 -0.0035580430816499775 0.050348492971428654 -0.005401206849961167 0.037352639540631012 -0.076335389630856135 0.063758194156439102 0.0044050797626522973 0.13021367587078383 -0.032556717047822342 0.016773749162934764 0.080035972851206366 -0.0099668554280154722 0.083326688410937183 -0.027733066487400065 0.086449266188994553 -0.022803149447010646 -0.090737337854051442 0.0070883435183844504 0.014888282800280761 0.0951954213105074 0.044674741833975691
leaf_weight=19414.465756691992 8822.1668675988913 8547.1953368932009 22981.515314012766 5857.9011369347572 5215.7494602799416 94303.070572137833 5602.0875476300716 54367.603871509433 2841.617661498487 1037.2574540376663 673.79675927758217 3958.8786309063435 3676.0419648587704 1800.2807577773929 8998.8114612400532 51360.067200914025 1140.0288519710302 23238.747270360589 943.68007685244083 4022.1672363728285 118.79582998156548 3886.5709013938904 347.08865688741207 8379.3701905459166 6667.8352782577276 15.10894191265106 115.95086900889874 9552.5444535762072 67.489791065454483 2094.821537822485
leaf_count=151811 34535 53677 123705 16386 21991 551307 20226 311257 19847 5240 2038 24039 14761 12218 30351 272360 2530 158106 4342 12369 557 13335 1672 23332 42967 77 400 42022 255 7894
internal_value=-0.000458045 -0.0124796 -0.00713005 0.0669273 -0.00387135 -0.00541068 0.055191 -0.00891151 -0.0750745 0.0852119 0.0741582 -0.0250277 0.0610886 -0.053859 0.0544808 0.00159025 0.0955021 -0.0291796 -0.0136211 0.0917816 0.0712459 0.0722638 0.0188393 0.082795 -0.0163212 0.127315 0.0853673 0.0199345 0.00246582 0.0601555
internal_weight=360049 305540 281484 54508.4 238128 223012 33199.3 148671 24056.4 21309.1 10273.9 43356.3 24377.1 4641.9 14769.7 74341.6 11035.2 31785.9 11570.4 9880.07 9607.45 9488.66 15115.4 9169.12 10626.7 1155.14 8495.32 14768.3 1104.75 11093.6
internal_count=1975607 1791321 1607445 184286 1324314 1258629 121659 862564 183876 62627 31265 283131 87124 32065 53006 396065 31362 211783 71348 28755 34118 33561 65685 25770 67006 2607 23732 64013 5495 38245
is_linear=0
shrinkage=0.1


Tree=13
num_leaves=31
num_cat=0
split_feature=6 4 1 52 6 10 6 1 58 19 5 5 5 10 10 9 10 1 6 10 10 5 10 9 5 1 57 10 5 10
split_gain=21343.4 8456.77 1266.45 840.531 618.465 364.95 300.895 203.122 158.596 128.248 127.804 116.384 78.1997 76.321 55.8705 49.8674 48.753 45.0391 42.8063 42.0238 40.4334 39.8433 39.3023 38.031 36.4403 35.3457 31.4873 30.1789 28.9728 26.6083
threshold=0.10166243702839077 0.010768115942028986 0.17883795309168446 1.0000000180025095e-35 0.066632653061224498 0.90606162843004967 0.14036774628879894 0.24662162162162166 3.5000000000000004 2.5000000000000004 0.062495673158972385 0.017273678058383837 0.066382362445795096 0.95558226495726506 0.89054960900671076 4.5000000000000009 0.98297345928924884 0.083256599140577051 0.13070213887286711 0.86552164725539349 0.959124000477384 0.097734971287469427 0.9985380116959065 4.5000000000000009 0.0710510272287075 0.16247642991829042 159.50000000000003 0.79497688104245501 0.044997472194135496 0.98870020429009198
decision_type=10 8 10 2 10 2 10 10 2 2 10 10 10 2 2 2 2 10 10 2 2 10 2 2 10 10 2 2 10 2
left_child=1 -1 6 19 5 9 14 10 -7 -5 16 22 -6 25 24 -9 27 -14 -12 -3 -20 -16 23 -8 -2 -13 -21 -4 -17 -15
right_child=2 3 7 4 12 8 11 15 -10 -11 18 13 17 29 21 28 -18 -19 20 26 -22 -23 -24 -25 -26 -27 -28 -29 -30 -31
leaf_value=-0.077933752982595361 0.074684626317821398 -0.013277095626483774 0.13855205993414102 0.016150957526079104 0.036835326230100565 -0.0013093943071028394 0.073284159494252751 0.10860294427854462 -0.010957751228790197 -0.00044571571801621415 0.027605409536008402 0.059699286688177512 0.0037029161801239475 0.04533467256187456 0.044717602138182565 0.14906020571841591 0.053375611095364067 0.017799639805293078 0.084257881159661083 -0.025325221377870879 0.060234388489046137 0.028406884622449127 -0.044330270271665778 0.092657427058038921 0.046649071642132708 0.075188612721619655 -0.035451646590652267 0.10052703113969622 0.1184089438841604 -0.00058664614600961989
leaf_weight=17927.057859033346 721.01804079115391 2270.0786514729261 218.86263485252857 5160.3933537602425 1719.6135568097234 21358.194809511304 2486.5737591087818 1773.4770932644606 84248.313382916152 47619.631512880325 162.36269551515579 4209.3294887766242 3117.5207164213061 1666.3122294321656 3358.2907606437802 665.95482063293457 214.74960334599018 8321.5532874539495 3891.1076867431402 12661.213733650744 858.56174470484257 2712.2946169823408 24.980770826339722 1722.5627522617579 1310.0653362125158 2279.366477265954 4063.1467642113566 5267.2980993166566 584.38200621306896 136.05224993079901
leaf_count=186159 4442 21214 982 39759 12423 187993 14860 6853 732095 380849 795 22821 20302 10027 20968 2525 1256 50348 16641 126106 4225 14764 177 9954 6671 11424 40268 25798 2022 886
internal_value=-0.000248682 -0.0122705 0.0728941 -0.00609245 -0.0038823 -0.00561303 0.0572608 0.0965401 -0.00900653 0.00117678 0.0900217 0.0669759 0.016949 0.0600826 0.04224 0.119415 0.100214 0.0139587 0.0781904 -0.0260525 0.0799174 0.0374317 0.0804719 0.0812149 0.0566064 0.065142 -0.027786 0.102046 0.134742 0.0418627
internal_weight=242730 208467 34263.6 190540 171545 158387 20626.8 13636.8 105607 52780 10612.9 12525.2 13158.7 8291.06 8101.67 3023.81 5700.91 11439.1 4912.03 18994.4 4749.67 6070.59 4234.12 4209.14 2031.08 6488.7 16724.4 5486.16 1250.34 1802.36
internal_count=1975607 1797516 178091 1611357 1423769 1340696 116994 61097 920088 420608 49697 70149 83073 45158 46845 11400 28036 70650 21661 187588 20866 35732 24991 24814 11113 34245 166374 26780 4547 10913
is_linear=0
shrinkage=0.1


Tree=14
num_leaves=31
num_cat=0
split_feature=3 5 4 3 2 7 10 6 5 6 5 3 5 1 5 6 52 5 5 6 1 6 4 57 2 5 5 3 5 6
split_gain=3054.59 757.483 379.346 270.959 186.216 159.257 158.494 107.428 102.225 86.9614 79.2953 73.0499 83.4661 116.068 72.7936 72.6824 64.3018 63.6066 50.9986 48.629 46.1812 42.0042 39.8096 43.4071 39.4733 39.2648 38.6664 33.4655 30.7865 29.0709
threshold=0.69467984934086646 0.1080944580944581 0.077296489917849154 0.77608892921960082 0.61122782446311874 0.62069114793252733 0.90606162843004967 0.071393384940182977 0.054064644581885972 0.08010080331623913 0.057705543401144942 0.97467948717948727 0.02326473562124547 1.0000000180025095e-35 0.22224424477331459 0.054073810652758028 1.5000000000000002 0.037051396930429192 0.074080832657475004 0.18190173796791451 0.19292803970223329 0.1945946548380626 0.021980676328502421 290.50000000000006 0.53410852713178303 0.18759164222873903 0.22600645088390189 0.63028588445503286 0.15792914260830629 0.20778499278499279
decision_type=10 8 10 10 10 10 2 10 10 8 10 10 10 10 10 10 2 10 10 10 10 10 8 2 10 10 10 10 10 10
left_child=1 2 17 8 10 6 22 25 29 14 21 12 13 -5 -8 26 -11 -1 19 -6 -12 -4 28 -24 -19 -7 -10 -20 -3 -2
right_child=3 5 4 11 18 7 9 -9 15 16 20 -13 -14 -15 -16 -17 -18 24 27 -21 -22 -23 23 -25 -26 -27 -28 -29 -30 -31
leaf_value=0.1102673078950929 -0.0066778464295384841 0.082811711605058902 0.068128827372352457 -0.013496181688030268 0.024132607180994841 0.0066702597751652718 0.034313131754069352 -0.041868285834293799 -0.020899379620312238 -0.0067383194331132358 0.033273383986604017 -0.074561958991034072 -0.066567659271304994 -0.055826245053255279 -0.016389905233771845 -0.052139630297546861 0.002293928052362431 0.10123870978541426 0.0049412912845232769 -0.014124702679472651 -0.003976547399469974 0.026788005208508037 0.012892436383970713 0.0042203051838837794 0.057542656894100555 -0.022731908561003236 -0.061339874056120486 -0.029181117679533519 0.022273446914129705 -0.047808011079171965
leaf_weight=385.52714361250401 1758.9343454688787 128.3517754226923 987.2092251367867 1016.1055125370622 1392.5276858732104 1255.0904599502683 1347.2932286448777 1206.939492277801 1935.8209305591881 9532.0531838685274 2225.1759619750082 2000.4867517016828 2190.2885927259922 1790.3533214852214 358.20537519827485 2013.9768443107605 45523.818939026445 248.09736553579569 582.45349237695336 436.01228016614914 390.80762074887753 328.44339837506413 18764.52229744941 8341.4439053796232 1264.9151391945779 711.55508949235082 269.73224118351936 566.63201843202114 245.1072837933898 190.60774596780539
leaf_count=4922 31191 1514 13570 26425 22131 19306 17536 17847 30802 198424 30294 60062 43746 41854 5067 33382 835820 2828 8559 6846 5015 4608 327102 140622 16783 10278 3883 9000 2896 3294
internal_value=0.000243765 0.00642523 0.034377 -0.0449309 0.0234961 0.00360872 0.00443727 -0.0183816 -0.0296494 0.00141905 0.0377835 -0.0584023 -0.0519307 -0.0405038 0.0236581 -0.0384002 0.000729956 0.0739698 0.00462781 0.0150047 0.0277047 0.057816 0.0106713 0.0102241 0.0647144 -0.0039627 -0.0258497 -0.0118763 0.0431062 -0.0107043
internal_weight=109388 96222.2 8807.8 13166.3 6909.26 87414.4 84240.8 3173.59 6169.07 56761.4 3931.64 6997.23 4996.75 2806.46 1705.5 4219.53 55055.9 1898.54 2977.63 1828.54 2615.98 1315.65 27479.4 27106 1513.01 1966.65 2205.55 1149.09 373.459 1949.54
internal_count=1975607 1700968 124556 274639 100023 1576412 1528981 47431 102552 1056847 53487 172087 112025 68279 22603 68067 1034244 24533 46536 28977 35309 18178 472134 467724 19611 29584 34685 17559 4410 34485
is_linear=0
shrinkage=0.1


Tree=15
num_leaves=31
num_cat=0
split_feature=3 5 52 0 10 2 4 10 10 10 5 0 1 1 10 11 1 1 4 11 11 52 59 10 59 10 0 2 6 3
split_gain=21515.4 8847.24 2551.64 1388.11 1147.65 835.101 834.798 457.66 329.858 328.473 310.391 242.99 235.253 230.49 222.737 213.537 203.17 196.109 248.242 155.364 141.623 141.262 145.425 135.861 134.974 125.572 125.548 109.2 106.392 106.105
threshold=0.84807692307692317 0.030363155363155366 1.5000000000000002 0.070925553319919524 0.90606162843004967 0.60025125628140719 1.0000000180025095e-35 0.97634954844006583 0.91462463653185322 0.959124000477384 0.13345238095238096 0.22111111111111112 0.19859154929577469 0.091530733803116507 0.8654408457040037 29.108755712831559 0.058578431372549027 0.047338935574229697 0.013793759512937596 80.098723010069719 23.220418615022393 1.0000000180025095e-35 1.5000000000000002 0.99205899035734546 6.5000000000000009 0.95468420468420478 0.045199182839632285 0.47140522875816998 0.076945113709819615 0.98095065312046448
decision_type=8 8 2 10 2 10 10 2 2 2 10 10 10 10 2 2 10 10 10 2 2 2 2 2 2 2 10 10 10 10
left_child=3 6 8 12 14 10 29 15 21 11 13 16 26 -5 -4 -6 -7 18 -12 -9 -16 -3 -23 -11 -10 -15 -1 -19 -8 -2
right_child=1 2 4 5 7 9 28 19 24 23 17 -13 -14 25 20 -17 -18 27 -20 -21 -22 22 -24 -25 -26 -27 -28 -29 -30 -31
leaf_value=-0.0060708988290320036 0.071642811606700954 0.021483816263595752 -0.0087964690412819287 -0.025636519210122041 0.00066993113853776407 -0.025032513399700529 0.044389849565915344 0.02165596394022723 0.031726081080360256 -0.020454731864390483 -0.053546353120826423 -0.054109118840495844 -0.030908520194981207 -0.053480998766793589 0.0087729359150485724 0.0084039446462406322 -0.038447835983384686 -0.081280779554960492 -0.00017381474592740283 -0.01119794473119934 -0.0024819939437220875 0.040597700153680381 0.0012856719517459756 0.01966138318954094 0.012600856979917547 -0.031576197120257353 -0.020251874391754826 -0.059973172240379249 0.0043860164559876499 0.087829967137041789
leaf_weight=16428.47580447793 6436.723976328969 15999.685718551278 51055.801512941718 6426.8735919892788 46178.461805596948 19004.81354573369 5696.2352958470583 28025.90921151638 42282.131234228611 11872.513630524278 3646.6723805069923 6176.5701531171799 8129.6965217292309 11205.36747816205 14446.675508081913 157365.63364140689 27828.340416401625 2935.4567755758762 1145.580568164587 1516.8971159309149 49445.346371412277 1065.6939267963171 8047.3775283247232 908.59437768161297 4044.9086983799934 3417.9621988832951 10072.676970586181 13401.667246311903 753.30142472684383 10963.841579407454
leaf_count=53964 32185 60724 165743 18475 159819 50762 24495 103900 168240 32757 8343 13317 22771 27773 48656 554697 71806 5787 3588 5459 163933 4181 28628 2757 14937 9079 30184 29456 2595 56596
internal_value=0.000338978 0.0112071 0.00783859 -0.0334482 0.00430496 -0.0390359 0.070452 0.00833758 0.0250533 -0.0319937 -0.0500201 -0.0354634 -0.0160268 -0.041424 -0.00387214 0.00664936 -0.0330041 -0.0585835 -0.0407898 0.0199687 6.27106e-05 0.0158232 0.00588397 -0.0176021 0.0300564 -0.0483618 -0.0114612 -0.0638023 0.039719 0.0818427
internal_weight=585926 443325 419475 142601 348035 107970 23850.1 233087 71439.8 65790.8 42179.6 53009.7 34630.8 21050.2 114948 203544 46833.2 21129.4 4792.25 29542.8 63892 25112.8 9113.07 12781.1 46327 14623.3 26501.2 16337.1 6449.54 17400.6
internal_count=1975607 1594788 1478917 380819 1202207 273900 115871 823875 276710 171399 102501 135885 106919 55327 378332 714516 122568 47174 11931 109359 212589 93533 32809 35514 183177 36852 84148 35243 27090 88781
is_linear=0
shrinkage=0.1


Tree=16
num_leaves=31
num_cat=0
split_feature=5 5 52 0 5 0 10 4 1 5 55 0 10 0 5 10 5 0 4 5 2 10 58 10 5 10 10 8 5 10
split_gain=21998.9 9162.79 1307.54 903.249 546.601 490.098 446.658 208.378 419.494 173.192 164.343 136.48 109.75 107.334 103 100.152 98.3854 103.685 94.177 71.3718 103.841 67.3817 66.8583 64.6108 64.481 64.1706 60.8265 59.1175 58.7102 56.6265
threshold=0.10685708013794178 0.020844474153297685 1.5000000000000002 0.17974358974358975 0.062495673158972385 0.06673027989821885 0.95727759329178619 0.0072210636079249229 0.047338935574229697 0.12507175660160738 1.0000000180025095e-35 0.24662162162162166 0.959124000477384 0.24662162162162166 0.054064644581885972 0.92316126855600555 0.009431217320570633 0.021429664778815249 0.014192202560782623 0.30045454545454547 0.66769865841073284 0.90480055658627101 6.5000000000000009 0.92459291806668398 0.14687127324826227 0.93565603331937275 0.99205899035734546 8.5000000000000018 0.17649286987522286 0.99148920759090264
decision_type=10 8 2 10 10 10 2 10 10 10 2 10 2 10 10 2 10 10 10 10 10 2 2 2 10 2 2 2 10 2
left_child=1 16 10 9 5 6 -4 11 19 -2 15 27 18 24 -7 22 -1 -18 -11 20 -9 -6 -3 -17 -10 -13 -14 29 -20 -5
right_child=3 2 4 7 21 14 -8 8 13 12 -12 25 26 -15 -16 23 17 -19 28 -21 -22 -23 -24 -25 -26 -27 -28 -29 -30 -31
leaf_value=-0.079078004351197606 0.026583651432538682 -0.02049379128628916 -0.0023573177723295018 0.062268875406394045 0.020072598543830065 -0.079806924348329117 -0.013219104601473103 0.066532344380695801 0.029453460422797673 0.06011769332081273 -0.0091569162147534279 0.10082248110561161 0.035249235361187757 0.081501276215645249 -0.025225965917116372 -0.062429442251626582 -0.03925565747262124 -0.078707205129647809 0.045933024586054784 -0.019873530649190809 0.0056528164678474836 0.0078548581762432797 0.019028468361908517 -0.029196567592896901 0.062461697722380617 0.076463105279311772 -0.013166946756528073 0.076014496649373139 -0.0015666260916131309 -0.031037497643762391
leaf_weight=17534.114274315536 5346.1601264625788 13848.589478746057 166880.66349770129 4281.7269486635923 6687.4061993062496 1022.3332116082311 48969.935045696795 416.96481029689312 631.27168591320515 6088.5548679232597 7248.8102648705244 2603.6597340106964 3957.2296119779348 3166.0468273311853 523.36488403379917 603.22982942312956 1370.6886623352766 1298.9470191821456 12066.716609835625 473.03459541499615 855.30401432514191 13904.128188893199 441.41579087823629 19995.097576342523 9761.2775060236454 1858.7024718374014 277.38045500218868 6331.1296714991331 265.53471858799458 65.901660785079002
leaf_count=150809 20423 91657 936934 12778 27923 5654 296101 1520 1961 20633 43999 5805 15254 7419 2588 4466 10657 9910 41963 2563 3716 62147 2667 142320 27952 4669 1244 18296 1058 273
internal_value=-0.000390467 -0.0113142 -0.00662328 0.0557412 -0.00374844 -0.00522342 -0.00482157 0.067664 0.059432 0.0427777 -0.02286 0.0759838 0.0465986 0.0653723 -0.0613326 -0.0257068 -0.0763535 -0.0584551 0.0499367 0.0132789 0.0256129 0.0118232 -0.0192723 -0.0301703 0.0604576 0.0906783 0.0320755 0.0698424 0.0449095 0.0608522
internal_weight=358775 300329 280125 58446.6 237988 217396 215851 30445 15303.9 28001.6 42137.1 15141.1 22655.4 13558.6 1545.7 34888.3 20203.7 2669.64 18420.8 1745.3 1272.27 20591.5 14290 20598.3 10392.5 4462.36 4234.61 10678.8 12332.3 4347.63
internal_count=1975359 1787832 1616456 187527 1331347 1241277 1233035 86952 45131 100575 285109 41821 80152 37332 8242 241110 171376 20567 63654 7799 5236 90070 94324 146786 29913 10474 16498 31347 43021 13051
is_linear=0
shrinkage=0.1


Tree=17
num_leaves=31
num_cat=0
split_feature=6 4 6 59 6 10 1 58 6 57 5 5 10 1 1 4 57 57 10 8 5 10 8 5 11 10 57 10 3 11
split_gain=16041.4 7731.74 1075.74 663.711 335.92 298.759 269.948 142.157 140.296 113.762 100.367 71.5694 67.0389 61.101 58.1906 59.2187 52.073 46.8337 45.3271 44.9138 39.4239 35.3442 35.2635 33.7128 29.5828 29.477 27.0145 32.7857 26.2673 23.8569
threshold=0.099610822831727217 0.0099504950495049524 0.15154198871304139 1.5000000000000002 0.062090383379738705 0.90069725596041394 0.21132376395534294 3.5000000000000004 0.12676021272963953 166.50000000000003 0.02778850278850279 0.034398242055442875 0.97264141870306264 0.28869047619047622 0.14110105580693819 0.14483218916857363 135.50000000000003 147.50000000000003 0.87127857522594376 3.5000000000000004 0.08180936200237672 0.98022941970310395 21.500000000000004 0.13325545171339567 8.9919379199623695 0.98297345928924884 159.50000000000003 0.95727759329178619 0.76793145654834771 21.945713729474623
decision_type=10 8 10 2 10 2 10 2 10 2 10 10 2 10 10 10 2 2 2 2 10 2 2 10 2 2 2 2 10 2
left_child=1 -1 8 17 5 9 10 -7 20 -5 18 -6 14 19 28 -16 -13 -3 24 -8 29 22 -12 -21 -4 -20 27 -19 -10 -2
right_child=2 3 6 4 11 7 13 -9 12 -11 21 16 -14 -15 15 -17 -18 26 25 23 -22 -23 -24 -25 -26 -27 -28 -29 -30 -31
leaf_value=-0.077424092920325205 0.06961786361457116 -0.041107970563992166 -0.0028108396190264714 0.0099556369912962225 0.038918396745217486 -0.00097334389374481545 0.062709646091082552 -0.0099112096667706151 0.033109737182488309 -0.0013069590312933857 0.061555222743469168 0.026184326441447105 0.02053565715855098 0.10847723711595481 0.061175009857730313 0.037475748420232505 0.0070587404644412216 -0.017440029373951744 0.073358847519237505 0.09153357464583009 0.023950667160383923 0.029781740583273753 0.02384416095650085 0.064415654720515053 0.097113717066259028 0.037375129148914457 -0.030961904639905738 -0.028662066952299382 0.060767416347369832 0.036508244154568367
leaf_weight=16333.193256661296 251.59816700220108 1503.1944911405444 30.291784927248955 11715.40113709867 900.97071798145771 22540.631554670632 779.49570506811142 84568.704396530986 2143.3165941312909 38246.521806009114 8176.4278926998377 1651.2741972729564 839.75420717149973 1390.8286211192608 4523.0655986741185 1378.2200899720192 10352.137894563377 9240.3899846374989 4995.262965708971 4302.8189157098532 4961.9653455987573 395.79908335953951 256.62219431996346 516.13015788793564 1045.214068710804 239.73850756883621 3138.7691787183285 3630.9509675875306 410.29098571836948 1653.4015379399061
leaf_count=184879 1491 16253 160 92099 7119 199696 3138 744103 12319 304938 37429 10383 5244 4415 23240 7792 63274 93804 25094 16903 26010 2175 1199 1755 4906 1459 33055 38477 2473 10077
internal_value=-0.00027936 -0.011436 0.059108 -0.00568734 -0.00377746 -0.00505172 0.0734329 -0.00803037 0.0394937 0.00133377 0.0659258 0.0117321 0.0475037 0.0896924 0.050181 0.0556418 0.00969062 -0.0242232 0.0755623 0.0850238 0.0286503 0.059037 0.0604088 0.0886312 0.09429 0.0717129 -0.0226373 -0.0206065 0.0375574 0.0408864
internal_weight=242112 203822 38290.2 187489 169976 157071 22128.6 107109 16161.6 49961.9 15139.4 12904.4 9294.65 6989.27 8454.89 5901.29 12003.4 17513.3 6310.51 5598.44 6866.97 8828.85 8433.05 4818.95 1075.51 5235 16010.1 12871.3 2553.61 1905
internal_count=1975359 1788080 187279 1603201 1421612 1340836 98633 943799 88646 397037 72422 80776 51068 26211 45824 31032 73657 181589 31619 21796 37578 40803 38628 18658 5066 26553 165336 132281 14792 11568
is_linear=0
shrinkage=0.1


Tree=18
num_leaves=31
num_cat=0
split_feature=7 5 3 4 5 6 0 10 6 6 57 3 0 6 5 10 7 0 7 7 11 7 11 7 6 3 3 6 0 5
split_gain=2660.28 629.74 339.178 250.283 142.311 128.919 128.776 127.554 115.277 88.8534 74.2003 72.7515 94.1879 122.925 64.9513 58.5734 55.6976 53.7454 52.1033 50.7663 50.2625 41.504 37.6743 35.8314 32.996 30.4398 29.9303 29.6259 24.5563 24.4847
threshold=0.66561715987451942 0.13325545171339567 0.77608892921960082 0.077296489917849154 0.056421868371669126 0.083350716172994041 0.057417582417582429 0.95727759329178619 0.055532455532455539 0.15587883792911289 99.500000000000014 0.97467948717948727 0.027874902874902876 0.0047732968785600379 0.037051396930429192 0.8654408457040037 0.58335835835835848 0.22767145135566189 0.55174590734935569 0.59812545583865284 46.355771563485597 0.55543620957154805 80.098723010069719 0.60002947244326565 0.1945946548380626 0.72168803418803429 0.73105625717566025 0.17647122485357783 0.21352583586626142 0.086872506197676169
decision_type=10 8 10 10 10 10 10 2 10 10 2 10 10 10 10 2 10 10 10 10 2 10 2 10 10 10 10 10 10 10
left_child=1 3 6 14 19 7 25 10 17 16 -3 12 13 -4 -1 -12 -6 26 -11 -5 -9 -7 -22 -16 -21 27 -8 -2 -23 -10
right_child=2 5 11 4 9 21 8 20 29 18 15 -13 -14 -15 23 -17 -18 -19 -20 24 22 28 -24 -25 -26 -27 -28 -29 -30 -31
leaf_value=0.091793772177812982 0.016668275646828174 0.024325204313285012 -0.0097007744862375282 0.060780635466731771 0.040931868357452141 -0.0014321495849760185 -0.0078084512812069675 0.0022448829494054082 -0.035906990019606996 0.022823499991454499 0.012175539019953651 -0.073929859798987238 -0.065908770626547819 -0.054491695257683784 0.058668740931946843 0.0042891729005422744 0.01277399567436327 -0.055894175964516617 -0.022944562787603009 0.038343630865592275 -0.009817944692490534 -0.022775934514776056 0.01402137401535589 0.032200369868862093 -0.00063186317617667381 -0.017485350283659367 -0.03024179161835186 -0.016764657968901871 -0.053031640056388864 -0.055816729301006465
leaf_weight=431.79684200137854 772.43277735263109 2239.7672762423754 993.66523961722851 887.38380530849099 910.65052120387554 753.89033951982856 1745.5647726915777 9546.5562998652458 954.0721521563828 336.42712605372071 11636.251420278102 1760.92042533122 2082.7133104652166 1600.7435109503567 1467.6436239592731 49448.10530494526 3082.408832218498 375.70692007243633 952.74482058361173 936.40601992607117 8804.9924177266657 1055.7453972697258 716.55823820829391 788.36244289204478 282.15587896108627 1191.0886035300791 903.50117158144712 403.28557304665446 360.83433952927589 1771.8295784667134
leaf_count=4951 13159 40221 27392 11395 11398 8934 27618 180666 16615 3974 195766 60169 44125 40229 16990 902238 42858 5512 13631 13665 174073 14723 13557 10453 4263 21525 14778 6666 4618 29197
internal_value=0.000348893 0.00647028 -0.0394511 0.030102 0.0205937 0.00365435 -0.0258543 0.00428818 -0.033935 0.0118278 0.00644734 -0.0565933 -0.050064 -0.0373405 0.0562343 0.00579165 0.0191981 -0.0204886 -0.010993 0.042576 -0.00288172 -0.0204015 -0.00802283 0.0494238 0.0293107 -0.00621615 -0.0154634 0.00519187 -0.0304898 -0.0488519
internal_weight=109194 94638.7 14555.5 10076 7388.18 84562.7 8117.48 82392.2 5750.67 5282.23 63324.1 6438.04 4677.12 2594.41 2687.8 61084.4 3993.06 3024.77 1289.17 2105.95 19068.1 2170.47 9521.55 2256.01 1218.56 2366.81 2649.07 1175.72 1416.58 2725.9
internal_count=1975359 1668374 306985 133578 101184 1534796 135070 1506521 93720 71861 1138225 171915 111746 67621 32394 1098004 54256 47908 17605 29323 368296 28275 187630 27443 17928 41350 42396 19825 19341 45812
is_linear=0
shrinkage=0.1


Tree=19
num_leaves=31
num_cat=0
split_feature=3 5 52 5 10 4 2 10 10 55 11 11 9 0 1 1 10 1 10 10 19 6 3 1 10 8 11 11 6 2
split_gain=15606 7248.26 2091.69 1041.13 933.225 910.906 678.286 497.039 389.753 334.284 301.236 258.807 245.104 227.07 261.953 203.869 179.914 166.811 158.526 145.685 128.141 124.549 117.117 101.929 95.5088 87.3051 85.5485 82.0451 81.007 89.8148
threshold=0.8452991452991454 0.030363155363155366 1.5000000000000002 0.055634920634920648 0.95727759329178619 1.0000000180025095e-35 0.55625879043600579 0.8654408457040037 0.959124000477384 1.0000000180025095e-35 42.956849366816506 80.098723010069719 5.5000000000000009 0.17974358974358975 0.15247584541062806 0.21807065217391305 0.88035959674387942 0.062007934086054324 0.99205899035734546 0.95421640296602417 4.5000000000000009 0.08577456181411558 0.98095065312046448 0.19098277608915909 0.97402548725637195 7.5000000000000009 6.7834731844383844 46.355771563485597 0.079817951197711387 0.72771403353927633
decision_type=8 8 2 10 2 10 10 2 2 2 2 2 2 10 10 10 2 10 2 2 2 10 10 10 2 2 2 2 10 10
left_child=3 5 9 15 7 22 19 26 13 16 25 -12 -9 14 -8 24 -3 -15 27 23 -18 -7 -2 -5 28 -6 -4 -10 -1 -30
right_child=1 2 4 6 10 21 8 12 18 -11 11 -13 -14 17 -16 -17 20 -19 -20 -21 -22 -23 -24 -25 -26 -27 -28 -29 29 -31
leaf_value=0.011576755394998951 0.067158213109344111 0.013348424343450844 0.025901412935294056 -0.049339836125526372 0.012637810165736233 0.040012689648397909 -0.0247166414831703 0.0047713244703346952 -0.02488733046342427 0.0064758297707615438 0.020381916379395335 -0.010655475092205862 -0.0029443514239775588 -0.033398498405238654 -0.042205371316969546 -0.030405234017015698 0.02351105969559969 -0.050903692899712506 0.019052448345074493 -0.033670682416239613 0.033865983400588856 0.0028519781596578293 0.084991260103779886 -0.069378472422602352 0.010016069397325413 0.0021737843528879057 -0.0086275766095805003 -0.010729738533265401 -0.016504936920446855 -0.0028891649124809797
leaf_weight=1557.8889728933573 5902.7914135307074 10102.330286994576 727.69268293678761 13549.066881984472 12545.843269139528 5442.7823156714439 40266.098653942347 160879.76682642102 8640.1255548000336 10969.647897511721 42240.487210616469 2868.6586549729109 55330.989506274462 13479.116733670235 10881.447697877884 5060.9378768205643 27482.940624922514 9138.9374429285526 1229.0312929153442 5026.5328142940998 21162.136041581631 1081.7829446792603 9826.5924408584833 3127.6327718794346 2523.7328770011663 21885.379791885614 50724.091545179486 7784.8724177330732 14707.500131994486 7227.2626271098852
leaf_count=5710 32286 38177 2466 30835 45342 24643 107244 560471 23020 39951 156121 10127 188064 31795 26310 13380 111557 19606 3704 12023 87187 3655 56705 6323 8366 77670 163620 21368 44739 22894
internal_value=0.000290773 0.00966289 0.00669478 -0.0282527 0.00352079 0.0652689 -0.0327064 0.000694561 -0.0289333 0.0225016 0.0130313 0.0184079 0.00279674 -0.0321277 -0.0284375 -0.0120407 0.0254939 -0.040472 -0.0155853 -0.0485995 0.028016 0.0338529 0.0782997 -0.0530986 -0.00846789 0.00598689 -0.00813903 -0.0181777 -0.010454 -0.0120191
internal_weight=583374 439174 416920 144200 347203 22253.9 113123 267663 91419.6 69717.1 79540.4 45109.1 216211 73765.6 51147.5 31077.3 58747.4 22618.1 17654 21703.2 48645.1 6524.57 15729.4 16676.7 26016.4 34431.2 51451.8 16425 23492.7 21934.8
internal_count=1975359 1598042 1480753 377317 1203881 117289 282228 914621 233047 276872 289260 166248 748535 184955 133554 95089 236921 51401 48092 49181 198744 28298 88991 37158 81709 123012 166086 44388 73343 67633
is_linear=0
shrinkage=0.1


Tree=20
num_leaves=31
num_cat=0
split_feature=5 5 52 0 5 10 57 5 8 58 0 4 4 1 10 0 10 11 11 59 1 0 27 10 8 5 7 57 10 52
split_gain=16734.1 8316.13 1036.23 539.911 531.371 379.971 305.721 203.275 169.854 158.284 141.486 136.247 108.907 371.347 97.4467 84.7942 82.6394 81.4892 64.952 64.9026 63.9672 77.0548 61.5078 61.3325 51.7325 48.5834 45.9814 45.7569 45.2538 45.1635
threshold=0.11540303566165637 0.026566791093460117 1.5000000000000002 0.19976247030878863 0.082742946708463966 0.95727759329178619 285.50000000000006 0.009431217320570633 7.5000000000000009 2.5000000000000004 0.027118955690384267 0.014192202560782623 0.0072210636079249229 0.042853583884974025 0.90606162843004967 0.29705882352941182 0.86250147024229606 44.825843783064037 31.076816116193438 9.5000000000000018 0.055439643439374228 0.13976744186046516 7.5000000000000009 0.94157529239766091 8.5000000000000018 0.23438326719576721 0.60776668182026128 200.50000000000003 0.95421640296602417 1.5000000000000002
decision_type=10 8 2 10 10 2 2 10 2 2 10 10 10 10 2 10 2 2 2 2 10 10 2 2 2 10 10 2 2 2
left_child=1 7 9 11 5 6 -4 -1 -7 16 -9 18 15 29 -13 28 -3 19 -2 -11 -16 -22 -18 26 -20 -15 -6 -19 -5 -14
right_child=3 2 4 12 23 8 -8 10 -10 17 -12 14 13 25 20 -17 22 27 24 -21 21 -23 -24 -25 -26 -27 -28 -29 -30 -31
leaf_value=-0.077948290186868219 0.059566827556597451 -0.0096458654082963446 -0.0052916599488114936 0.066757179598115043 0.026088619592755047 -0.019499107697365098 0.0033776036820152913 -0.033821745605872797 -0.0074643864245226956 -0.0083494780075468126 -0.074561851968115808 0.04543330148429895 -0.052336101565692329 0.055590876118912273 0.01952874343469687 0.085362227591994744 -0.027519236753432964 -0.028721639049910819 0.034126617739318792 0.017178678600491645 0.016919397541525823 0.03886149004155133 -0.010013079743168559 0.0062660103870553312 0.051074705837150292 0.07187300428076418 0.012582837776956152 0.00042957336942886254 0.050890638614826456 0.0070229332318195101
leaf_weight=15959.719409011304 4165.6316196620464 3484.2646031305194 109119.46418213844 8024.0972018390894 5153.6055673509836 18653.417802914977 64853.773717977107 1991.3941304087639 31597.031374238431 6616.3290054425597 1492.3587887063622 7544.8599942773581 146.99471999704838 7878.9438709467649 3449.3878568857908 2074.5620927959681 23889.834676109254 2753.0569768249989 3114.5780492573977 1172.1974870562553 1933.5642741918564 9339.3852602243423 2193.1060816496611 5393.3191803693771 4287.7201342731714 2395.6481517702341 4942.6422600150108 668.52456891536713 2324.8963524848223 1001.1305455416441
leaf_count=150876 12869 22775 614338 20423 19740 115294 355219 16035 191027 42396 11911 23955 765 20374 13331 4268 173655 18523 10532 6841 7232 30452 15670 22911 13906 5362 19780 4270 6618 4738
internal_value=-0.000439488 -0.00992585 -0.00554176 0.0488879 -0.00303485 -0.00427234 -0.00205987 -0.07317 -0.011932 -0.0202787 -0.0512767 0.0407649 0.0604131 0.053361 0.0361894 0.0668964 -0.0241152 -0.0101588 0.0495713 -0.00450613 0.0314515 0.0350988 -0.0260477 0.0148782 0.043945 0.0593882 0.0194778 -0.023023 0.0631937 -0.000568107
internal_weight=357615 299934 280491 57681.4 239713 224224 173973 19443.5 50250.4 40777.3 3483.75 33835.1 23846.3 11422.7 22267.2 12423.6 29567.2 11210.1 11567.9 7788.53 14722.3 11272.9 26082.9 15489.6 7402.3 10274.6 10096.2 3421.58 10349 1148.13
internal_count=1976086 1801261 1622439 174825 1338309 1275878 969557 178822 306321 284130 27946 112277 62548 31239 74970 31309 212100 72030 37307 49237 51015 37684 189325 62431 24438 25736 39520 22793 27041 5503
is_linear=0
shrinkage=0.1


Tree=21
num_leaves=31
num_cat=0
split_feature=6 4 1 52 58 6 10 55 19 1 5 5 59 5 60 57 10 10 10 3 24 10 9 6 1 24 8 8 9 8
split_gain=12486.5 7230.17 594.958 547.911 398.045 324.294 180.764 156.21 154.3 139.569 106.709 99.2655 90.9253 83.7057 67.2624 60.4546 51.3709 46.0532 45.3325 40.148 40.0669 35.2164 32.1969 30.651 29.7887 29.4702 25.8232 25.4721 38.7084 26.1896
threshold=0.10753206495592342 0.0099504950495049524 0.16378539493293595 1.5000000000000002 3.5000000000000004 0.062090383379738705 0.959124000477384 1.0000000180025095e-35 2.5000000000000004 0.26491228070175443 0.018583666988452634 0.062495673158972385 2.5000000000000004 0.032274865591397854 6.5000000000000009 91.500000000000014 0.89734808570425029 0.86552164725539349 0.90606162843004967 0.76533166458072599 2.5000000000000004 0.8790347079820765 4.5000000000000009 0.13335234233092555 0.3585714285714286 4.5000000000000009 3.5000000000000004 7.5000000000000009 5.5000000000000009 15.500000000000002
decision_type=10 8 10 2 2 10 2 2 2 10 10 10 2 10 2 2 2 2 2 10 2 2 2 10 10 2 2 2 2 2
left_child=1 -1 10 7 8 6 -6 15 14 11 -2 18 -10 -7 -5 20 19 -17 -4 25 -3 -9 -20 -13 -11 -12 -25 28 -18 -29
right_child=2 3 9 4 5 13 -8 21 12 24 16 23 -14 -15 -16 17 27 -19 22 -21 -22 -23 -24 26 -26 -27 -28 29 -30 -31
leaf_value=-0.076840043530824909 0.053014003736715255 -0.0029047568616094822 0.076749668389673925 0.025364876086940609 -0.0044629458770173921 0.038484645455266676 -0.014301941187639534 0.014483991469604721 0.012915852516552119 0.082095642548556585 0.050922120956066436 0.026710880387886816 -0.00027440304832393393 0.0077914273892194606 -0.017206743687874861 -0.0099754474180440561 0.016428988307852176 -0.023561540381706707 0.057121328635533056 0.07895424642891137 0.06087793244614606 -0.0059061146099154624 0.07126689297927534 0.039996204487169756 0.11823806344228696 0.03212567322480147 0.056435930437325414 0.038486854177119369 0.042172866672131271 0.023887389821437982
leaf_weight=14981.649390600622 3838.3119724839926 636.75490398705006 3452.3375313431025 5604.4158662185073 95151.663674101233 956.54554288089275 23233.978109352291 1069.0762506499887 8198.0728443041444 2306.2143206000328 1549.4009366780519 430.64556607604027 14412.129759550095 12537.255127564073 397.16999537497759 2858.7200755029917 2415.1234400570393 19757.025901466608 4131.920898526907 300.73112486302853 116.45987233519554 4076.6295725852251 2652.1509566158056 1114.9109267145395 254.68401777744293 1817.7160171121359 6882.6858703494072 3875.6825619786978 771.54862236976624 1805.9231860861182
leaf_count=184988 20964 5958 14240 44574 801177 7156 213708 8495 67743 7182 7421 1927 120914 73551 3297 27473 13040 209254 18905 1483 1039 35073 11873 4531 690 8724 26841 20166 4047 9652
internal_value=-0.000209529 -0.00997015 0.0527436 -0.00466962 -0.00240007 -0.00471978 -0.006394 -0.0174431 0.00829175 0.0637928 0.0384203 0.0607873 0.00450772 0.00996794 0.0225459 -0.0209163 0.0339512 -0.0218446 0.0674081 0.0439108 0.00694386 -0.00166791 0.0626528 0.0527448 0.0856939 0.040778 0.0541454 0.0298308 0.0226652 0.0338481
internal_weight=241588 203988 37600 189006 160491 131879 118386 28514.7 28611.8 21225.6 16374.4 18664.7 22610.2 13493.8 6001.59 23369 12536.1 22615.7 10236.4 3667.85 753.215 5145.71 6784.07 8428.24 2560.9 3367.12 7997.6 8868.28 3186.67 5681.61
internal_count=1976086 1804400 171686 1619412 1332120 1095592 1014885 287292 236528 86189 85497 78317 188657 80707 47871 243724 64533 236727 45018 17628 6997 43568 30778 33299 7872 16145 31372 46905 17087 29818
is_linear=0
shrinkage=0.1


Tree=22
num_leaves=31
num_cat=0
split_feature=3 5 7 3 6 4 10 5 5 6 3 0 4 5 2 10 4 2 5 0 6 6 0 5 7 2 0 6 11 6
split_gain=2330.16 398.298 207.701 206.024 167.523 164.344 105.338 89.2565 84.8946 76.991 70.4806 99.8761 126.307 68.2326 56.8923 47.2051 47.0513 43.1883 42.3862 41.5603 35.2125 32.8817 30.8495 27.9665 25.405 24.2162 23.4135 22.3736 21.6966 21.3169
threshold=0.69732205778717427 0.071878746748105432 0.62966443887496537 0.77608892921960082 0.1123099579242637 1.0000000180025095e-35 0.95468420468420478 0.035756314515072336 0.20002195871761094 0.062090383379738705 0.97467948717948727 0.027874902874902876 1.0000000180025095e-35 0.13325545171339567 0.60025125628140719 0.99205899035734546 0.041494490358126725 0.59099357891179471 0.076854395604395623 0.22361111111111112 0.20778499278499279 0.21006891659065574 0.20733467347043968 0.031765220142387265 0.62966443887496537 0.52223320158102771 0.21515994852919176 0.15001485442661919 33.772060713670804 0.18190173796791451
decision_type=10 8 10 10 10 8 2 10 10 10 10 10 10 8 10 2 10 10 10 10 10 10 10 10 10 10 10 10 2 10
left_child=1 4 5 7 14 8 13 20 -3 22 11 12 -5 -7 25 -8 19 -6 -18 -9 24 23 -4 -19 -2 -1 29 -26 -27 -11
right_child=3 2 9 10 17 6 15 16 -10 26 -12 -13 -14 -15 -16 -17 18 21 -20 -21 -22 -23 -24 -25 27 28 -28 -29 -30 -31
leaf_value=0.099135961309310155 0.11729167090535531 0.047983232667682146 0.0032689024023594341 -0.0072284531172759937 0.034926530352053536 0.019211722243759239 -0.00071573937362218296 -0.016705484111099064 -0.004704234842656722 -0.027640949289307576 -0.073196911905437451 -0.065096999464584401 -0.053583515975139599 0.0054233753960741477 0.033722533743811664 -0.020732852282606937 -0.02721352937963973 0.028788854811650656 -0.055141990119738873 -0.052625737450190758 -0.050275124042188847 -0.021349632450669759 -0.025913842483562551 0.0024125828043013624 0.015518139655858399 0.077906902316085325 -0.070930737387364634 -0.012499733071527274 0.049230631690351294 -0.071078259396075469
leaf_weight=204.58805210143328 17.849280223250389 1303.6340761594474 1259.9626433327794 987.68375223129988 930.79646108299494 3809.100115146488 19759.032225549221 1569.7824490144849 399.11192847043276 1479.6035498119891 1545.9926200713962 1974.5775932520628 1453.839090032503 62292.974811006337 815.98380804434419 1252.9167810417712 853.92464710772038 735.43448009341955 1503.1841659285128 405.85487138852477 164.85242201387882 306.27510488033295 508.17085124924779 888.61034425348043 434.54579500854015 464.07002148777246 161.9482342377305 827.64755321294069 619.61347131431103 122.70397058129311
leaf_count=2000 279 14412 19227 29104 11542 47261 377272 25741 4733 23803 60160 44373 38614 1113940 10709 25728 15404 11341 26264 6275 2988 4680 7253 13297 8057 5356 2281 14842 7183 1967
internal_value=0.000319599 0.00539674 0.00391316 -0.0417657 0.0329873 0.00485903 0.00425751 -0.0283049 0.0356278 -0.0198665 -0.0548083 -0.0483685 -0.0348353 0.00621807 0.0544075 -0.00190981 -0.0354831 0.0172299 -0.0450284 -0.0240896 -0.00677311 0.00869146 -0.00511272 0.014363 -0.00116282 0.0675015 -0.0346471 -0.00284586 0.06152 -0.0309736
internal_weight=109054 97314.5 92349.2 11739.7 4965.37 88816.8 87114 5777.64 1702.75 3532.39 5962.09 4416.1 2441.52 66102.1 2104.26 21011.9 4332.75 2861.12 2357.11 1975.64 1444.9 1930.32 1768.13 1624.04 1280.04 1288.27 1764.26 1262.19 1083.68 1602.31
internal_count=1976086 1703985 1637877 272101 66108 1583346 1564201 99850 19145 54531 172251 112091 67718 1161201 25248 403000 73684 40860 41668 32016 26166 29318 26480 24638 23178 14539 28051 22899 12539 25770
is_linear=0
shrinkage=0.1


Tree=23
num_leaves=31
num_cat=0
split_feature=3 3 52 3 0 10 1 10 0 55 5 5 11 4 9 11 10 10 10 1 4 10 19 1 9 8 11 1 7 10
split_gain=11450.6 6014.72 1669.27 912.045 754.225 741.418 466.527 393.147 300.785 272.149 270.405 265.591 231.001 213.82 202.892 201.092 163.359 152.729 141.678 134.198 200.124 132.668 118.151 99.88 93.4106 86.4694 78.5993 77.9988 70.4256 69.0599
threshold=0.83558558558558571 0.93226710844908889 1.5000000000000002 0.97530487804878063 0.070925553319919524 0.95894416406312599 0.098834954375310063 0.8654408457040037 0.17974358974358975 1.0000000180025095e-35 0.16001768346595938 0.017895433027011975 42.956849366816506 0.0087726048480184695 5.5000000000000009 80.098723010069719 0.86552164725539349 0.90069725596041394 0.95468420468420478 0.062007934086054324 0.013793759512937596 0.86831905344757254 3.5000000000000004 0.17883795309168446 5.5000000000000009 7.5000000000000009 6.7834731844383844 0.21807065217391305 0.6833508771929826 0.90352379235760638
decision_type=8 10 2 10 10 2 10 2 10 2 10 10 2 10 2 2 2 2 2 10 10 2 2 10 2 2 2 10 10 2
left_child=4 2 9 11 21 7 8 26 18 16 17 13 25 -3 -9 -14 -2 -8 24 20 -10 -1 -18 -23 -6 -7 -4 -19 -25 -12
right_child=1 3 5 -5 6 12 10 14 19 -11 29 -13 15 -15 -16 -17 22 27 -20 -21 -22 23 -24 28 -26 -27 -28 -29 -30 -31
leaf_value=-0.025301592601682243 0.0086673382397148332 0.067446890921668515 0.025612553750592171 0.08216044179184695 -0.016650093192867668 0.012233392627863158 -0.041256783136009195 0.0040518346405795571 -0.030972625143331257 0.005496062959860477 -0.061225462731273786 0.023904994231777697 0.01858293368215469 0.035330858506109744 -0.0029095179826184093 -0.0091859308424659565 0.019383193077225205 -0.024744989603904408 -0.0055467322123485489 -0.04090461202928028 -0.0062067505662503145 -0.0043084879615192034 0.029169794100612458 -0.025397816783445177 -0.029532612710878755 0.0012995189601278489 -0.0079162883101016063 -0.041973310761518189 -0.0084485566743791023 -0.044055323681348145
leaf_weight=5531.0907492637634 7203.3661639243364 4513.7174212932587 708.83257962763309 9413.3363758027554 21231.22723506391 11419.463910296559 10824.274146556854 163610.77206352353 15770.828774213791 10891.414711728692 3446.21906042099 5204.3294746726751 38605.748299822211 3837.2702298909426 56264.146001264453 2796.2446186244488 22383.154424831271 20779.562392905354 8758.5079304873943 8434.0155694782734 4115.2757878899574 19662.695414572954 27507.886422023177 4756.3512388169765 7663.4347890466452 19735.642439424992 50576.454225122929 3010.6762118935585 5063.8536428809166 7346.9529935121536
leaf_count=16025 27487 27451 2431 60002 56350 41824 25178 572147 35512 39869 6552 21314 145248 18197 191272 9869 92714 52645 24800 17985 11250 61988 115938 12840 19727 70533 162393 6781 14643 15121
internal_value=0.000297614 0.00844437 0.0056659 0.0582469 -0.0238914 0.00283395 -0.0279159 0.00043144 -0.0225463 0.0199833 -0.0357173 0.0416397 0.0118125 0.0526908 0.00227044 0.0167072 0.0227467 -0.0314074 -0.0166898 -0.0303324 -0.025848 -0.0110891 0.0247793 -0.0084225 -0.0200671 0.0053075 -0.00745268 -0.0269257 -0.0166588 -0.0495386
internal_weight=581067 434672 411703 22968.7 146395 343717 111381 271160 65973.3 67985.8 45407.7 13555.3 72557.1 8350.99 219875 41402 57094.4 34614.5 37653.2 28320.1 19886.1 35014 49891 29482.9 28894.7 31155.1 51285.3 23790.2 9820.2 10793.2
internal_count=1976086 1598689 1471725 126964 377397 1195717 271901 928243 165624 276008 106277 66962 267474 45648 763419 155117 236139 84604 100877 64747 46762 105496 208652 89471 76077 112357 164824 59426 27483 21673
is_linear=0
shrinkage=0.1


Tree=24
num_leaves=31
num_cat=0
split_feature=5 5 5 52 5 59 0 0 29 8 11 10 5 0 59 4 1 3 8 2 9 5 5 4 57 10 8 10 0 27
split_gain=12861.9 7335.78 742.74 738.829 384.121 341.891 276.333 271.294 271.036 160.356 146.553 116.633 106.697 107.445 100.066 86.2837 121.785 83.3154 80.8168 78.7514 73.6578 73.6373 68.3915 66.5831 62.9722 59.7981 49.2924 47.6358 46.2078 40.7261
threshold=0.094754041967664279 0.020844474153297685 0.15153265647489014 1.5000000000000002 0.044997472194135496 8.5000000000000018 0.22111111111111112 0.045199182839632285 9.5000000000000018 7.5000000000000009 42.956849366816506 0.90606162843004967 0.0099256194276144041 0.021429664778815249 8.5000000000000018 0.014192202560782623 0.042853583884974025 0.57021050546521901 8.5000000000000018 0.82683658170914553 5.5000000000000009 0.25028801843317977 0.13054095662791318 0.09082369818796647 184.50000000000003 0.95205950735201716 6.5000000000000009 0.84815590111642758 0.30857761164666542 7.5000000000000009
decision_type=10 8 10 2 8 2 10 10 2 2 2 2 10 10 2 10 10 10 2 10 2 10 10 8 2 2 2 2 10 2
left_child=1 12 22 10 7 8 11 19 -6 -7 14 20 -1 -14 23 18 -17 24 -13 -5 -4 27 25 -3 28 26 -2 -19 -8 -12
right_child=2 3 6 4 5 9 17 -9 -10 -11 29 15 13 -15 -16 16 -18 21 -20 -21 -22 -23 -24 -25 -26 -27 -28 -29 -30 -31
leaf_value=-0.076792222993278453 0.010237210149884808 0.016843549776181913 0.043027463118336898 -0.026516520963721736 -0.012879749826314353 -0.0039641574629552387 0.052196991129047778 -0.069720128889873903 -0.0031282522883368685 0.00451400275759525 -0.027402879419983872 0.032034494913068687 -0.032488079889596067 -0.076536321355251014 0.010137377452225677 0.0085460472278908826 0.034696909137386239 0.075537628941413748 0.05052879487317128 0.0083379287038947113 0.060574212386780568 0.073128643494513673 0.030142426822199045 -0.016171690824458573 0.045339470604897299 0.0061415670327966592 0.026177547574989413 0.052683425917351173 -0.037327577463430038 -0.0071150160769142979
leaf_weight=14637.250426501036 2715.3264688998461 628.1629651337862 8442.0129751414061 2201.4724191054702 42548.062419608235 34595.624371409416 87.620346233248711 1364.4471580684185 86355.733163900673 62813.27199870348 14273.395731031895 4042.1049951016903 1175.1926868483424 1049.2143249437213 1668.0216295942664 2132.0517280846834 10843.265428826213 1028.9867138564587 5701.7845852971077 918.26303267478943 3344.489071175456 3071.2415082454681 6539.590967386961 21802.325721494853 2544.0973789393902 3374.5150580257177 6814.2408598810434 8189.4706042855978 168.43724796175957 1064.6246446594596
leaf_count=151936 10092 3967 24348 12478 248087 195833 202 8552 489866 348177 106169 12823 10096 9402 10174 8518 33238 2189 17068 6467 9081 6262 21452 155847 6680 13708 24622 19592 866 7774
internal_value=-0.000377763 -0.00969703 0.0383757 -0.00570407 -0.00354261 -0.0029683 0.0448702 -0.0325251 -0.00634707 0.00150281 -0.0183535 0.039933 -0.0736897 -0.0532694 -0.0134892 0.0357437 0.0304007 0.0561594 0.0428577 -0.0162543 0.0480073 0.0597079 0.0218092 -0.0152467 0.0405814 0.0175853 0.0216366 0.0552356 -0.00665411 -0.0259953
internal_weight=356134 287095 69039.2 270233 230797 226313 49595.6 4484.18 128904 97408.9 39436.5 34505.7 16861.7 2224.41 24098.5 22719.2 12975.3 15089.9 9743.89 3119.74 11786.5 12289.7 19443.7 22430.5 2800.15 12904.1 9529.57 9218.46 256.058 15338
internal_count=1975566 1764825 210741 1593391 1309460 1281963 140867 27497 737953 544010 283931 105076 171434 19498 169988 71647 41756 35791 29891 18945 33429 28043 69874 159814 7748 48422 34714 21781 1068 113943
is_linear=0
shrinkage=0.1


Tree=25
num_leaves=31
num_cat=0
split_feature=6 4 6 59 57 5 1 1 5 30 1 5 11 1 59 32 8 9 10 9 10 4 10 6 11 11 13 5 10 10
split_gain=9638.56 6532.4 641.175 400.144 208.554 202.166 193.317 166.042 108.238 78.0336 65.1717 61.2724 57.4889 48.5485 46.6349 46.1274 39.2854 36.0839 35.9479 34.2089 31.4676 31.4667 30.704 30.1273 29.3255 28.5312 27.0922 25.1333 24.9364 24.0469
threshold=0.095250626566416044 0.0072210636079249229 0.14816261574074077 1.5000000000000002 101.50000000000001 0.0067117117117117134 0.04658914728682171 0.19859154929577469 0.08180936200237672 10.500000000000002 0.031498015873015879 0.029520697167755992 23.092245203626756 0.27888888888888896 1.0000000180025095e-35 1.5000000000000002 21.500000000000004 5.5000000000000009 0.96595468145345753 4.5000000000000009 0.90708284678550177 0.14729990356798459 0.97076972734867484 0.11114398053611839 22.862875732754723 42.545326372218838 8.5000000000000018 0.034522485301128246 0.86344211344211363 0.90708284678550177
decision_type=10 8 10 2 2 8 8 10 10 2 10 10 2 10 2 2 2 2 2 2 2 10 2 10 2 2 2 10 2 2
left_child=1 -1 8 14 9 10 -7 11 18 12 -6 25 -5 16 22 -11 20 23 19 -2 -9 24 -3 -10 -13 -4 -16 -21 -23 -27
right_child=2 3 7 4 5 6 -8 13 17 15 -12 21 -14 -15 26 -17 -18 -19 -20 27 -22 28 -24 -25 -26 29 -28 -29 -30 -31
leaf_value=-0.076374931204268831 0.032468717163106335 -0.015719705492991547 0.058273374924588811 0.029264157213467708 -0.01078338585691185 -0.027402850976063632 -0.0037374455639961959 0.0667808057177222 0.0093958534805489088 -0.035875814741662841 0.040530953546401946 0.018657312963385946 0.0067288221031364505 0.076084092133795855 -0.035359852249377509 0.080492829315700426 0.023090811505273007 0.030375353774636724 0.018462926844108097 0.057406868085309308 0.055018654665413252 0.050669093411712288 -0.028432094507450986 0.02286028824964054 0.061484381196879094 0.065499298630993727 0.34779484292605467 0.038717405445317321 0.03472208067881577 0.038186645633535854
leaf_weight=13622.468363754451 4249.3225135244429 12375.58974955231 3680.3111232668161 1411.3669589459896 303.41538337618113 3530.7527874112129 154596.23260707408 3614.6958209276199 3344.1965824216604 39.388759262859821 1336.2148328498006 190.78825895488262 5730.7577959224582 1801.9268626868725 1749.1018239408731 246.82689666002989 309.09149192273617 2414.1274811848998 1056.027151145041 1233.148305170238 6197.6470433324575 1166.3629439324141 2247.5848025679588 3310.367206312716 1010.2728888094425 402.24939288198948 1.8426008373498906 1743.0125624015927 6272.6910322904587 1652.9346498250961
leaf_count=183626 22923 135530 16870 10849 3369 29140 1308645 12105 17545 359 12155 738 48214 5060 20610 1969 1162 11546 6386 6558 23148 4730 25871 15428 4099 1766 17 9013 28026 8109
internal_value=-0.000149304 -0.00956141 0.042371 -0.0046032 -0.00314204 -0.00390364 -0.00426592 0.0522157 0.0274482 0.0132369 0.0310291 0.0449766 0.0111835 0.0609429 -0.0195224 0.0644433 0.0582463 0.0198979 0.0357149 0.038235 0.0593526 0.0396528 -0.0176743 0.0160953 0.0546896 0.0529948 -0.0349509 0.0464646 0.0372237 0.0435373
internal_weight=240841 197192 43649.2 183569 167195 159767 158127 26299 17350.2 7428.34 1639.63 14375.6 7142.12 11923.4 16374.1 286.216 10121.4 9068.69 8281.51 7225.48 9812.34 8640.12 14623.2 6654.56 1201.06 5735.5 1750.94 2976.16 7439.05 2055.18
internal_count=1975566 1780354 195212 1596728 1414700 1353309 1337785 105813 89399 61391 15524 64338 59063 41475 182028 2328 36415 44519 44880 38494 35253 37593 161401 32973 4837 26745 20627 15571 32756 9875
is_linear=0
shrinkage=0.1


Tree=26
num_leaves=31
num_cat=0
split_feature=7 5 3 4 5 6 7 3 0 1 5 1 10 5 3 6 7 5 6 1 7 5 7 0 7 5 7 2 7 1
