tree
version=v4
num_class=4
num_tree_per_iteration=4
label_index=0
max_feature_idx=60
objective=multiclass num_class:4
feature_names=word_zero_to_end_count_max word_one_to_end_count_max word_many_to_end_min word_many_to_end_max word_one_to_end_count_min word_zero_to_end_count_mean word_one_to_end_count_mean word_many_to_end_mean time_hour day_of_week user_intro_acc user_intro_wpm a_len b_len c_len d_len e_len f_len g_len h_len i_len j_len k_len l_len m_len n_len o_len p_len q_len r_len s_len t_len u_len v_len w_len x_len y_len z_len 0_len 1_len 2_len 3_len 4_len 5_len 6_len 7_len 8_len 9_len apostrophe_len open_paren_len close_paren_len comma_len period_len exclamation_len question_len colon_len dash_len passage_len punc_len caps_len numbers_len
feature_infos=[0:0.98203592814371254] [0:0.5] [0.011976047904191617:1] [0.067873303167420809:1] [0:0.5] [0:0.91402714932126694] [0:0.5] [0.067873303167420809:1] [0:23] [1:7] [0.51162790697674421:1] [1.5562197716300781:127.91472351765491] [0:71] [0:26] [0:39] [0:38] [0:76] [0:42] [0:31] [0:40] [0:58] [0:23] [0:26] [0:42] [0:37] [0:56] [0:55] [0:27] [0:18] [0:59] [0:50] [0:68] [0:30] [0:22] [0:29] [0:22] [0:26] [0:20] [0:44] [0:30] [0:23] [0:10] [0:10] [0:10] [0:14] [0:21] [0:16] [0:16] [0:15] [0:13] [0:13] [0:39] [0:18] [0:4] [0:4] [0:12] [0:30] [31:600] [0:47] [0:111] [0:82]
tree_sizes=3467 3451 3479 3545 3547 3514 3589 3583 3555 3534 3581 3603 3556 3527 3592 3593 3559 3546 3580 3598 3570 3562 3593 3592 3569 3543 3589 3582 3564 3555 3577 3582 3564 3552 3583 3581 3559 3547 3583 3578 3580 3551 3568 3588 3580 3544 3587 3572 3555 3536 3599 3564 3539 3546 3586 3579 3574 3545 3577 3563 3568 3564 3581 3563 3569 3536 3583 3591 3554 3564 3589 3538 3565 3571 3600 3550 3574 3548 3588 3546 3539 3547 3598 3574 3535 3530 3599 3534 3541 3573 3607 3553 3542 3553 3593 3542 3535 3568 3582 3548 3545 3547 3594 3493 3552 3595 3607 3529 3554 3564 3575 3533 3545 3553 3591 3540 3557 3573 3566 3544 3584 3579 3569 3565 3540 3551 3594 3581 3553 3551 3611 3542 3526 3552 3588 3542 3553 3523 3553 3543 3522 3555 3560 3582 3536 3507 3569 3600 3517 3514 3584 3531 3531 3557 3546 3544 3517 3564 3549 3554 3547 3508 3565 3559 3538 3554 3549 3515 3518 3539 3563 3544 3539 3516 3538 3541 3508 3488 3503 3533 3526 3588 3554 3622 3504 3486 3586 3542 3535 3544 3516 3553 3531 3522 3545 3601 3530 3544 3526 3521 3561 3537 3512 3576 3510 3507 3548 3609 3478 3527 3484 3565 3532 3551 3487 3559 3526 3549 3525 3506 3512 3516 3521 3562 3532 3525 3510 3537 3527 3463 3500 3557 3526 3475 3519 3539 3588 3574 3527 3596 3542 3507 3550 3515 3551 3497 3534 3592 3562 3505 3478 3504 3514 3488 3521 3540 3209 3482 2934 3496 3510 3574 3514 3603 3502 3495 3497 3553 3525 3482 3494 3600 3571 3515 2913 3575 3521 3457 3500 3526 3026 3530 3489 3544 3519 3550 3501 3555 3513 3465 3497 3550 3508 3511 3468 3483 3499 3501 3485 3565 2803 3515 3497 3582 3540 3539 3424 3510 3518 3475 3464 3511 3519 3518 3478 3503 2806 3511 3490 3589 3502 3504 3465 3584 3514 3494 3517 3566 3042 3472 3441 3536 3476 3544 3478 3588 3521 3467 3501 3540 3530 3551 3497 3520 3517 3510 3490 3554 3494 3038 3479 3523 3460 3509 3060 3546 3465 3447 3435 3517 3452 3478 3041 3505 3483 3455 3426 3519 3476 3449 3493 3563 3460 3440 3330 3538 3461 3179 3458 3513 3515 3120 3471 3535 3531 3412 3512 3519 3453 3428 3485 3492 3501 3456 3470 3584 3506 3504 3500 3550 3523 3472 3518 3572 3470 3053 3462 3542 3470 3493 3474 3523 3506 3512 3502 3551 3460 3461 3473 3514 3506 3460 3472 3469 3442 3462 2836 3561 3487 3450 3498 3535 3486 3547 3441 3501 3409 3498 3498 3484 3397 3438 3530 3552 3448 3442 3506 3452 3500 3437 3434 3538 3416 3464 3455 3535 3464 3524 3527 3535 3482 3460 3448 3494 3461 3514 3476 3510 3484 3536 3456 3546 3490 3500 3445 3531 3437 3286 3490 3565 3484 3439 3504 3590 3432 3506 3477 3522 3543 3467 3482 3536 3483 3520 3340 3497 3504 3450 3443 3456 3555 3374 3504 3562 3524 3417 3410 3243 3489 3438 3490 3478 3495 3447 2865 3556 3493 3518 3465 3519 3514 3512 3385 3486 3484 3471 3398 3563 3435 3410 3439 3523 3520 3481 3476 3528 3452 3427 2395 3531 3481 3549 3458 3516 3505 3448 3510 3520 3471 3360 3509 3559 3508 3451 3477 3576 3581 3535 3268 3349 3497 3447 3509 3529 3036 3521 3504 3487 3429 3430 3434 3493 2560 3498 3516 3501 3457 3470 3421 3518 3515 3478 3500 3509 3455 3421 3523 3515 3419 3457 3489 3528 3445 2722 3447 3532 3446 3477 3446 3576 3382 3425 3446 3542 3453 3508 3432 3581 3452 3462 3424 3577 3491 3485 3459 3486 3504 3506 3448 3483 3511 3476 2499 3533 3491 3414 3423 3543 3451 3515 3460 3522 1469 3535 3442 3460 3486 3417 3425 3567 3456 3456 3518 3500 3485 3480 3522 3471 2523 3423 3447 3518 3493 3483 3430 3497 3529 3457 3411 3492 3435 3479 3467 3562 3445 3435 3472 2087 3441 3454 3493 3546 3439 3496 1994 3483 2345 3473 3446 3556 3251 3512 3217 3265 3449 3466 3454 3554 3498 3395 2780 3506 3476 3429 3477 3502 3464 3442 3451 3556 3495 3462 3504 3545 3556 3495 3487 3549 3477 3477 3348 3533 3469 3494 3472 3565 3437 3473 3455 3481 3476 3469 3491 3549 3475 3461 3518 3502 3407 3521 3398 3503 3364 3451 3486 3497 3470 3483 3510 3524 3500 3481 3475 3516 3519 3505 3477 3537 3530 2798 3447 3527 3445 3472 3466 3477 3497 3416 3471 3451 3500 3424 3474 3447 3438 3498 3465 3533 2699 3454 3505 3531 3461 3491 3425 3529 3506 3480 3497 3568 3494 3481 3486 3359 3475 3477 3491 3456 3436 3429 3435 3510 3490 3517 3476 3419 3495 3452 3456 3524 3422 3450 3456 3524 3452 3539 3485 3503 3425 3450 3426 3519 3438 3399 3453 3544 3530 3456 3433 3450 3411 3499 3485 3540 3482 3522 3487 3477 3430 3449 3493 3559 3454 3455 3399 3500 3491 3448 3476 3550 3480 3425 3444 3522 3498 3478 3476 3460 3495 3482 3494 3465 3480 3446 2596 3508 3485 3431 3489 3472 3486 3491 3379 3543 3471 3465 3260 3459 3491 2842 3434 3442 3516 2232 3434 3510 3448 2093 3467 3431 3500 3513 2818 3478 3443 2064 3387 3518 3440 3449 3425 3540 3029 3553 3466 3515 3470 3499 3527 3512 3436 3474 3492 3518 3515 3480 3494 3413 3446 3506 3514 3515 3514 3442 3406 3473 3451 3443 3443 3446 3490 3463 3406 3562 3444 3427 3463 3522 3501 3484 3521 3554 3456 3490 3532 3463 3433 3451 3487 3463 3515 3491 3428 3488 3478 3530 3463 3488 3502 3398 3464 3526 3516 3428 3482 3497 3470 3502 3506 3536 3450 3581 3486 3486 3449 3435 3398 3427 3537 3463 3396 3490 3272 3475 3463 3443 3362 3481 2715 3161 3464 3261 3433 3425 3492 3468 2418 3528 3469 3485 3473 3472 3471 3461 3445 3443 3427 3234 3485 3527 3511 3524 3487 3442 3423 3530 3472 3481 3041 3507 3431 3507 3448 3507 3478 3534 3471 3478 3042 3427 3492 3492 3479 3502 3487 3500 3212 3469 1872 3432 2102 3532 3397 3463 3544 3477 3439 3461 3128 3487 3132 3459 3439 3525 3470 3472 3458 3494 2379 3514 3481 3560 3504 3492 3340 3526 3417 3495 3477 3487 3453 3481 3448 3534 3494 3498 3495 3465 3498 3404 3422 3446 3443 3488 3447 3474 3498 3427 3429 3475 3488 3518 3474 3491 3504 3435 3531 3517 3513 3546 3471 3531 3498 3514 3425 3515 3507 3494 3456 3545 3492 3428 3470 3524 3449 3406 3458 3536 3503 3451 3450 3514 3455 3429 3484 3511 3491 3416 3404 3501 3246 3492 3485 3515 3458 3518 3427 3511 3530 3470 3465 3478 3536 3514 3430 3545 3441 3422 3452 3475 3482 3458 3458 3487 3417 2026 3425 3461 3471 3388 3412 3561 3415 3487 3522 3496 3470 2292 3540 3506 3488 3484 3455 3526 3525 3469 3452 3525 2926 3412 3456 3501 3452 3384 3485 3465 3445 3412 3438 3473 3494 3404 3449 3499 3484 3453 3458 3528 3474 3491 3500 3491 3476 3480 3446 3529 3499 3455 3449 3521

Tree=0
num_leaves=31
num_cat=0
split_feature=5 5 0 52 5 10 0 4 1 0 4 1 0 5 57 5 5 5 10 3 10 10 10 0 57 0 0 10 9 58
split_gain=83049.1 14638.8 6189.88 4165.38 2478.66 1243.34 965.2 834.081 1894.6 763.212 554.197 521.238 394.529 365.69 338.208 246.151 239.802 238.093 215.227 196.659 194.932 181.169 169.26 153.785 152.54 151.686 139.923 135.953 131.347 114.328
threshold=0.11044725990108316 0.029136177403669875 0.19951923076923081 1.5000000000000002 0.065852604400026368 0.90606162843004967 0.15331196581196585 0.0066492152379690082 0.043373745819397999 0.26372180451127825 0.0088107436733426501 0.055356193514088256 0.24807692307692311 0.041672913543228392 234.50000000000003 0.19055555555555556 0.01667663988146122 0.089298282362798506 0.90324460485750813 0.89871794871794886 0.93637096922033414 0.96429940972650219 0.90606162843004967 0.1438923395445135 285.50000000000006 0.033615819209039555 0.30179316096747294 0.90324460485750813 5.5000000000000009 2.5000000000000004
decision_type=10 8 10 2 10 2 10 10 10 10 10 10 10 10 2 10 10 10 2 10 2 2 2 10 2 10 10 2 2 2
left_child=1 16 6 13 5 24 27 9 26 20 22 15 21 18 -7 -12 -1 23 -3 -11 -4 -10 28 -6 -5 -18 -9 -2 -8 -20
right_child=2 3 7 4 17 14 10 8 12 19 11 -13 -14 -15 -16 -17 25 -19 29 -21 -22 -23 -24 -25 -26 -27 -28 -29 -30 -31
leaf_value=-2.0809910190327017 -1.8997394324004215 -2.02244225714897 -1.7871006163783361 -1.9967844065475673 -1.9728994816504808 -2.0144635321556543 -1.8482636403079995 -1.9292629344553203 -1.821847120645361 -1.7250674081676296 -1.9148013351967554 -1.8782371019186166 -1.775764735760234 -1.9809607993835738 -2.0050541271495317 -1.9951637256206214 -2.0345903663069755 -1.9512801449304189 -2.0394007258379037 -2.0658671899353429 -1.8259043321189785 -1.8781413615998395 -1.8663677568668822 -2.0467291628792723 -1.9872132711164983 -2.0796153431291238 -2.0140952876377374 -1.9275962125838759 -1.7947723844628718 -2.0261899558240639
leaf_weight=28804.984711974859 2542.3476270139217 14495.932271540165 3096.418958902359 45871.883028179407 10782.262523204088 68462.761490106583 1632.3444996476173 337.16561996936798 3427.7983414232731 1799.2070768773556 2653.380832105875 8251.4873710870743 1863.4812279939651 1390.886374771595 86431.374539494514 445.38389873504639 1941.0480867624283 7013.3889419138432 31698.259820997715 17.045942753553391 2232.3929615318775 687.62394759058952 4766.9213487505913 289.62464201450348 26143.002716094255 1219.0194840729237 458.98937597870827 5656.4380678534508 640.86489361524582 8264.4673091471195
leaf_count=172425 12071 83702 13656 252450 54995 388198 7864 1747 14388 7190 13449 37825 7322 7354 486446 2487 11292 34867 188332 107 10425 3137 23546 1632 142842 6865 2603 28198 2862 48048
internal_value=-1.99733 -2.01378 -1.86213 -2.00694 -2.00133 -2.00417 -1.89042 -1.80811 -1.83325 -1.78427 -1.8777 -1.89137 -1.81396 -2.03159 -2.00921 -1.92635 -2.07812 -1.9657 -2.03288 -1.72827 -1.80335 -1.83125 -1.85565 -1.97483 -1.99331 -2.05196 -1.97818 -1.91896 -1.83318 -2.03667
internal_weight=373318 332809 40509.3 300844 244994 226909 26589.2 13920.1 6775.06 7145.06 18390.4 11350.3 5978.9 55849.5 154894 3098.76 31965.1 18085.3 54458.7 1816.25 5328.81 4115.42 7040.13 11071.9 72014.9 3160.07 796.155 8198.79 2273.21 39962.7
internal_count=2068325 1879448 188877 1688866 1361430 1269936 128302 60575 29197 31378 88033 53761 24847 327436 874644 15936 190582 91494 320082 7297 24081 17525 34272 56627 395292 18157 4350 40269 10726 236380
is_linear=0
shrinkage=1


Tree=1
num_leaves=31
num_cat=0
split_feature=6 4 1 6 59 1 1 10 19 1 1 19 1 0 10 10 10 0 0 0 1 8 9 10 0 0 10 10 0 10
split_gain=58791.5 10836.9 6292.71 2381.97 1581.68 1500.02 835.373 823.026 290.74 269.921 259.579 258.457 239.004 230.752 212.583 193.062 160.573 142.927 119.166 117.56 93.7544 87.3634 71.0641 65.5664 64.6622 63.3187 61.5655 60.0117 59.7017 57.4494
threshold=0.10619884889214187 0.013029454205924796 0.17974358974358975 0.060633912655971491 1.5000000000000002 0.24190177638453506 0.15345368916797492 0.90606162843004967 2.5000000000000004 0.21103238866396765 0.0990430537765042 3.5000000000000004 0.28991596638655465 0.011711368485217923 0.95896025151583209 0.95906575800231175 0.96002385211687546 0.012270400481782597 0.017069735819735823 0.10867018396092373 0.12517409470752092 8.5000000000000018 4.5000000000000009 0.9125605823920534 0.091769729093050659 0.013986697965571207 0.91462463653185322 0.98289134761737518 0.12018518518518519 0.89731434751261729
decision_type=10 8 10 10 2 10 10 2 2 10 10 2 10 10 2 2 2 10 10 10 10 2 2 2 10 10 2 2 10 2
left_child=1 -1 6 4 26 9 13 8 -6 15 -5 -9 23 22 18 17 20 -4 -8 21 -15 -11 -2 24 -7 -16 -3 -17 -12 -20
right_child=2 3 5 10 7 12 14 11 -10 19 28 -13 -14 16 25 27 -18 -19 29 -21 -22 -23 -24 -25 -26 -27 -28 -29 -30 -31
leaf_value=-2.530466659918313 -2.3417536088338453 -2.4779703014126371 -2.227029841610181 -2.4269527625886607 -2.4252804509918744 -2.1155886216994557 -2.2771712448027546 -2.4517794319880788 -2.4502243714057226 -2.2354504978308922 -2.382512476988369 -2.4650182275755288 -2.0959707513272705 -2.3777407223980549 -2.3132402798275815 -2.2937741950841399 -2.3933176491270309 -2.2694736697340385 -2.2935473688095711 -2.2555335312571851 -2.3501163322698719 -2.1837970256567947 -2.3025590501115678 -2.1958719322192941 -2.2070080430765935 -2.3598097419515121 -2.4884337882284839 -2.356544840577202 -2.4077207483507235 -2.3206381161656338
leaf_weight=23568.953473716974 1160.2158496826887 8428.5620366036892 1183.4390814304352 9763.3199919015169 5191.3906343877316 266.17396546900272 1505.8321822583675 17469.649971574545 46784.72455175221 557.98806032538414 1744.5796282291412 94663.14762596786 627.55267487466335 1680.4793127030134 425.79427795112133 691.75808119773865 1565.4139712899923 2427.1955378502607 1223.2653584778309 698.06303624808788 4602.7184901833534 803.35569114983082 773.82750791311264 598.12957590818405 110.54678817093372 938.8070352524519 16951.698305845261 196.50427037477493 2043.9596838504076 2203.4748982787132
leaf_count=194322 9894 73254 9426 72579 41912 1902 12375 146748 383060 4313 13545 797350 4228 11917 3571 5295 11999 16935 8717 4512 34360 6032 6474 4285 694 7177 150237 1565 13519 16128
internal_value=-2.45045 -2.46628 -2.30243 -2.45883 -2.46173 -2.23091 -2.33873 -2.45813 -2.44773 -2.2521 -2.41833 -2.46296 -2.14416 -2.35702 -2.31031 -2.26584 -2.36465 -2.25556 -2.30065 -2.2221 -2.3575 -2.20496 -2.32607 -2.17519 -2.14239 -2.34527 -2.48496 -2.30765 -2.39611 -2.31096
internal_weight=250851 226610 24240.5 203041 189489 8160.71 16079.8 164109 51976.1 6558.3 13551.9 112133 1602.4 9782.66 6297.17 4498.9 7848.61 3610.63 4932.57 2059.41 6283.2 1361.34 1934.04 974.85 376.721 1364.6 25380.3 888.262 3788.54 3426.74
internal_count=2068325 1886526 181799 1692204 1592561 59187 122612 1369070 424972 48078 99643 944098 11109 74644 47968 33221 58276 26361 37220 14857 46277 10345 16368 6881 2596 10748 223491 6860 27064 24845
is_linear=0
shrinkage=1


Tree=2
num_leaves=31
num_cat=0
split_feature=3 3 5 5 4 4 10 3 52 5 2 5 10 6 4 5 4 2 3 7 5 1 9 4 5 4 4 52 4 55
split_gain=4601.9 2436.37 694.303 353.738 453.538 314.171 312.595 217.342 156.706 155.071 148.264 128.093 116.723 101.821 98.9427 88.4013 86.4262 84.9065 75.3012 74.5257 72.9979 100.184 69.2242 64.8599 59.535 56.6683 47.8608 42.9341 42.286 39.5631
threshold=0.71902412280701766 0.62603041913386759 0.052628365786260532 0.14998894104347402 0.041451890034364267 0.062996031746031758 0.90606162843004967 0.7756861365235751 1.5000000000000002 0.058786764705882365 0.54583651642475173 0.069780746101857291 0.97402548725637195 0.1852499352499353 0.055356193514088256 0.051298920377867756 0.013029454205924796 0.5270467836257311 0.97530487804878063 0.55559371184371198 0.022698845869577582 1.0000000180025095e-35 5.5000000000000009 0.040270270270270282 0.24900687547746372 0.076775714706749196 0.024797786292039169 1.5000000000000002 0.1062888344944455 1.0000000180025095e-35
decision_type=10 8 10 10 10 10 2 10 2 10 10 10 2 10 10 10 10 10 10 10 10 10 2 10 10 10 10 2 10 2
left_child=1 2 5 4 17 26 11 15 29 12 -6 22 -10 19 -11 -2 24 -4 20 -7 21 -9 27 -17 -5 -13 -1 -3 -18 -8
right_child=7 6 3 16 10 13 8 18 9 14 -12 25 -14 -15 -16 23 28 -19 -20 -21 -22 -23 -24 -25 -26 -27 -28 -29 -30 -31
leaf_value=-3.0255780163066004 -3.3113165197957874 -3.2971306891068499 -3.0764182736198014 -3.2316719688697186 -3.2100761644975528 -3.1158042268594164 -3.3110483856503992 -3.3225329455642214 -3.2923211226845255 -3.2970892361773294 -3.2555712093875644 -3.295987552383409 -3.3063744241481277 -3.2488836859872423 -3.3284664203028793 -3.3276661785691912 -3.2854419126299255 -3.1751943476663071 -3.3729381586103315 -3.1932664722315409 -3.3657553363721449 -3.3569487920971168 -3.275487620136075 -3.3568772262559565 -3.3084830760406443 -3.3308170447963614 -3.1169231014182106 -3.2848963395945181 -3.3197365694720387 -3.2939259634443006
leaf_weight=132.81378972530365 1336.1656263172626 3503.1299587488174 103.83796292543411 418.2494343817234 860.43955188989639 164.40219107270241 10417.664758950472 1337.8281737565994 39160.117399692535 1784.7684268057346 4293.5525127649307 1092.7211798429489 6960.3261068165302 253.13472297787666 2302.0581872165203 1532.0612160265446 1198.696703761816 548.35564684867859 2964.8921006023884 514.81968992948532 2822.5780397951603 2305.8582956492901 6968.3538358807564 1512.775665730238 132.71878701448441 815.26576289534569 102.69793039560318 15791.113085597754 513.53715333342552 1549.2092053294182
leaf_count=2772 23953 66879 1776 6381 13575 3057 203583 27985 726219 28282 71952 16532 131762 4309 36019 23865 18133 9674 62187 9553 48046 44071 125541 23655 1768 12013 1984 286656 7038 29105
internal_value=-3.29709 -3.28959 -3.24067 -3.2511 -3.23803 -3.1686 -3.29459 -3.35118 -3.29855 -3.2961 -3.24797 -3.28585 -3.29444 -3.19469 -3.31477 -3.33277 -3.28464 -3.15945 -3.35973 -3.1745 -3.35368 -3.34432 -3.28403 -3.34218 -3.25019 -3.31086 -3.06537 -3.28712 -3.29573 -3.30883
internal_weight=113394 99582 9237.26 8069.39 5806.19 1167.87 90344.7 13812.2 62174.1 50207.3 5153.99 28170.6 46120.4 932.357 4086.83 4381 2263.2 652.194 9431.16 679.222 6466.26 3643.69 26262.6 3044.84 550.968 1907.99 235.512 19294.2 1712.23 11966.9
internal_count=2068325 1814563 151972 130297 96977 21675 1662591 253762 1154970 922282 85527 507621 857981 16919 64301 71473 33320 11450 182289 12610 120102 72056 479076 47520 8149 28545 4756 353535 25171 232688
is_linear=0
shrinkage=1


Tree=3
num_leaves=31
num_cat=0
split_feature=3 5 52 0 10 2 0 1 4 1 0 10 55 1 0 10 10 4 1 1 4 10 9 10 1 6 5 1 9 11
split_gain=61446.8 15282.5 6257.25 4803.98 2655.25 2287.1 1223.19 1075.51 1029.96 878.566 899.569 705.852 672.725 544.375 606.297 391.287 381.858 362.744 356.141 318.913 323.011 297.565 294.667 288.579 238.383 235.836 219.861 178.559 177.267 166.159
threshold=0.84731934731934744 0.02941261118503696 1.5000000000000002 0.09039836567926457 0.90606162843004967 0.57161854103343479 0.19951923076923081 0.082127976763169477 1.0000000180025095e-35 0.20881782945736438 0.055300713557594298 0.9763993316624896 1.0000000180025095e-35 0.054200940070505292 0.19951923076923081 0.91462463653185322 0.95906575800231175 0.017301245210727973 0.099502015083438769 0.043797953964194385 0.030536130536130541 0.8654408457040037 5.5000000000000009 0.90069725596041394 0.16552511415525115 0.076201441257893673 0.15518404765228724 0.15737874097007226 5.5000000000000009 48.795010131893996
decision_type=8 8 2 10 2 10 10 10 10 10 10 2 2 10 10 2 2 10 10 10 10 2 2 2 10 10 10 10 2 2
left_child=3 8 12 9 21 13 7 23 -2 10 27 22 15 17 24 -3 -9 26 -12 20 -8 -4 -6 -7 -15 -10 -5 -1 -23 -13
right_child=1 2 4 5 11 6 19 16 25 -11 18 29 -14 14 -16 -17 -18 -19 -20 -21 -22 28 -24 -25 -26 -27 -28 -29 -30 -31
leaf_value=-0.30919588766378964 -0.20545033717804484 -0.27076451726741507 -0.31215872705467385 -0.35008367912761912 -0.28784542125707535 -0.36049549291716987 -0.38316183990493935 -0.38131016335877033 -0.24108439531991438 -0.37263010846291883 -0.32800818918836017 -0.2816083750373109 -0.28650068364113157 -0.38787471028838505 -0.44109147741680566 -0.2557465556120595 -0.34799171643081234 -0.31608651207771432 -0.35574146544974966 -0.40643334607099219 -0.30856572190992926 -0.29874746326825435 -0.29650037288930237 -0.33768125207658423 -0.42062836873317666 -0.2937240825542799 -0.40978629700398433 -0.32722188951084469 -0.31069124493326516 -0.26718869296102782
leaf_weight=12873.332585334778 23843.323732852936 26163.205009460449 49614.039729595184 940.54081535339355 161530.20924139023 7990.5031728744507 7512.301109790802 17492.626350402832 6506.5160322189331 5651.9441270828247 7160.4938135147095 15228.266661643982 11726.824589252472 6342.7657270431519 5412.7151656150818 51527.103841781616 4283.8614993095398 900.37081861495972 13114.352565765381 7071.7104449272156 629.41523551940918 47711.210011482239 52005.305904865265 18129.717381477356 3424.6841168403625 979.68737268447876 1796.3920197486877 9591.1624059677124 16802.060610294342 16826.111436367035
leaf_count=44346 92650 93123 165202 3017 558739 23613 20506 50526 24024 17360 23575 53141 40794 18539 13363 187297 13163 2961 40679 18501 2085 162241 177467 56105 9359 3365 4755 31777 56131 59921
internal_value=-0.299656 -0.283138 -0.287848 -0.360559 -0.293733 -0.375315 -0.366191 -0.358344 -0.215611 -0.335576 -0.330676 -0.287876 -0.264174 -0.405914 -0.414241 -0.260804 -0.374756 -0.37116 -0.345947 -0.390894 -0.377396 -0.306336 -0.289953 -0.344661 -0.39936 -0.247972 -0.389273 -0.316892 -0.301858 -0.274039
internal_weight=610783 480464 449134 130319 359717 81927.6 63110.1 47896.7 31329.5 48391.3 42739.3 245590 89417.1 18817.5 15180.2 77690.3 21776.5 3637.3 20274.8 15213.4 8141.72 114127 213536 26120.2 9767.45 7486.2 2736.93 22464.5 64513.3 32054.4
internal_count=2068325 1674095 1554056 394230 1232842 236493 184499 143407 120039 157737 140377 849268 321214 51994 41261 280420 63689 10733 64254 41092 22591 383574 736206 79718 27898 27389 7772 76123 218372 113062
is_linear=0
shrinkage=1


Tree=4
num_leaves=31
num_cat=0
split_feature=5 5 52 0 5 10 0 4 6 0 5 10 55 10 5 0 0 0 10 10 0 5 5 0 3 10 10 4 5 0
split_gain=57418.4 13179.1 3346.31 2895.86 1676.05 933.972 654.107 458.386 883.769 389.787 388.19 313.96 304.494 223.963 219.905 199.964 170.579 166.763 157.425 154.757 146.605 142.512 138.569 134.872 117.248 115.87 107.806 107.793 102.159 98.7938
threshold=0.11044725990108316 0.027794399802435369 1.5000000000000002 0.19951923076923081 0.065852604400026368 0.90606162843004967 0.16460936323950023 0.0066492152379690082 0.043488214683866863 0.24807692307692311 0.19055555555555556 0.95896025151583209 1.0000000180025095e-35 0.95896025151583209 0.01667663988146122 0.27223320158102771 0.30179316096747294 0.12478373702422146 0.90324460485750813 0.90606162843004967 0.034378476084538381 0.057879419760463936 0.088651558896189211 0.13667496886674971 0.89871794871794886 0.92986680183605086 0.97261737501463541 0.011781396496422404 0.058786764705882365 0.20550527903469082
decision_type=10 8 2 10 10 2 10 10 10 10 10 2 2 2 10 10 10 10 2 2 10 8 10 10 10 2 2 10 10 10
left_child=1 14 12 6 5 21 13 9 16 26 19 -7 18 17 -1 -10 29 -2 -3 -8 -16 -4 23 -6 25 -11 -5 -19 -14 -9
right_child=3 2 4 7 22 11 10 8 15 24 -12 -13 28 -15 20 -17 -18 27 -20 -21 -22 -23 -24 -25 -26 -27 -28 -29 -30 -31
leaf_value=-0.08206226340732059 0.050549169197451109 -0.024647986191395674 -0.021051571851485394 0.14103407878157181 0.019521439756041217 -0.0074491875440672733 0.11941005727366397 0.025243930918077598 0.12277310100299853 0.20016321874693899 0.021846505314290048 -0.017146232324054791 -0.016751823044266839 0.047878235558761369 -0.034270024821825416 0.16484150692254429 -0.016908765972710203 0.099739993495767135 -0.037982225088545991 0.096528145686935587 -0.08157917460256961 0.0040138764667505015 0.035086701110248496 -0.048073174895594012 -0.03757478541000131 0.16161926337442931 0.093247366961179565 0.07625599250045223 0.02244570455974642 0.12296911878368388
leaf_weight=26295.510503903031 1999.8038412183523 12022.168288350105 2343.9636416733265 5119.0228541791439 10997.51053635776 103508.93965359032 4426.2536758631468 220.00413334369659 5824.9601355046034 1675.3135095536709 599.68371468782425 49291.313681185246 7020.8753689974546 3340.9768641591072 1707.465563133359 1404.0947371274233 463.79212461411953 2601.2331833839417 33653.589531555772 8932.8544348627329 1063.942198485136 70173.284429773688 7726.7314693778753 303.2477204054594 24.395065143704414 1467.9140613973141 521.50846602022648 7910.4698878824711 734.2574434876442 195.78972539305687
leaf_count=172161 8883 72222 12436 18991 53851 589091 17558 1110 20442 5170 3086 286335 41092 15555 10516 4303 2636 11414 210599 37848 6388 382992 35840 1712 146 4948 2147 34148 3622 840
internal_value=-0.000142425 -0.0149662 -0.00869242 0.103543 -0.00373521 -0.00614202 0.0847897 0.136591 0.119429 0.152389 0.100577 -0.0105774 -0.031362 0.0708877 -0.0792378 0.130945 0.0247704 0.0770312 -0.0344728 0.10411 -0.0524356 0.00320355 0.0247649 0.0177067 0.180471 0.182166 0.136618 0.0820683 -0.0130393 0.071285
internal_weight=373571 326843 297776 46728.1 244345 225318 29811.3 16916.8 8108.64 8808.15 13958.8 152800 53430.9 15852.5 29066.9 7229.05 879.586 12511.5 45675.8 13359.1 2771.41 72517.2 19027.5 11300.8 3167.62 3143.23 5640.53 10511.7 7755.13 415.794
internal_count=2068082 1878857 1689792 189225 1362257 1270854 128492 60733 29331 31402 58492 875426 327535 70000 189065 24745 4586 54445 282821 55406 16904 395428 91403 55563 10264 10118 21138 45562 44714 1950
is_linear=0
shrinkage=0.1


Tree=5
num_leaves=31
num_cat=0
split_feature=1 4 1 1 59 4 10 1 5 5 19 19 1 1 4 10 1 5 10 10 9 5 10 5 10 10 26 11 1 11
split_gain=38713.5 10035.8 3018.66 2142.52 1283.14 1042.84 633.216 625.427 422.102 332.145 260.519 229.353 215.79 194.787 176.261 156.871 98.033 96.5688 92.3259 90.9115 80.6327 76.2565 70.9683 68.9137 46.3813 46.2579 43.432 42.1615 41.8165 40.5008
threshold=0.12403846153846156 0.013029454205924796 0.17974358974358975 0.075235849056603785 1.5000000000000002 0.011781396496422404 0.90606162843004967 0.24190177638453506 0.020852672292545716 0.045140527324057274 2.5000000000000004 4.5000000000000009 0.0990430537765042 0.15184453227931491 0.024797786292039169 0.90606162843004967 0.15184453227931491 0.045140527324057274 0.95896025151583209 0.9763993316624896 4.5000000000000009 0.12259526452090272 0.98289134761737518 0.11766052574876106 0.91462463653185322 0.91400895174532548 5.5000000000000009 44.605896948454003 0.267948717948718 24.538116605963793
decision_type=10 8 10 10 2 10 2 10 10 10 2 2 10 10 10 2 10 10 2 2 2 10 2 10 2 2 2 2 10 2
left_child=1 -1 5 4 24 -2 10 9 16 15 -6 -8 26 19 -11 29 27 20 -15 -10 28 -16 -17 -14 -3 -18 -5 -7 -9 -4
right_child=2 3 7 12 6 8 11 17 13 14 -12 -13 23 18 21 22 25 -19 -20 -21 -22 -23 -24 -25 -26 -27 -28 -29 -30 -31
leaf_value=-0.079181702986792918 -0.078941825062490145 -0.025163609318969028 0.16517023284341903 0.04052004479800924 0.023309168692160754 0.10928715606362255 -0.0026219426836383624 0.16533404386474948 0.072531487066462327 -0.073245594801543051 1.0134157428069184e-05 -0.013389889490981247 0.057250310114851592 0.10181732232625174 0.13265006988719821 0.15352757185272936 0.14567947950399154 0.1798222516401396 0.068271411184914449 0.031128518604373562 0.25404103295763986 0.10221611192290125 0.084708714093619103 0.034249462061991691 -0.034454182809575871 0.11771226581494997 0.018476587284026645 0.080247605633121916 0.21799623510470667 0.20520416155894017
leaf_weight=21341.137979239225 374.86366707831621 8096.6117324605584 367.16528763622046 1027.6493588611484 5337.4120677262545 1529.8696084991097 25681.539922200143 232.35595180094242 6594.6482964456081 45.43550356477499 47596.71791728586 86122.065273523331 3031.8419370502234 3982.3221505433321 3132.1655992642045 2450.5265708938241 963.62156444787979 1037.3166430070996 1035.9959213361144 577.6769710406661 467.74390758574009 1121.8396624103189 160.32277721166611 2289.3899401053786 16041.4245095402 1553.2992166653275 6915.6291638612747 747.89666294306517 441.39289031177759 835.90115959197283
leaf_count=190620 3146 73192 2342 7466 42121 11482 218440 1363 43777 319 387735 737285 21245 24712 18087 15892 6661 4959 7081 4210 2480 5615 1168 13696 150309 11120 48291 5731 2383 5154
internal_value=-0.000151891 -0.0139629 0.111466 -0.00707731 -0.00980566 0.0860245 -0.00665056 0.154378 0.0896659 0.141599 0.00235959 -0.0109166 0.0317714 0.0797768 0.122533 0.163089 0.114807 0.201958 0.094894 0.0691982 0.222064 0.124627 0.149305 0.0473564 -0.0313383 0.128424 0.0213297 0.0997565 0.199849 0.192994
internal_weight=251134 223481 27652.4 202140 188876 17360.2 164738 10292.2 16985.3 8113.36 52934.1 111804 13264.5 12190.6 4299.44 3813.92 4794.69 2178.81 5018.32 7172.33 1141.49 4254.01 2610.85 5321.23 24138 2516.92 7943.28 2277.77 673.749 1203.07
internal_count=2068082 1890400 177682 1699780 1609082 117920 1385581 59762 114774 48577 429856 955725 90698 79780 24021 24556 34994 11185 31793 47987 6226 23702 17060 34941 223501 17781 55757 17213 3746 7496
is_linear=0
shrinkage=0.1


Tree=6
num_leaves=31
num_cat=0
split_feature=3 3 5 3 4 10 6 5 4 5 52 58 5 5 6 5 3 0 6 6 10 6 9 5 5 59 5 4 2 55
split_gain=4122.32 1578.1 559.699 337.129 280.312 240.086 178.421 158.25 181.242 130.856 117.906 119.019 90.8535 83.8446 83.7394 73.3182 72.0134 80.5117 103.091 67.1395 66.33 60.7155 56.0587 53.0564 52.6249 38.6943 37.4074 36.952 34.6604 33.7562
threshold=0.69946236559139796 0.62603041913386759 0.083363237639553459 0.7756861365235751 0.076166304085085831 0.90606162843004967 0.11765439209819656 0.17055990876650851 0.043797953964194385 0.033485193621867887 1.5000000000000002 3.5000000000000004 0.034537553372195468 0.032286857964855545 0.15381037091563413 0.076854395604395623 0.97530487804878063 0.028778467908902695 0.0057979671559145905 0.041829004329004334 0.97402548725637195 0.15009157509157511 5.5000000000000009 0.076077666295057619 0.21062030075187974 2.5000000000000004 0.22225364504776277 0.055356193514088256 0.53410852713178303 1.0000000180025095e-35
decision_type=10 8 10 10 10 2 10 10 10 10 2 2 10 10 10 10 10 10 10 10 2 10 2 10 10 2 10 10 10 2
left_child=1 2 4 9 13 15 7 8 -4 21 29 25 14 -1 -6 22 17 18 -5 24 -13 -2 -3 -21 -11 -12 -9 -17 -15 -7
right_child=3 5 6 16 12 10 -8 26 -10 19 11 20 -14 28 -16 27 -18 -19 -20 23 -22 -23 -24 -25 -26 -27 -28 -29 -30 -31
leaf_value=0.17745610863676958 0.024309010426476041 0.0092184811274138856 0.090087129604145083 -0.023192078766839729 0.11971521491362813 -0.011598273226616284 -0.0036713113323807544 0.02078177492855238 0.0358556595870093 -0.016782452323080455 0.021084688892280577 0.00113762384370743 0.049537136158583392 0.16725432474588173 0.054793020222724413 0.0059515181328809452 -0.075388873303246617 -0.068405394217583043 -0.059122098325192211 -0.029562169902763058 -0.010366680261445304 -0.019131596707271478 0.019613582935728638 -0.057921281378626788 -0.058823980397837032 0.0072288075613918317 -0.01282911205872771 -0.026231471743153375 0.097262847474255107 0.0043200456293338834
leaf_weight=246.26915227621794 474.51317261531949 19335.736200101674 775.27373075485229 1304.0126618333161 432.22520096600056 10032.797510281205 1415.8122060485184 833.04341041296721 3011.9172143414617 1587.3818929977715 3220.5086899958551 34292.451237741858 1865.8599154539406 83.394760746508837 369.14538887888193 668.18921256065369 2621.5350867137313 2702.1073202863336 2064.8362583518028 987.92184123769403 5869.4543906487525 998.81628510728478 7094.2783966846764 1996.7021508701146 366.89916203543544 5395.7298304848373 549.22426014766097 764.48568483814597 486.51423490792513 1535.1462805308402
leaf_count=3989 8828 351220 11424 29423 7219 203222 19396 11393 46252 25305 59380 628126 29505 1283 5857 9911 62083 48190 42372 16903 112698 17510 124814 30576 5003 100469 7809 11094 7959 28869
internal_value=-5.71244e-05 0.00741808 0.0449249 -0.0486945 0.0773437 0.00313671 0.0277748 0.0363892 0.04696 -0.0312969 -0.000408112 0.00174429 0.0616444 0.128636 0.0898218 0.0108146 -0.0615271 -0.0555397 -0.0452173 -0.0390996 -0.000543422 -0.00513395 0.0120091 -0.0485377 -0.0246805 0.0124089 0.00741974 -0.0112146 0.107522 -0.00948494
internal_weight=113382 98277.5 10068.7 15104.7 3483.41 88208.8 6585.27 5169.46 3787.19 6412.23 60346.1 48778.1 2667.23 816.178 801.371 27862.7 8692.49 6070.96 3368.85 4938.91 40161.9 1473.33 26430 2984.62 1954.28 8616.24 1382.27 1432.67 569.909 11567.9
internal_count=2068082 1781889 152086 286193 55812 1629803 96274 76878 57676 104125 1132764 900673 42581 13231 13076 497039 182068 119985 71795 77787 740824 26338 476034 47479 30308 159849 19202 21005 9242 232091
is_linear=0
shrinkage=0.1


Tree=7
num_leaves=31
num_cat=0
split_feature=3 5 52 0 10 2 4 0 1 10 55 1 10 10 1 10 5 0 11 9 4 10 5 6 5 11 10 1 1 1
split_gain=43225.6 12841.2 4925.79 3119.7 1988.44 1579.57 1000.39 854.86 736.464 616.858 588.58 490.466 373.861 327.887 324.231 309.739 305.77 287.662 269.986 269.408 233.123 200.4 186.382 181.928 158.847 152.32 135.122 129.601 118.798 113.884
threshold=0.84731934731934744 0.043416760643651409 1.5000000000000002 0.070925553319919524 0.90606162843004967 0.55625879043600579 1.0000000180025095e-35 0.21420168067226894 0.099502015083438769 0.9763993316624896 1.0000000180025095e-35 0.19560019129603065 0.95896025151583209 0.90324460485750813 0.054200940070505292 0.90606162843004967 0.14556759030443245 0.045115332428765274 29.10644058683463 5.5000000000000009 0.021352583586626141 0.86807933836319418 0.01667663988146122 0.076201441257893673 0.13662853489570057 48.795010131893996 0.90606162843004967 0.19399641577060936 0.26393188854489169 0.07109164420485177
decision_type=8 8 2 10 2 10 10 10 10 2 2 10 2 2 10 2 10 10 2 2 10 2 10 10 10 2 2 10 10 10
left_child=3 6 10 11 19 14 22 8 12 18 15 17 -7 -10 20 -3 27 29 -6 21 24 -4 -2 -8 -5 -11 -9 -16 -13 -1
right_child=1 2 4 5 9 7 23 26 13 25 -12 28 -14 -15 16 -17 -18 -19 -20 -21 -22 -23 -24 -25 -26 -27 -28 -29 -30 -31
leaf_value=0.024503512786085244 0.090963460078394662 0.024561019866278334 -0.0083603391739325815 -0.031251588056949463 0.0015305608244687021 -0.045080224944440611 0.051823634138571752 -0.094174529307834515 -0.07763357760364277 0.015901164895333601 0.010608583470497901 -0.040605180284734234 -0.022776926596348942 -0.053866123604622743 -0.068336940083852285 0.038888908258975709 -0.10495426101706465 -0.030532599281766732 0.010107136111794495 -0.013890705756779045 -0.0067976587000583028 0.0014822634592670033 0.062549822623411092 0.0063929797850057722 -0.085438649049940099 0.02985265528951378 -0.070469381190543121 -0.096356412855992946 -0.073038309089253989 -0.01170298844902035
leaf_weight=916.70933240652084 20313.832210943103 20978.15608137846 37520.41274741292 754.03561723232269 47339.979140728712 35321.266779005527 6468.0207208544016 3561.3538435101509 8382.7301172614098 14946.009308412671 11546.55208414793 5908.7439306974411 9549.8386657834053 18894.515859901905 5522.421421289444 53779.722486078739 7485.0842869281769 10855.67465248704 163411.75241003931 30673.692113682628 741.93645769357681 46102.329924955964 2607.3763474076986 1021.1317319571972 1920.7005634009838 16436.58889965713 7429.4195892512798 2358.6005378365517 1397.5770489871502 16546.432918667793
leaf_count=3495 86500 76350 124479 2394 162880 101277 25145 8212 22106 52913 40733 17995 28903 52978 15416 202825 16999 34008 570594 100965 2439 156576 10223 3525 4691 59843 18384 5860 3897 55477
internal_value=0.000160225 0.0145048 0.0101872 -0.0491834 0.00499679 -0.0580872 0.0773638 -0.0521698 -0.0482117 0.0101285 0.0316229 -0.0237095 -0.0403337 -0.0611706 -0.0842795 0.0348684 -0.090476 -0.017749 0.00818068 -0.00587443 -0.0564088 -0.00293386 0.0877317 0.0456306 -0.0701665 0.0232086 -0.0781515 -0.0767238 -0.0468105 -0.00980179
internal_weight=610693 473146 442735 137547 356431 101922 30410.4 83139.1 72148.4 242134 86304.4 35625.1 44871.1 27277.2 18782.8 74757.9 15366.1 28318.8 210752 114296 3416.67 83622.7 22921.2 7489.15 2674.74 31382.6 10990.8 7881.02 7306.32 17463.1
internal_count=2068082 1673551 1548158 394531 1228250 279659 125393 231860 205264 846230 319908 114872 130180 75084 47799 279175 38275 92980 733474 382020 9524 281055 96723 28670 7085 112756 26596 21276 21892 58972
is_linear=0
shrinkage=0.1


Tree=8
num_leaves=31
num_cat=0
split_feature=5 5 52 0 5 10 4 57 4 1 58 0 5 0 1 0 58 5 5 10 10 5 10 10 0 10 59 0 11 3
split_gain=40735.8 11919.3 2658.94 1677.34 1174.11 750.78 490.085 319.56 262.874 669.416 230.988 225.121 225.1 204.593 251.235 149.396 140.597 136.027 132.692 114.45 110.214 109.464 106.134 98.8546 98.467 88.802 86.9378 75.0914 73.2715 69.9968
threshold=0.11044725990108316 0.027794399802435369 1.5000000000000002 0.19951923076923081 0.069131809051163909 0.90606162843004967 0.0088107436733426501 233.50000000000003 0.0066492152379690082 0.043373745819397999 2.5000000000000004 0.28869047619047622 0.01667663988146122 0.15331196581196585 0.055356193514088256 0.033615819209039555 7.5000000000000009 0.19055555555555556 0.22225364504776277 0.89722826782742293 0.90606162843004967 0.035737179487179492 0.97076972734867484 0.88045900229844609 0.16460936323950023 0.96429940972650219 9.5000000000000018 0.30179316096747294 55.255666861599259 0.89871794871794886
decision_type=10 8 2 10 10 2 10 2 10 10 2 10 10 10 10 10 2 10 10 2 2 10 2 2 10 2 2 10 2 10
left_child=1 12 10 6 5 16 22 -7 11 27 23 20 -1 -8 17 -14 -4 -15 25 -6 -5 26 24 -3 -2 -11 -12 -10 -16 -13
right_child=3 2 4 8 19 7 13 -9 9 18 21 29 15 14 28 -17 -18 -19 -20 -21 -22 -23 -24 -25 -26 -27 -28 -29 -30 -31
leaf_value=-0.080658130766384256 0.076886959311334935 -0.021000614198652998 -3.5138414110695436e-05 0.12654551315271542 0.035052490509643042 -0.014514840897471371 0.047811832222925732 -0.0052831285434608152 0.041215269176221488 0.099305180370864332 -0.022975376403950695 0.15287426750124039 -0.030984719739517077 0.052502471361881742 0.079156324469644351 -0.079948994426219638 0.0092980643936174303 -0.004679782965957586 0.12156870623314414 0.01673676465052145 0.10223531099353148 0.01326214286153457 0.056529489557224213 -0.034390984014573849 0.098326424990721098 0.065583816933727931 0.0028392483663318216 -0.018414022462776909 0.05562434112945791 -0.064803259746166395
leaf_weight=23975.971823662519 3475.3571326434612 6637.7913743406534 49828.51164548099 2796.5018662661314 4655.1795371025801 66433.432698085904 8410.8643601685762 86094.428011074662 390.02206245064735 4783.7727048248053 9305.2650908827782 1618.2205798178911 1619.0810434371233 3148.6698484867811 8703.4191999584436 1014.1025994494557 23871.873534321785 478.97518219053745 2464.3549794256687 12790.006594032049 5632.0368804931641 1136.5060626268387 1050.6340592652559 32670.01724126935 5611.2409879714251 935.64290142059326 1516.5421946048737 460.34889306128025 1564.2033970654011 14.843621015548704
leaf_count=172203 14116 41042 270773 8429 20434 388429 34790 495420 1760 14680 57879 4187 10452 13476 31975 6485 128262 2488 6916 59160 18655 5716 4524 213918 21193 3227 9041 2607 6025 100
internal_value=-0.00028108 -0.0135101 -0.00772712 0.0822538 -0.00337197 -0.00529959 0.0684126 -0.00930406 0.105769 0.0933816 -0.0284275 0.116891 -0.0776094 0.0601256 0.0675784 -0.0498458 0.00298779 0.0449497 0.102156 0.0216248 0.110302 -0.0162559 0.0866464 -0.03213 0.0901276 0.0937904 -0.0193569 0.00892315 0.0755724 0.15089
internal_weight=373088 321549 294940 51539.1 243673 226228 32443.4 152528 19095.7 9034.14 51266.1 10061.6 26609.2 22306.1 13895.3 2633.18 73700.4 3627.65 8183.77 17445.2 8428.54 11958.3 10137.2 39307.8 9086.6 5719.42 10821.8 850.371 10267.6 1633.06
internal_count=2068362 1879214 1690074 189148 1362478 1282884 128587 883849 60561 29190 327596 31371 189140 88754 53964 16937 399035 15964 24823 79594 27084 72636 39833 254960 35309 17907 66920 4367 38000 4287
is_linear=0
shrinkage=0.1


Tree=9
num_leaves=31
num_cat=0
split_feature=6 4 1 52 6 1 10 5 19 19 5 5 10 5 10 6 10 9 1 10 5 10 2 4 11 10 11 9 10 10
split_gain=29633.3 9308.55 1843.94 1264.84 921.854 482.794 453.139 259.861 230.435 204.61 191.968 121.172 120.695 100.718 94.5919 93.3551 69.2312 68.8956 64.671 51.7573 49.6104 48.2995 43.7042 41.4781 40.5909 38.8227 33.2637 33.0112 32.3656 30.6777
threshold=0.1035562062522918 0.013029454205924796 0.16552511415525115 1.0000000180025095e-35 0.06500668449197862 0.22111111111111112 0.90606162843004967 0.018223703379953386 2.5000000000000004 2.5000000000000004 0.043416760643651409 0.071410615528262597 0.95468420468420478 0.063093837439209918 0.90480055658627101 0.13046714155409811 0.95906575800231175 4.5000000000000009 0.30384615384615393 0.91792050303166417 0.11044725990108316 0.89026042450699994 0.60503185011396543 1.0000000180025095e-35 32.045691761304333 0.89058363071255908 44.605896948454003 3.5000000000000004 0.97199878656352467 0.99205899035734546
decision_type=10 8 10 2 10 10 2 10 2 2 10 10 2 10 2 10 2 2 10 2 10 2 10 10 2 2 2 2 2 2
left_child=1 23 7 21 6 10 9 17 -8 -5 14 -6 15 18 -4 -9 20 26 19 -7 -12 -3 -13 -1 -16 -17 -2 -15 -20 -14
right_child=2 3 5 4 11 13 8 12 -10 -11 16 22 29 27 24 25 -18 -19 28 -21 -22 -23 -24 -25 -26 -27 -28 -29 -30 -31
leaf_value=-0.07917745934756025 0.085727433840922546 -0.019629896095144376 0.13548203767475436 0.020069946603289517 0.043449620097627414 0.16156785481256131 0.0045605124559096703 0.050287570280985627 -0.011199652054753657 -0.00051834109721374472 0.10093512567780671 0.024002961158000338 0.042729093520665409 0.1069655306940776 0.12350592037894062 0.082408492019457269 0.067484936420894037 0.10471703768378843 0.19745390619299433 0.13246365305942401 0.078908629107095285 -0.030781776373088099 0.011441614172970493 -0.050366907620977577 0.099424620865244562 0.065366184426224869 0.059772170554769605 0.13270108769868258 0.10683728017118177 -0.0010141468531213371
leaf_weight=19512.872089579701 1474.4436238855124 4889.9660523533821 1647.9615837708116 5377.1584885120392 2098.2526673227549 1057.0809321552515 10239.279017522931 3408.4450308158994 98673.536994017661 47180.320402272046 3576.9495205208659 5155.9736424982548 2703.9648706540465 874.98370137810707 985.55570077896118 2000.2179683148861 1161.1904550418258 1510.1294082999229 365.07251574099064 1467.3700337558985 1439.5329203978181 18981.79207815975 5995.2037525251508 514.83149476349354 2459.6238948628306 4074.1710269972682 747.5488892942667 1178.1619093865156 44.761171936988831 169.95634340494871
leaf_count=188584 9933 45331 9195 41554 16009 4969 86809 19987 859004 383710 18870 31834 17474 3802 5812 11683 6625 9899 1476 7367 6688 184834 40011 5548 14951 24841 5233 4931 203 1195
internal_value=-0.000242285 -0.01346 0.08909 -0.00690709 -0.00395712 0.112842 -0.00603789 0.0650875 -0.00971789 0.00158786 0.101375 0.0214003 0.0581007 0.138752 0.115755 0.0635433 0.0895182 0.0882177 0.150654 0.144655 0.0946164 -0.0284978 0.0172505 -0.0784374 0.106316 0.0709796 0.0769998 0.121738 0.187581 0.0401388
internal_weight=250966 218619 32347.1 198591 174720 16258.2 161470 16088.9 108913 52557.5 11270.8 13249.4 12356.8 4987.43 5093.14 9482.83 6177.67 3732.12 2934.28 2524.45 5016.48 23871.8 11151.2 20027.7 3445.18 6074.39 2221.99 2053.15 409.834 2873.92
internal_count=2068362 1883228 185134 1689096 1458931 84889 1371077 100245 945813 425264 62141 87854 75180 22748 29958 56511 32183 25065 14015 12336 25558 230165 71845 194132 20763 36524 15166 8733 1679 18669
is_linear=0
shrinkage=0.1


Tree=10
num_leaves=31
num_cat=0
split_feature=3 3 5 3 4 5 5 6 52 58 5 4 7 7 3 0 6 4 6 59 5 6 5 5 7 5 7 6 4 55
split_gain=3639.97 1113.4 421.746 292.028 181.888 165.653 148.64 205.801 142.891 171.39 122.329 118.966 77.9987 75.3969 73.8067 90.2294 115.207 72.2158 67.9276 63.8851 61.071 54.284 53.221 49.8538 44.6729 43.6488 41.9865 41.2271 38.7467 38.2262
threshold=0.69946236559139796 0.63373983739837414 0.083363237639553459 0.7756861365235751 0.077128205128205146 0.072651316937031224 0.17055990876650851 0.076885413177917958 1.5000000000000002 3.5000000000000004 0.033485193621867887 0.062292128603104222 0.55447347480106102 0.55957220286488596 0.97530487804878063 0.026491228070175444 0.0057979671559145905 0.16794871794871799 0.041829004329004334 2.5000000000000004 0.037130650871459704 0.15381037091563413 0.21430986187578485 0.20371665371665373 0.54553977272727283 0.076077666295057619 0.62975344858133131 0.18672477050136627 0.074350469872857941 1.0000000180025095e-35
decision_type=10 8 10 10 10 10 10 10 2 2 10 10 10 10 10 10 10 8 10 2 10 10 10 10 10 10 10 10 10 2
left_child=1 2 4 10 20 8 7 24 29 19 21 22 -9 -6 15 16 -5 -11 23 -10 -1 -2 26 -12 -4 -20 -7 -15 -8 -3
right_child=3 5 6 14 13 11 28 12 9 17 18 -13 -14 27 -16 -17 -18 -19 25 -21 -22 -23 -24 -25 -26 -27 -28 -29 -30 -31
leaf_value=0.13035353262165378 0.020214975890330354 -0.0063788344823951836 0.10239279733059965 -0.017600131999307597 0.083478093285305865 0.046673764186380126 0.010091179145892684 0.04758929833837261 0.025532069433694002 0.031248948807046369 -0.015912477723099991 -0.032786235245702879 0.011392109675143369 0.046072990409900726 -0.074710704383119483 -0.06723757534343712 -0.057308128916423451 0.0032640274455278048 -0.031026173449283635 0.010996712728110671 0.080905351139996307 -0.019874420612642951 -0.030716201052226673 -0.055258784003970635 0.054580231743480007 -0.056994390709531308 0.001981058244586931 0.0028228025117397857 -0.019504120365882213 0.0078344344299358017
leaf_weight=367.17300701141357 521.36873438581824 13586.216306999326 230.54731648787856 1193.2693249285221 522.43330015614629 244.30802844837308 1063.3883033134043 738.6663894020021 4923.9588094688952 938.21512228250504 1542.427819147706 2124.0584324002266 3074.7063622586429 1963.6070932559669 2318.3819722644985 2602.95994720608 1888.2989600300789 54052.883405078202 976.71446782723069 7846.0375634394586 788.89521593973041 958.54230841994286 439.13010444119573 407.49598966166377 1306.0428466573358 1931.6493099704385 1509.9381259605289 248.82216355204582 757.34598145261407 2197.823235720396
leaf_count=5154 9410 278409 2928 29038 7278 3422 14638 9592 88061 15891 24620 31674 44636 29586 62146 49347 41522 993497 16860 143619 11400 16919 5644 5743 18480 30610 23867 3653 9569 41149
internal_value=0.000120944 0.00694663 0.0368464 -0.0469616 0.0633554 0.00318222 0.0224609 0.0308601 0.00416939 0.00616545 -0.0309235 -0.0159178 0.0184063 0.0492907 -0.0596622 -0.0535231 -0.0419353 0.00374167 -0.0385915 0.0166022 0.096619 -0.00574428 0.000412899 -0.0241402 0.0617605 -0.0482769 0.00821096 0.0412134 -0.00221368 -0.0043991
internal_weight=113265 98924.2 11061.6 14341.1 3890.93 87862.6 7170.7 5349.96 83545.1 67761.1 6338.2 4317.43 3813.37 2734.86 8002.91 5684.53 3081.57 54991.1 4858.29 12770 1156.07 1479.91 2193.38 1949.92 1536.59 2908.36 1754.25 2212.43 1820.73 15784
internal_count=2068362 1782147 156914 286215 57071 1625233 99843 75636 1560626 1241068 104162 64607 54228 40517 182053 119907 70560 1009388 77833 231680 16554 26329 32933 30363 21408 47470 27289 33239 24207 319558
is_linear=0
shrinkage=0.1


Tree=11
num_leaves=31
num_cat=0
split_feature=3 7 52 0 10 2 3 10 0 55 10 5 5 1 1 4 9 4 6 10 9 0 1 10 11 6 10 10 59 10
split_gain=30819.2 10731.3 3977.73 1993.98 1496.01 1176.51 907.673 520.989 467.819 446.618 387.579 379.338 374.593 308.845 300.678 306.957 266.992 254.548 248.397 246.659 229.783 198.212 186.424 158.56 142.977 137.228 126.136 112.872 103.661 103.522
threshold=0.84412955465587058 0.86677353879348285 1.5000000000000002 0.070925553319919524 0.90606162843004967 0.60172354552621587 0.97402159244264519 0.9763993316624896 0.21420168067226894 1.0000000180025095e-35 0.90069725596041394 0.13335401157981805 0.020852672292545716 0.22111111111111112 0.049461777573106151 0.017301245210727973 5.5000000000000009 0.0066492152379690082 0.10813735813735816 0.91462463653185322 5.5000000000000009 0.045115332428765274 0.099502015083438769 0.86807933836319418 48.795010131893996 0.099417377213429844 0.86551368952684749 0.95896025151583209 6.5000000000000009 0.90480055658627101
decision_type=8 10 2 10 2 10 10 2 10 2 2 10 10 10 10 10 2 10 10 2 2 10 10 2 2 10 2 2 2 2
left_child=3 2 9 13 20 11 12 16 10 19 25 18 17 21 15 -13 -6 -3 -5 -2 23 26 -12 -4 -9 -7 -1 -16 -21 -20
right_child=1 6 4 5 7 8 -8 24 -10 -11 22 14 -14 -15 27 -17 -18 -19 29 28 -22 -23 -24 -25 -26 -27 -28 -29 -30 -31
leaf_value=-0.030235646157942983 0.023086906324734056 0.078293432658372908 -0.0074421797459589727 -0.040312712507946241 0.0087783258156320845 -0.042481915408030632 0.09026952750848892 0.013556542416933019 -0.060887072000977628 0.0099034086740935594 -0.025891171532170021 -0.063526277061622588 0.032594224302896567 -0.045311735619857553 -0.082697269033346121 -0.0031366576694462794 0.00045582917307352512 0.048400326190829047 -0.078177918841838848 0.036415550681192593 -0.012709284419438742 -0.027067285048050047 -0.040277436183661718 0.0013050529100084298 0.027203538188138306 -0.061264531306855823 -0.0074485191110805777 -0.061120362945054546 0.013697147963199452 -0.055823455254910705
leaf_weight=2837.2447729259729 24693.945285618305 6462.214604049921 37662.000974372029 9784.1199261248112 157766.69894105196 12155.034362703562 13169.94448633492 14708.593925744295 8892.3707876503468 11410.813396424055 26443.540275901556 3492.8411412239075 5110.5299380719662 4341.0564411282539 11753.588212192059 1109.3773436844349 51013.892368525267 5098.7091850787401 3057.6749064326286 45393.982570186257 30984.217465803027 11889.285845309496 13667.744074553251 46071.649365574121 16068.298908784986 5726.4575502276421 16910.024894177914 3059.8064801096916 2102.924196973443 6447.9131726622581
leaf_count=9088 92330 29971 124205 28161 555699 32662 61716 52802 20405 40687 75662 8333 19264 12126 25891 3579 176426 21109 7472 178165 100937 36166 36979 156179 59786 14424 56186 7251 7907 16794
internal_value=0.000249429 0.0126229 0.00866857 -0.0406304 0.00403857 -0.0475581 0.070646 0.00853542 -0.0395278 0.0282888 -0.0362525 -0.0614346 0.0551435 -0.0202982 -0.0713036 -0.0489714 0.00674484 0.0651106 -0.0515006 0.0311948 -0.00535181 -0.0168657 -0.0307935 -0.00262919 0.0206818 -0.0484975 -0.010723 -0.0782411 0.0354099 -0.0630153
internal_weight=609286 467718 437877 141568 354275 105590 29841.4 239557 66885.1 83601.7 57992.8 38705.3 16671.5 35977.6 19415.6 4602.22 208781 11560.9 19289.7 72190.9 114718 31636.6 40111.3 83733.7 30776.9 17881.5 19747.3 14813.4 47496.9 9505.59
internal_count=2068362 1677183 1545123 391179 1226034 277613 132060 844713 180132 319089 159727 97481 70344 113566 45054 11912 732125 51080 52427 278402 381321 101440 112641 280384 112588 47086 65274 33142 186072 24266
is_linear=0
shrinkage=0.1


Tree=12
num_leaves=31
num_cat=0
split_feature=5 5 52 0 5 10 4 57 58 5 1 5 5 0 0 3 0 5 0 3 10 0 10 10 11 5 10 1 4 59
split_gain=30309.8 10713.1 2061.52 1143.72 796.498 548.19 435.702 268.347 194.425 194.056 239.693 157.013 143.912 154.047 142.966 134.646 130.576 130.085 127.669 109.37 105.52 95.3745 95.0449 87.8398 85.6374 83.9096 85.159 77.7046 92.0505 73.4462
threshold=0.11044725990108316 0.023810222856024386 1.5000000000000002 0.21420168067226894 0.069780746101857291 0.90606162843004967 0.0066492152379690082 264.50000000000006 2.5000000000000004 0.13045504274889583 0.043373745819397999 0.052628365786260532 0.010871524168229476 0.023952954675846246 0.16460936323950023 0.5763403263403265 0.38585607940446659 0.25025252525252534 0.1821617906931082 0.57220077220077237 0.99148920759090264 0.17883795309168446 0.88045900229844609 0.92316126855600555 44.430481090652272 0.15585730059414274 0.88045900229844609 0.013029454205924796 0.066352201257861648 9.5000000000000018
decision_type=10 8 2 10 10 2 10 2 2 10 10 8 10 10 10 10 10 10 10 10 2 10 2 2 2 10 2 10 10 2
left_child=1 12 8 6 5 11 20 -7 22 -8 18 -4 -1 -14 -12 16 19 25 -11 -5 21 -2 -3 -6 29 -17 -27 -18 -29 -10
right_child=3 2 4 15 23 7 9 -9 24 10 14 -13 13 -15 -16 17 27 -19 -20 -21 -22 -23 -24 -25 -26 26 -28 28 -30 -31
leaf_value=-0.080262947966844495 0.067034252172372369 -0.018110766602411656 -0.025789315730019937 0.086165279681307036 0.024641760031385577 -0.012122228386730027 0.034919579300498008 -0.0036568842114893009 -0.012603208567827371 0.044388545913767029 0.049873256335092236 0.0029104283970313562 -0.035029019912722385 -0.080084117260211557 0.068049685909581256 0.031379519541636015 0.13964768225642202 0.11669875601222097 0.0021307073005707609 -0.0061446640745932042 -0.00013698509775666743 0.08367704319163223 -0.031444282772421304 0.010572937563280628 -0.0268863948094403 0.11174360013472295 0.087661065357363524 -0.014895218282655576 0.15238891718208875 0.014289727558432606
leaf_weight=20441.571283459663 7699.9130104482174 6454.9779676347971 1957.7089488208294 2253.6009921580553 8236.3505250364542 83544.901887111366 5443.9287223815918 67871.403434053063 6832.7336033135653 2399.571754977107 7278.7669331729412 72436.651289328933 1562.4553668424487 1477.6193436533213 10694.156235292554 230.1812829375267 46.999121695756912 2522.40331338346 1019.0794263333082 135.88985212147236 191.81413024663925 6246.4443885087967 31233.001574382186 9630.9167919903994 3766.6955361068249 1849.7178656756878 7197.2722699791193 312.86859704554081 36.756283238530159 1192.4862834811211
leaf_count=161519 28507 41067 10742 6084 35208 494250 21009 393274 42444 9870 27480 390089 11508 10536 35345 745 103 6057 4801 722 825 20478 214057 43532 24014 4755 20529 1790 76 6840
internal_value=-0.000296846 -0.0122505 -0.00704467 0.0678284 -0.00326587 -0.0048741 0.0592673 -0.00832776 -0.0256543 0.0517812 0.0560718 0.00215505 -0.0772427 -0.0569312 0.0606891 0.0918771 0.0720902 0.0965483 0.0317947 0.0809114 0.073476 0.0744891 -0.0291609 0.0170589 -0.0144461 0.0910685 0.092586 0.0189205 0.00266287 -0.00860588
internal_weight=372199 316639 293158 55559.4 243678 225811 40973.7 151416 49479.9 26835.5 21391.6 74394.4 23481.6 3040.07 17972.9 14585.7 2786.11 11799.6 3418.65 2389.49 14138.2 13946.4 37688 17867.3 11791.9 9277.17 9046.99 396.624 349.625 8025.22
internal_count=2068256 1879080 1695517 189176 1367095 1288355 148315 887524 328422 98505 77496 400831 183563 22044 62825 40861 8775 32086 14671 6806 49810 48985 255124 78740 73298 26029 25284 1969 1866 49284
is_linear=0
shrinkage=0.1


Tree=13
num_leaves=31
num_cat=0
split_feature=6 4 6 59 6 58 1 19 10 5 5 1 5 10 5 6 10 10 6 57 1 10 9 11 10 10 57 10 10 1
split_gain=22244.1 8519.67 1458.44 971.517 493.67 405.439 372.844 348.948 252.171 215.414 113.1 109.032 104.069 79.5846 69.4784 61.4883 54.6104 51.4313 49.979 49.6104 47.7079 46.875 39.6734 45.5415 33.9112 32.6073 30.6969 29.7931 29.1137 30.007
threshold=0.099417377213429844 0.010139824191641394 0.15158175158175161 1.5000000000000002 0.057280195829019269 3.5000000000000004 0.19560019129603065 2.5000000000000004 0.95951726528742476 0.086525415924857282 0.020852672292545716 0.27888888888888896 0.070330467407032457 0.95468420468420478 0.079388422035480868 0.12500584385226746 0.95896025151583209 0.96429940972650219 0.076201441257893673 146.50000000000003 0.14048793859649125 0.98246670045901274 3.5000000000000004 46.543534869912882 0.86989085644281106 0.95727759329178619 159.50000000000003 0.9623278810776672 0.98454990020775313 0.15034246575342466
decision_type=10 8 10 2 10 2 10 2 2 10 10 10 10 2 10 10 2 2 10 2 10 2 2 2 2 2 2 2 2 10
left_child=1 -1 9 19 5 7 10 -5 -7 13 21 14 -6 20 17 -11 -12 -8 -14 -3 -2 24 -13 -24 -4 26 -21 -27 29 -17
right_child=2 3 6 4 12 8 11 -9 -10 15 16 22 18 -15 -16 28 -18 -19 -20 25 -22 -23 23 -25 -26 27 -28 -29 -30 -31
leaf_value=-0.078167845231288599 0.05705412383257992 -0.043372421556238466 0.1120554105880022 0.023037466009160748 0.033426177730367337 -0.0059365763973299717 0.11077387247544704 -0.0012820409414773626 -0.017140457251588175 0.02988372816733971 0.073224321679847812 0.11024540774804775 0.00016773753566735384 0.04334487473534953 0.086289139336712339 0.043758747382176118 0.050231228721990373 0.084077840317118208 0.014576163288201164 -0.020426383486902205 0.073312788787292166 0.041144274642344658 0.15908929427169693 0.10636961928803651 0.087768513048951086 -0.051329053362625915 -0.032509102611295852 -0.02873272314366301 -0.011994345251337423 0.066672118189717841
leaf_weight=18127.66148801893 3755.115244910121 1564.9124857783318 697.71694202721119 7566.088030770421 2332.7181483507156 99764.030957326293 4349.7436608672142 26790.302172876894 25156.223997831345 4580.9769294336438 5309.5063779950142 598.19788332283497 3441.4791398569942 2249.832215167582 2599.2509022802114 2123.0779108852148 1286.462569899857 869.50106199085712 8023.2889446914196 12491.328049443662 3493.0509768947959 190.948301628232 585.91058307886124 229.4756174236536 3369.481024518609 663.18523342162371 2532.6568439826369 4942.7242936193943 77.63794182240963 785.64123848080635
leaf_count=191142 23338 16174 3591 61825 17971 843798 19731 234070 226131 24982 26418 2195 22110 14676 10640 11245 7362 4329 50891 124608 20607 1198 1974 816 18823 7093 25529 50927 486 3576
internal_value=-0.0001565 -0.012589 0.0712549 -0.00650098 -0.003975 -0.00554694 0.0895182 0.0040734 -0.00819287 0.0497581 0.0769496 0.104294 0.0141707 0.0597883 0.0996676 0.0371675 0.0687413 0.106328 0.0102519 -0.026198 0.0648909 0.089662 0.129875 0.144265 0.0919373 -0.0248947 -0.0224639 -0.0314077 0.0483373 0.0499511
internal_weight=250548 213397 37151.5 195269 173074 159277 20086.2 34356.4 124920 17065.3 10854.1 9232.08 13797.5 9498 7818.5 7567.33 6595.97 5219.24 11464.8 22194.8 7248.17 4258.15 1413.58 815.386 4067.2 20629.9 15024 5605.91 2986.36 2908.72
internal_count=2068256 1872269 195987 1681127 1456796 1365824 97077 295895 1069929 98910 57392 39685 90972 58621 34700 40289 33780 24060 73001 224331 43945 23612 4985 2790 22414 208157 150137 58020 15307 14821
is_linear=0
shrinkage=0.1


Tree=14
num_leaves=31
num_cat=0
split_feature=3 3 5 3 5 10 4 5 4 5 4 4 6 3 5 6 52 58 2 5 57 5 6 6 5 5 7 5 7 4
split_gain=3153.4 760.643 330.148 271.883 171.814 147.584 147.029 130.638 122.97 117.945 90.5357 89.473 82.7922 74.1311 97.4346 128.098 72.1227 74.811 52.3849 50.6708 46.7856 46.1628 45.2299 41.2691 35.3013 34.704 33.9176 32.9593 30.7239 27.8879
threshold=0.69946236559139796 0.63373983739837414 0.069131809051163909 0.7756861365235751 0.058786764705882365 0.90606162843004967 0.1181455633100698 0.20716117216117222 0.016651263093037588 0.051298920377867756 0.062292128603104222 0.051503094606542892 0.062126302919968589 0.97530487804878063 0.022698845869577582 0.011379823879823881 1.5000000000000002 3.5000000000000004 0.50362318840579723 0.21714078223882149 149.50000000000003 0.20001628001628005 0.18672477050136627 0.15158175158175161 0.076854395604395623 0.15297480297480301 0.62628731600694232 0.17645644796380092 0.66072751322751333 0.15034246575342466
decision_type=10 8 10 10 10 2 10 10 10 10 10 10 10 10 10 10 2 2 10 10 2 10 10 10 10 10 10 10 8 10
left_child=1 2 11 9 5 20 7 8 -4 23 19 -1 21 14 15 -5 -7 -18 -13 26 -3 -11 -20 -2 -14 -8 -6 29 -22 -12
right_child=3 4 6 13 10 16 25 -9 -10 12 27 18 24 -15 -16 -17 17 -19 22 -21 28 -23 -24 -25 -26 -27 -28 -29 -30 -31
leaf_value=0.10262499752971066 0.0097129066988184548 0.019211746114212863 0.062817484830480691 -0.01453599158135708 0.040872724090428116 -0.0060600798381256829 0.0023837989997634343 -0.0094573323171816166 0.025689337355218656 -0.018815768135645394 -0.014349888463244151 0.097724309141912602 -0.032550680246246834 -0.074321068771318374 -0.066910370934714705 -0.056955216082349075 0.011390956579156907 0.0010405238504299205 0.053437978058639674 -0.032194961731300292 0.054502514081197197 -0.054468097158178845 0.010809694512364668 -0.020685184626124918 -0.061640402792985938 -0.03096112156067142 0.00089299654616757445 -0.05258897621610209 0.0080078090358768478 -0.039160062809751199
leaf_weight=421.6447971239686 740.05261072516441 4802.2717801369727 1076.1882551684976 1200.4851738847792 245.61813538521528 10891.280907031149 1265.8549102172256 862.57518672570586 5229.8257178738713 1873.978885922581 1283.5724367387593 232.93302518129349 586.12828121706843 2031.9028597213328 2381.9689168594778 1751.8363975435495 8612.6548019088805 36923.334552560002 1870.3389939777553 420.91068577766418 143.13566914945841 451.10051773861051 287.81062106788158 1125.1771278120577 1462.4475423805416 414.07865869998932 1563.9094579070807 470.49609200283885 21786.710662916303 702.01201922446489
leaf_count=5192 13209 85692 13231 31329 3183 230175 16552 11455 71570 30469 19913 2977 10044 61984 48043 40587 157346 693720 26430 5468 2285 6549 4147 20095 23840 5329 24285 6540 385778 10839
internal_value=0.000111279 0.00628525 0.030282 -0.0450442 0.00309964 0.00414961 0.0207937 0.0270341 0.0320272 -0.0296803 -0.0155293 0.0601277 -0.03866 -0.0580555 -0.0518579 -0.0397099 0.00124982 0.00299842 0.0526295 -0.000939526 0.0102702 -0.0257372 0.0477577 -0.00861901 -0.0533223 -0.00582928 0.00632521 -0.0287747 0.00831174 -0.0231267
internal_weight=113112 99507.2 11661.3 13605.1 87845.9 83159.4 8848.52 7168.59 6306.01 6238.88 4686.52 2812.73 4373.66 7366.19 5334.29 2952.32 56427.3 45536 2391.08 2230.44 26732.1 2325.08 2158.15 1865.23 2048.58 1679.93 1809.53 2456.08 21929.8 1985.58
internal_count=2068256 1782107 156883 286149 1625224 1554996 118137 96256 84801 104206 70228 38746 70902 181943 119959 71916 1081241 851066 33554 32936 473755 37018 30577 33304 33884 21881 27468 37292 388063 30752
is_linear=0
shrinkage=0.1


Tree=15
num_leaves=31
num_cat=0
split_feature=3 5 52 0 10 4 2 10 10 10 10 0 11 1 1 10 0 1 5 59 0 10 6 11 59 6 52 3 10 57
split_gain=22365.7 8995.49 3074.27 1478.92 1123.88 916.553 905.574 459.981 364.34 333.945 308.076 285.842 257.858 220.65 216.158 198.673 192.31 166.776 157.377 151.178 147.972 146.135 144.751 144.508 142.481 118.375 112.866 101.201 96.1668 93.9556
threshold=0.84731934731934744 0.02941261118503696 1.5000000000000002 0.070925553319919524 0.90606162843004967 1.0000000180025095e-35 0.60217656109757678 0.95951726528742476 0.95951726528742476 0.91462463653185322 0.95468420468420478 0.21420168067226894 46.313102118669484 0.19560019129603065 0.099502015083438769 0.8654408457040037 0.17521929824561405 0.071946169772256749 0.10268738762637429 6.5000000000000009 0.045115332428765274 0.99205899035734546 0.052637907901065796 23.192861307252432 1.5000000000000002 0.076201441257893673 1.0000000180025095e-35 0.98213716108452964 0.71241438356164399 147.50000000000003
decision_type=8 8 2 10 2 10 10 2 2 2 2 10 2 10 10 2 10 10 8 2 10 2 10 2 2 10 2 10 2 2
left_child=3 5 9 13 15 27 10 18 11 24 16 14 -9 20 -8 28 22 -18 -6 -11 -1 -10 -5 -17 29 -7 -26 -2 -4 -3
right_child=1 2 4 6 7 25 8 12 21 19 -12 -13 -14 -15 -16 23 17 -19 -20 -21 -22 -23 -24 -25 26 -27 -28 -29 -30 -31
leaf_value=-0.0068102928565574915 0.072091982028635621 0.047641602354318885 0.0090284030838246702 -0.0290176069464829 0.032746289178621067 0.043496459542748944 -0.028590353056567937 0.0082189879572339922 -0.020846652732232039 0.031464543646025731 -0.035711653291092618 -0.054483085764978227 0.020204532460725639 -0.031477928487509049 -0.042721603204747216 0.0080510790596901582 -0.05115412839317475 -0.075256817093561398 0.0044212438873631734 0.011422668571630368 -0.021411877450720294 0.019514116753989591 -0.053638900403836544 -0.0032500295494650791 0.02924541916711736 0.0053638975132820161 0.0016438144696387131 0.087633890349697943 -0.010121682232207607 0.019702134697857296
leaf_weight=17812.599221870303 6705.1505202353001 1292.5351430624723 2773.8782083690166 2807.2072350382805 1985.2835818827152 5484.4571336209774 31637.438651293516 35217.042847380042 12615.213421911001 49007.341783180833 9487.8743190765381 7447.3062308430672 36618.354242444038 7756.3358151912689 16462.078604191542 14583.162441536784 4635.2689882218838 7557.3524070382118 164915.399507761 4078.5004079639912 11373.878056779504 965.50876653194427 16056.850763052702 50485.203494176269 1818.702637642622 956.69574710726738 7994.8601090312004 11215.921531632543 47826.065874934196 17612.718559935689
leaf_count=58905 33737 5131 9301 8060 7629 23971 85484 125971 34867 197312 24365 16179 135027 21818 41549 49519 10817 15201 580869 15205 34094 2911 40180 168835 6985 3342 28805 58683 155868 67636
internal_value=0.000225811 0.0110544 0.00775163 -0.0337907 0.00371827 0.0701906 -0.0396198 0.00763805 -0.0326603 0.0252253 -0.0514854 -0.0362502 0.0143288 -0.0164854 -0.033427 -0.00437194 -0.056304 -0.0660945 0.00475823 0.0299249 -0.0125008 -0.0179765 -0.0499755 -0.000717064 0.0165378 0.0378342 0.00676011 0.0818195 -0.00907168 0.0216129
internal_weight=607186 460571 436209 146615 354404 24362.2 109672 238736 69127.5 81804.7 40544.6 55546.8 71835.4 36942.8 48099.5 115668 31056.7 12192.6 166901 53085.8 29186.5 13580.7 18864.1 65068.4 28718.8 6441.15 9813.56 17921.1 50599.9 18905.3
internal_count=2068256 1673826 1554093 394430 1233019 119733 279613 849496 180990 321074 98623 143212 260998 114817 127033 383523 74258 26018 588498 212517 92999 37778 48240 218354 108557 27313 35790 92420 165169 72767
is_linear=0
shrinkage=0.1


Tree=16
num_leaves=31
num_cat=0
split_feature=5 5 52 0 5 10 57 4 58 5 0 8 1 0 8 0 4 5 3 0 0 10 10 10 5 2 5 9 4 4
split_gain=22536.6 9699.62 1660.53 689.209 673.473 511.128 310.647 280.097 187.75 154.288 154.411 154.056 145.984 160.575 106.312 102.995 104.768 98.6329 92.6148 104.123 97.2718 79.9671 73.7811 71.5409 68.089 67.9127 66.0391 63.3536 61.8586 71.9501
threshold=0.11540303566165637 0.023810222856024386 1.5000000000000002 0.21420168067226894 0.083328020740362982 0.95727759329178619 285.50000000000006 0.0066492152379690082 2.5000000000000004 0.010871524168229476 0.023952954675846246 7.5000000000000009 0.043373745819397999 0.16460936323950023 8.5000000000000018 0.1821617906931082 0.034602490421455946 0.055159569642668396 0.58306292107052371 0.28869047619047622 0.38585607940446659 0.97076972734867484 0.86250147024229606 0.92316126855600555 0.1600137362637363 0.57161854103343479 0.18893849206349209 5.5000000000000009 0.013029454205924796 0.066352201257861648
decision_type=10 8 2 10 10 2 2 10 2 10 10 2 10 10 2 10 10 10 10 10 10 2 2 2 10 10 10 2 10 10
left_child=1 9 8 7 5 6 -4 14 22 -1 -11 -7 15 21 -2 -9 -17 -10 20 -20 25 -14 -3 -6 -16 -5 -21 -15 -22 -30
right_child=3 2 4 18 23 11 -8 12 17 10 -12 -13 13 27 24 16 -18 -19 19 26 28 -23 -24 -25 -26 -27 -28 -29 29 -31
leaf_value=-0.079045502563326875 0.051846257259456366 -0.014107672227090693 -0.0047357290887893788 0.071141580632153562 0.02515314065990263 -0.019784495838170317 0.0039142207090269773 0.036796959601170486 -0.014941196236459077 -0.031591812997198689 -0.078297919375444336 -0.0085791412467602721 0.041853698695367078 0.051525644880275862 0.056274121162164653 0.070478443030758703 -0.014906490188978489 0.017167505793420499 0.074970691898533823 -0.0038957084159526086 0.11260288410100293 0.013146818592170609 -0.028269170806384872 0.011311671931254624 0.075233796063163383 0.0015136515420894352 0.10016058485924928 0.068263919250483265 -0.016965462009360281 0.12512888088863128
leaf_weight=18610.716153055429 6016.2979931533337 4158.3588495403528 111681.97794319689 2453.9844727069139 7014.739609926939 19540.372964441776 66085.065174676478 2601.3634242117405 10549.629820398986 1476.4874009266496 1361.4867810532451 32988.742698229849 9584.0546994656324 8656.0980562567711 2796.4381953328848 172.67939712107182 856.31413689255714 1051.830393075943 9982.5598273873329 62.332013621926308 55.703740000724792 1080.8617662638426 32113.697418212891 7993.004277035594 5907.6219251453876 148.87477754056454 2491.236888423562 3068.1703628450632 312.93897627294064 40.213429093360901
leaf_count=161573 20344 27045 631672 6209 28096 119237 364567 10273 68503 11503 10501 197845 34448 27392 9853 691 4082 4908 26148 205 115 4358 228342 34389 18435 743 5431 9241 1764 76
internal_value=-0.000391336 -0.0108173 -0.00606816 0.0578857 -0.00274341 -0.00408103 -0.00152005 0.0510491 -0.023104 -0.0757324 -0.0540021 -0.0127476 0.044811 0.0478278 0.0620747 0.0262034 -0.000567995 -0.0120292 0.075799 0.0795844 0.0600391 0.0389453 -0.0266459 0.017782 0.0691436 0.0671629 0.0976167 0.0559068 0.0146631 -0.000756877
internal_weight=370914 314626 293177 56287.7 245304 230296 177767 40739.9 47873.5 21448.7 2837.97 52529.1 26019.5 22389.2 14720.4 3630.36 1028.99 11601.5 15547.8 12536.1 3011.72 10664.9 36272.1 15007.7 8704.06 2602.86 2553.57 11724.3 408.856 353.152
internal_count=2067989 1888181 1704604 179808 1375806 1313321 996239 139117 328798 183577 22004 317082 90485 75439 48632 15046 4773 73411 40691 31784 8907 38806 255387 62485 28288 6952 5636 36633 1955 1840
is_linear=0
shrinkage=0.1


Tree=17
num_leaves=31
num_cat=0
split_feature=6 4 1 59 6 58 52 5 10 1 5 5 1 6 6 10 59 10 10 5 10 10 10 10 10 1 11 5 11 10
split_gain=16893.1 7860.78 1031.74 779.68 374.081 351.648 312.034 216.268 210.821 195.332 142.406 110.797 83.3675 62.65 59.0745 56.85 44.4308 42.8298 37.7394 37.1636 34.7627 34.3428 33.362 32.535 29.9397 29.6866 26.1395 24.2497 24.0414 22.3452
threshold=0.099417377213429844 0.010139824191641394 0.16552511415525115 1.5000000000000002 0.054973832402900651 3.5000000000000004 1.5000000000000002 0.027794399802435369 0.90324460485750813 0.26393188854489169 0.040032051282051291 0.034423002634651534 0.14226190476190478 0.076201441257893673 0.13793987621573833 0.90606162843004967 1.0000000180025095e-35 0.97438325563325578 0.96429940972650219 0.097886353412669214 0.99345034246575359 0.95324370115319457 0.97076972734867484 0.97507516481924228 0.98661460737270212 0.37412587412587422 23.863068880870937 0.16499572842856428 49.182736889374461 0.95468420468420478
decision_type=10 8 10 2 10 2 2 10 2 10 10 10 10 10 10 2 2 2 2 10 2 2 2 2 2 10 2 10 2 2
left_child=1 -1 7 16 5 6 -5 20 -7 10 15 -6 18 -13 -12 26 22 -16 19 -9 29 25 -3 27 -17 -11 -4 -14 -20 -2
right_child=2 3 9 4 11 8 -8 12 -10 21 14 13 23 -15 17 24 -18 -19 28 -21 -22 -23 -24 -25 -26 -27 -28 -29 -30 -31
leaf_value=-0.07747232631201996 0.066252109140323936 -0.020596543857057687 0.07807693792154069 -0.015624103166680784 0.041763047205652139 -0.0013189672713472443 0.0086261760862832212 0.041737663479737966 -0.010243617047941118 0.10722567283494677 0.033907631125934777 -0.00071292207612193195 0.049911356649951631 0.013839304171121815 0.068241912538145891 0.077744716006699729 -0.038369050888801673 0.043181661668859235 0.027346274225448188 0.027273729695893957 -0.028412474666459814 0.082173485874217231 -0.032076521771585223 0.02153379429880059 0.038244680238061157 0.16379830239504312 0.100456493100738 0.023884882040565984 0.00081576659532098706 0.050389710246670466
leaf_weight=16600.186985425651 3807.752226524055 16438.317926704884 726.94575880467892 6559.6449333354831 1131.6999848634005 38503.239719115198 27760.23090788722 3428.7008220404387 84702.844946146011 1624.4293133616447 611.48469101637602 4343.3860955685377 5696.9076610133052 9269.4967796504498 7979.7740658670664 5132.7313635721803 1907.550803810358 748.23462709784508 820.63727562874556 3700.4123393893242 42.234620444476604 574.73518894612789 2996.9948726221919 493.44496142119169 200.39752700924873 99.151301488280296 1898.5966867506504 383.62172544002533 586.44082213193178 1166.6552317664027
leaf_count=191039 22107 171321 3283 61335 9710 311397 234427 19467 753893 5269 2818 28218 29499 57606 33726 24679 20596 3678 4854 19073 282 2047 32542 3033 1118 282 8196 1645 3670 7179
internal_value=-0.000129859 -0.0114313 0.0596765 -0.00576896 -0.00353526 -0.00496097 0.00399087 0.0437728 -0.00745465 0.07601 0.0723689 0.0116958 0.0377983 0.00919547 0.0639884 0.0822023 -0.023798 0.0660947 0.0312762 0.0342315 0.0617662 0.10341 -0.0223673 0.0462656 0.0762623 0.110486 0.094264 0.048271 0.016296 0.0625339
internal_weight=249937 210214 39723.3 193613 172271 157526 34319.9 20126.8 123206 19596.5 17298.2 14744.6 15110.2 13612.9 9339.49 7958.67 21342.9 8728.01 8536.19 7129.11 5016.64 2298.32 19435.3 6573.97 5333.13 1723.58 2625.54 6080.53 1407.08 4974.41
internal_count=2067989 1872084 195905 1681045 1456586 1361052 295762 110809 1065290 85096 77498 95534 81241 85824 40222 37276 224459 37404 47064 38540 29568 7598 203863 34177 25797 5551 11479 31144 8524 29286
is_linear=0
shrinkage=0.1


Tree=18
num_leaves=31
num_cat=0
split_feature=7 5 4 3 3 7 10 0 6 57 1 6 3 0 4 5 4 5 5 2 6 5 5 4 10 6 5 7 6 8
split_gain=2779.05 611.359 299.073 236.277 168.031 138.289 124.24 118.368 110.651 75.3285 73.3772 72.4803 71.549 103.342 131.172 65.2031 62.7919 57.8152 53.3299 48.2433 45.4693 44.2882 43.9562 43.2257 42.0572 38.5983 33.6125 31.2548 31.0787 23.2564
threshold=0.68423001141047157 0.10268738762637429 0.077128205128205146 0.7756861365235751 0.63373983739837414 0.607173243659347 0.95468420468420478 0.047247023809523815 0.066450207323072608 101.50000000000001 0.062292128603104222 0.16001422475106689 0.97765293383270924 0.026491228070175444 1.0000000180025095e-35 0.034537553372195468 0.067041198501872665 0.034537553372195468 0.22221250971250978 0.57161854103343479 0.18906499846902328 0.20371665371665373 0.05002415458937199 0.069136223967224325 0.99205899035734546 0.19873397435897439 0.073825611325611343 0.57895358964787869 0.15626810445889397 11.500000000000002
decision_type=10 8 10 10 10 10 2 10 10 2 10 10 10 10 10 10 8 10 10 10 10 10 10 8 2 10 10 10 10 2
left_child=1 2 19 7 6 15 9 28 18 -3 21 17 13 14 -5 20 -11 -7 27 29 -4 -9 -13 -8 -25 -17 -12 -6 -2 -1
right_child=3 4 5 12 8 11 23 10 -10 16 26 22 -14 -15 -16 25 -18 -19 -20 -21 -22 -23 -24 24 -26 -27 -28 -29 -30 -31
leaf_value=0.070922272957869806 0.0069363356594513634 0.023055485978112106 0.078542873106271921 -0.010592542955373737 0.10332864491690785 0.056753010900463169 0.025243318260255294 -0.019310428644304645 -0.036641125542254183 0.024346589009197048 -0.033208291144763626 0.0069647545344370902 -0.07368393750398998 -0.065994620639330731 -0.055310246413970227 0.033974222344916927 0.0052884379319231845 0.01296087582454169 -0.03229417064914275 0.054023798499728305 0.028488179270729486 -0.062310499947564817 -0.029502872831198537 -0.0018121392370738653 -0.020638932260818317 -0.0052962345748597244 -0.059166544019212758 0.0048351681353568489 -0.020532799290641571 0.10838287479390672
leaf_weight=389.00978532806039 852.45837158337235 2643.7001073844731 544.21192248910666 1107.9970545917749 32.922236993908882 346.9134156703949 558.62267543002963 1917.0022856034338 1655.223140809685 1779.1615658923984 753.85181181505322 713.1921817176044 1767.3118320014328 2272.5635129623115 1610.1001701746136 1769.307718500495 61462.775906153023 2313.0364174991846 445.42261669039726 1277.5194241777062 273.38870766758919 274.07466961815953 615.49773481488228 19855.464019779116 1262.156776510179 291.02450020611286 1487.6937222220004 1538.3581256754696 796.31098978966475 292.51996422186494
leaf_count=4468 15202 47107 7114 30896 400 5599 7422 31570 24343 21893 13197 11481 61403 48827 40179 23021 1117228 33652 6094 16110 3747 4247 9603 386737 26195 3684 25424 23277 14503 3366
internal_value=0.000287824 0.00590804 0.03104 -0.0435107 0.00347676 0.0212053 0.00435568 -0.029207 -0.0174796 0.0065163 -0.0377162 0.00914738 -0.056381 -0.0502516 -0.0370853 0.0379133 0.00582475 0.0186761 -0.00174767 0.0655063 0.0618179 -0.0246937 -0.00992086 -0.00221113 -0.00293785 0.0284224 -0.050441 0.00690522 -0.00632445 0.0870154
internal_weight=112899 100059 8825.62 12839.4 91233.8 6866.57 87561.9 6081.39 3671.93 65885.6 4432.62 3988.64 6757.97 4990.66 2718.1 2877.93 63241.9 2659.95 2016.7 1959.05 817.601 2191.08 1328.69 21676.2 21117.6 2060.33 2241.55 1571.28 1648.77 681.53
internal_count=2067989 1782541 121845 285448 1660696 97901 1606582 104143 54114 1186228 74438 60335 181305 119902 71075 37566 1139121 39251 29771 23944 10861 35817 21084 420354 412932 26705 38621 23677 29705 7834
is_linear=0
shrinkage=0.1


Tree=19
num_leaves=31
num_cat=0
split_feature=3 5 52 0 10 4 1 5 10 55 10 10 0 9 10 10 2 1 10 1 4 0 10 11 6 3 10 19 0 2
split_gain=16110.7 7490.59 2451.19 1068.45 902.66 888.113 652.62 405.99 399.665 337.104 251.424 236.235 236.188 217.228 197.117 180.878 176.646 228.653 157.957 147.322 130.34 144.696 123.883 123.1 108.879 106.192 101.859 98.6918 88.6398 88.4064
threshold=0.84731934731934744 0.02941261118503696 1.5000000000000002 0.086734446025191717 0.90606162843004967 1.0000000180025095e-35 0.062292128603104222 0.16131781524926689 0.9763993316624896 1.0000000180025095e-35 0.97402548725637195 0.95468420468420478 0.22086720867208673 5.5000000000000009 0.91462463653185322 0.8654408457040037 0.70380715911442182 0.099502015083438769 0.99205899035734546 0.1856158484065461 0.017301245210727973 0.30179316096747294 0.95468420468420478 23.192861307252432 0.068217893217893233 0.98213716108452964 0.90069725596041394 4.5000000000000009 0.058786764705882358 0.58370206489675536
decision_type=8 8 2 10 2 10 10 10 2 2 2 2 10 2 2 2 10 10 2 10 10 10 2 2 10 10 2 2 10 10
left_child=3 5 9 10 15 25 12 11 13 14 16 19 22 -6 -3 -4 17 -1 -10 -8 -14 -22 -5 -17 -7 -2 -9 -16 -18 -19
right_child=1 2 4 6 8 24 7 26 18 -11 -12 -13 20 -15 27 23 28 29 -20 -21 21 -23 -24 -25 -26 -27 -28 -29 -30 -31
leaf_value=-0.0091472759421885094 0.068029967287738219 0.017779820774950595 -0.0085832198924081886 -0.02378007924512943 0.0069264094733992232 0.039600332198919466 -0.036140455479349708 -0.06303981533569683 0.01404637524833802 0.0063905963304060915 0.0050128549846878197 -0.020885688578396427 -0.043967254755343813 -0.00060512746801438854 0.025122812575680456 0.0074815802310894755 -0.0059663011335126075 -0.040421122608088583 0.033000400285815738 -0.054958048070603463 -0.045723642066042673 0.017832503630549282 -0.0088189529209053343 -0.0029592941617885235 0.0032637380878185376 0.084762288805459662 -0.047715433483675844 0.034664415797210656 -0.024694306040192862 -0.025125005025291594
leaf_weight=8511.4648310244083 6113.5282272696495 23799.946884781122 50944.798855513334 23430.466073513031 156141.75636702776 5191.3715735524893 24440.366062551737 6312.0903776884079 24691.624934211373 11154.802090659738 4906.4071026593447 9069.2113216817379 7531.0812659561634 50736.91330294311 26407.520876064897 14538.302347958088 11927.967620491982 4805.7147877663374 5350.7867750972509 5017.1980255246162 658.65454214811325 785.03813070058823 7249.2692477703094 50575.23067997396 981.0726587921381 10031.640228182077 13910.507910102606 18407.137044638395 3207.5525442957878 17730.941462367773
leaf_count=26696 33673 92907 165412 61484 558613 23903 61480 12795 92389 40748 15550 24174 16041 177516 110090 49529 37566 13170 20614 11169 1462 2637 20496 168757 3465 58723 30322 77319 8630 50659
internal_value=0.000240032 0.00959652 0.00668292 -0.0282415 0.0031051 0.0660922 -0.0343331 -0.041024 0.00664447 0.0225146 -0.0165083 -0.0350005 -0.0244201 0.00507925 0.0251358 -0.00412007 -0.0187948 -0.0231131 0.0174226 -0.0393458 -0.0386904 -0.0111567 -0.0202453 -0.000627942 0.0338265 0.078427 -0.0524991 0.0290421 -0.00993584 -0.0283872
internal_weight=604560 455066 432749 149494 352979 22317.6 98403.9 58749.4 236921 79769.4 51090 38526.8 39654.5 206879 68614.6 116058 46183.6 31048.1 30042.4 29457.6 8974.77 1443.69 30679.7 65113.5 6172.44 16145.2 20222.6 44814.7 15135.5 22536.7
internal_count=2067989 1673658 1553894 394331 1232830 119764 242060 139940 849132 321064 152271 96823 102120 736129 280316 383698 136721 90525 113003 72649 20140 4099 81980 218286 27368 92396 43117 187409 46196 63829
is_linear=0
shrinkage=0.1


Tree=20
num_leaves=31
num_cat=0
split_feature=5 5 52 0 5 0 10 4 1 5 0 58 10 9 0 36 2 5 0 11 10 11 5 10 10 59 8 4 5 8
split_gain=17210.6 8771.94 1268.1 505.643 484.61 537.792 364.459 168.115 502.319 159.086 158.349 147.495 130.823 111.5 106.728 102.164 93.4464 81.6088 112.771 74.4785 70.5236 69.9619 63.111 64.9704 61.0314 60.6936 59.8102 53.8516 53.3832 50.948
threshold=0.11540303566165637 0.023810222856024386 1.5000000000000002 0.17883795309168446 0.06213405238828968 0.068833903658857609 0.95727759329178619 0.0066492152379690082 0.045115332428765274 0.011396103896103899 0.023952954675846246 2.5000000000000004 0.99205899035734546 5.5000000000000009 0.33215962441314556 16.500000000000004 0.68449656750572097 0.089298282362798506 0.14909495077802479 42.873965348592385 0.90606162843004967 44.430481090652272 0.14274097039001757 0.90324460485750813 0.92316126855600555 9.5000000000000018 6.5000000000000009 0.011781396496422404 0.055603864734299534 8.5000000000000018
decision_type=10 8 2 10 10 10 2 10 10 10 10 2 2 2 10 2 10 10 10 2 2 2 10 2 2 2 2 10 10 2
left_child=1 9 11 12 5 6 -4 14 16 -1 -11 15 13 26 20 19 -9 18 -6 -3 -5 25 -10 -24 -19 -13 -2 -15 -7 -22
right_child=3 2 4 7 17 28 -8 8 22 10 -12 21 -14 27 -16 -17 -18 24 -20 -21 29 -23 23 -25 -26 -27 -28 -29 -30 -31
leaf_value=-0.077996603936402439 0.027642149923696364 -0.020953461223010374 -0.0014924720695676614 0.072238450091520343 0.0068288162122991936 -0.078983474546481039 -0.011267236237449435 -0.0087172528283068883 0.021972980992615132 -0.027242096114547115 -0.077429027460934885 -0.0091383186360068491 -0.022435239416853554 0.064074567139261615 0.093046923710879997 0.0026780996358879332 0.057337544370612642 0.024817067768879833 -0.055247981928636516 -0.030509382316879025 0.048878907602936575 -0.022268892128857246 0.068179808522032065 0.053300991191347513 0.009927569826979659 0.015412383612165466 0.039647542698109058 0.044909566717729436 -0.030340469506227 0.063590300882010453
leaf_weight=17093.150566503406 5926.7229135483503 19666.64681456238 168737.28605804592 4973.7520379424095 13989.747869089246 1012.373752169311 49287.88926525414 1540.2538816481829 505.01793473958969 1324.5331322923303 1198.1672526672482 6616.0736301317811 341.15714453160763 2127.9779077619314 1244.843209400773 1396.4578178972006 248.75361429154873 5229.5309606343508 298.86727857589722 13951.446699857712 3981.2209286987782 3591.8056317046285 4299.6521372199059 9297.6475104987621 5819.7968915104866 1187.4918338730931 13896.492380172014 4742.9573964327574 291.26407000422478 5791.7711886912584
leaf_count=162934 20826 141608 955781 12456 63176 5478 304901 7445 1502 10798 10034 42557 1442 6744 2532 9920 921 19731 1647 104005 11400 24057 10555 24994 24031 6825 47341 15802 1412 15819
internal_value=-0.000412287 -0.00980923 -0.00544722 0.0491403 -0.00257249 -0.0040852 -0.00370225 0.0576716 0.0503845 -0.0745358 -0.0510826 -0.0206022 0.0390788 0.0398654 0.0649125 -0.0238185 0.000461786 0.0105214 0.00552969 -0.0249194 0.0625368 -0.0107187 0.0567169 0.0580066 0.0169755 -0.00540108 0.0360587 0.0508466 -0.0681231 0.0575983
internal_weight=369611 310693 291077 58918.2 244667 219329 218025 31882.9 15891.3 19615.9 2522.7 46409.9 27035.3 26694.2 15991.6 35014.6 1789.01 25337.9 14288.6 33618.1 14746.7 11395.4 14102.3 13597.3 11049.3 7803.57 19823.2 6870.94 1303.64 9772.99
internal_count=2068674 1888895 1705129 179779 1376157 1267572 1260682 87624 45417 183766 20832 328972 92155 90713 42207 255533 8366 108585 64823 245613 39675 73439 37051 35549 43762 49382 68167 22546 6890 27219
is_linear=0
shrinkage=0.1


Tree=21
num_leaves=31
num_cat=0
split_feature=6 4 52 1 6 58 19 10 1 5 5 5 9 1 10 10 10 5 1 10 57 6 10 9 10 10 10 10 10 0
split_gain=13004.4 7297.75 635.763 583.924 373.402 342.912 275.574 180.744 148.746 128.888 101.031 96.3781 61.1104 45.0634 41.0606 40.3731 37.9884 37.5028 36.6154 30.6353 28.7716 28.7119 27.1395 25.9551 23.685 22.2904 21.5014 21.4117 21.339 20.7906
threshold=0.10528423160002108 0.0088107436733426501 1.0000000180025095e-35 0.16552511415525115 0.057280195829019269 3.5000000000000004 2.5000000000000004 0.95468420468420478 0.22792207792207794 0.079998991024706145 0.043416760643651409 0.058786764705882365 4.5000000000000009 0.082127976763169477 0.88045900229844609 0.90480055658627101 0.95468420468420478 0.017335676365456614 0.31414473684210531 0.97258117193228955 162.50000000000003 0.13514235389235393 0.98289134761737518 4.5000000000000009 0.99493927125506088 0.98661460737270212 0.88382475083056489 0.80717849670046693 0.89731434751261729 0.10502563214802259
decision_type=10 8 2 10 10 2 2 2 10 10 10 10 2 10 2 2 2 10 10 2 2 10 2 2 2 2 2 2 2 10
left_child=1 -1 14 9 5 6 -4 -7 10 12 15 -6 16 -13 -3 -5 29 -14 23 21 26 -12 -17 -10 -18 -11 -16 -20 -19 -2
right_child=3 2 4 8 11 7 -8 -9 18 25 19 13 17 -15 20 22 24 28 27 -21 -22 -23 -24 -25 -26 -27 -28 -29 -30 -31
leaf_value=-0.077025057339983355 0.043146023083755813 -0.011540783203729196 0.021256966107238245 0.078010161239279507 0.032719711142215877 -0.0048103655158980409 -0.00044848484961366048 -0.013798285807363904 0.068720186466521213 0.029181912107333313 0.028709871528281906 0.00065856432040318266 0.065514447808800155 0.012354917968800186 -0.055088807670262363 0.064386905856436014 0.028619561965263524 0.060265638368680263 0.17878435289112543 0.033612812435333324 -0.031630287247514675 0.055305924438905543 0.033500173030294116 0.085621746357154388 -0.049192136150069461 -0.012792191205512336 -0.020877013345925569 0.09606234292413951 0.041904537652652007 0.096288266730378894
leaf_weight=15166.777350045741 5326.7901023626328 3600.2211303412914 7565.0089191868901 2534.2944763749838 1848.322786912322 93714.810119427741 25786.740338295698 29393.994422219694 2214.6775455027819 6602.906293079257 431.31781362742186 4909.4713252037764 1853.4554676711559 10022.025678113103 186.4777050614357 4851.601982653141 1681.0639562830329 908.80884988605976 32.980573534965515 832.04798075556755 3338.6195701658726 7356.7697137594223 303.68507142364979 1555.9621389955282 39.957793474197388 128.65556169301271 14235.057340651751 744.35849159955978 2116.2023891806602 74.970005646348
leaf_count=190478 28664 36336 60522 10475 13764 801110 226600 272649 7736 31979 1855 31849 9825 58309 1999 22210 10038 4552 85 3978 36237 29516 1671 5128 285 798 155981 2127 11549 369
internal_value=-0.000292426 -0.0102136 -0.00500637 0.0522738 -0.00299927 -0.0045197 0.00447455 -0.00695644 0.0637839 0.0394575 0.0593221 0.0111772 0.0456711 0.00850983 -0.0212842 0.0676596 0.0397603 0.0542991 0.0797824 0.0518836 -0.0232588 0.0538343 0.0625694 0.0756973 0.0268072 0.0283782 -0.0213201 0.0995849 0.0474241 0.0438854
internal_weight=249358 209768 194601 39590.5 173240 156461 33351.7 123109 20857.7 18732.8 16309.7 16779.8 12001.2 14931.5 21360.4 7689.58 7122.78 4878.47 4547.98 8620.14 17760.2 7788.09 5155.29 3770.64 1721.02 6731.56 14421.5 777.339 3025.01 5401.76
internal_count=2068674 1885834 1695356 182840 1464803 1360881 287122 1073759 84781 98059 69705 103922 65282 90158 230553 34356 39356 25926 15076 35349 194217 31371 23881 12864 10323 32777 157980 2212 16101 29033
is_linear=0
shrinkage=0.1


Tree=22
num_leaves=31
num_cat=0
split_feature=3 5 4 3 6 2 5 10 5 6 3 0 4 57 0 7 7 6 0 6 4 5 6 6 10 5 6 7 11 5
split_gain=2447.61 441.986 282.038 210.388 176.274 132.269 111.812 94.1227 81.8715 81.1331 71.4053 109.755 133.715 57.2938 57.2614 56.1515 48.0211 45.765 42.1917 39.2813 37.2776 36.7317 35.5781 34.0309 33.8843 31.7507 29.6108 27.1427 26.4935 22.9511
threshold=0.69946236559139796 0.13230474882260598 0.077128205128205146 0.7756861365235751 0.076885413177917958 0.61366066221732662 0.05647757385415645 0.95468420468420478 0.052704678362573108 0.062126302919968589 0.97530487804878063 0.028778467908902695 1.0000000180025095e-35 101.50000000000001 0.073061136778768673 0.55447347480106102 0.60209124851226414 0.14529388539842761 0.24807692307692311 0.15385544407283544 0.17192118226600989 0.20001628001628005 0.15009157509157511 0.16986412710096924 0.99205899035734546 0.20185548682966772 0.15158175158175161 0.68193153251976801 86.525271948273044 0.037130650871459704
decision_type=10 8 10 10 10 10 10 2 10 10 10 10 10 2 10 10 10 10 10 10 10 10 10 10 2 10 10 10 2 10
left_child=1 2 16 6 7 8 22 13 23 21 11 12 -5 -3 20 -6 29 -10 -15 -16 -7 27 -2 -4 28 26 -17 -8 -9 -1
right_child=3 4 5 10 15 14 9 24 17 -11 -12 -13 -14 18 19 25 -18 -19 -20 -21 -22 -23 -24 -25 -26 -27 -28 -29 -30 -31
leaf_value=0.086100318283778954 0.0080027854980801918 0.020558114934035625 0.060678312627411558 -0.0069181157662940515 0.00088607867977925437 0.019313139345900565 0.024296591413984964 -0.0012438532306321077 0.024579749701085892 -0.053593652513170109 -0.072909272269808631 -0.065077790037231548 -0.053257914848377864 0.0055611599673050195 -0.0042967057860189587 -0.018967633599731661 0.036118505639375208 -0.00027726296127452907 -0.022527627879022322 -0.039648381400366535 -0.011908752623203693 -0.052071670232900297 -0.019545645405528611 0.02614322850125805 -0.01789414382539475 -0.058130441049654397 -0.055938434534541163 -0.022440228278510145 0.02717727848502649 0.056257353647566538
leaf_weight=321.1061173081398 774.09420792385936 2568.9850790388882 768.14046429470181 1050.4249305203557 816.83005939051509 1493.171538118273 133.83933280408382 19580.412788562477 2850.6843894943595 1799.9150576032698 1572.4742954075336 2132.129026658833 1531.1159748099744 61759.421731118113 1118.8371278718114 1438.821919221431 1260.3857557997108 999.62838722765446 539.29613859206438 437.55585341155529 513.64646275341511 412.56115040183067 1187.2161329723895 455.99441630765796 1226.436455886811 338.43411248922348 255.5347583964467 1702.9030080139637 333.55494153499603 1341.6584979593754
leaf_count=3240 13601 45632 9550 30969 9642 22601 1941 384196 36646 31834 62189 48173 40747 1121330 16663 20428 15719 12627 7076 6986 8217 6493 21769 5991 26444 4417 3595 28576 6376 15006
internal_value=0.000458611 0.00561534 0.0240084 -0.0416521 0.0032222 0.0149205 -0.0282718 0.00403302 0.02529 -0.0377649 -0.0544441 -0.048282 -0.0344062 0.00592157 0.000150215 -0.0212466 0.0508591 0.0181237 0.00531785 -0.0142417 0.0113169 -0.0250942 -0.00866767 0.047822 -0.00176137 -0.0301451 -0.0245493 -0.0190292 -0.000767303 0.0620265
internal_weight=112715 100419 11560.8 12296.7 88857.7 8637.66 6010.53 86008.1 5074.45 4049.22 6286.14 4713.67 2581.54 64867.7 3563.21 2849.62 2923.15 3850.31 62298.7 1556.39 2006.82 2249.3 1961.31 1224.13 21140.4 2032.79 1694.36 1836.74 19914 1662.76
internal_count=2068674 1782382 153246 286292 1629136 119281 104214 1591054 64814 68844 182078 119889 71716 1174038 54467 38082 33965 49273 1128406 23649 30818 37010 35370 15541 417016 28440 24023 30517 390572 18246
is_linear=0
shrinkage=0.1


Tree=23
num_leaves=31
num_cat=0
split_feature=3 5 52 4 5 10 10 10 1 0 55 11 11 9 9 10 10 1 19 3 7 8 57 11 1 10 9 4 7 10
split_gain=11759.2 6261.9 1858.82 864.996 847.521 722.433 470.864 395.568 328.475 310.86 275.179 251.974 278.321 215.91 205.842 187.587 181.887 167.424 111.816 107.752 105.269 101.695 97.2634 93.9001 91.729 80.8029 78.6293 69.5584 65.9712 64.7816
threshold=0.84731934731934744 0.029136177403669875 1.5000000000000002 1.0000000180025095e-35 0.051298920377867756 0.95727759329178619 0.95468420468420478 0.8654408457040037 0.17974358974358975 0.22086720867208673 1.0000000180025095e-35 46.313102118669484 80.343390607040206 5.5000000000000009 5.5000000000000009 0.99205899035734546 0.90606162843004967 0.17974358974358975 4.5000000000000009 0.98213716108452964 0.58342567796349321 13.500000000000002 182.50000000000003 43.797846428680309 0.045115332428765274 0.91792050303166417 5.5000000000000009 0.028394066430183815 0.70331663017833235 0.86831905344757254
decision_type=8 8 2 10 10 2 2 2 10 10 2 2 2 2 2 2 2 10 2 10 10 2 2 2 10 2 2 10 10 2
left_child=4 3 10 19 17 7 8 26 9 14 16 21 -13 -9 -6 20 -3 27 -18 -2 -8 -7 -5 -22 -11 -12 -4 -1 -19 -29
right_child=1 2 5 22 6 11 15 13 -10 24 25 12 -14 -15 -16 -17 18 28 -20 -21 23 -23 -24 -25 -26 -27 -28 29 -30 -31
leaf_value=0.027731797852776033 0.064778380528714749 0.01406803088970021 -0.0052264353597128253 0.044001397149071086 -0.023113526595465464 0.0087492208580794133 -0.030813122937886801 0.0039463643022957916 -0.048557770294750988 -0.03402833648454303 -0.0047217878486400877 0.019046635946970668 -0.013090880333892517 -0.0032282598805253235 -0.035294801011118523 0.016582285291301433 0.021501003652903632 -0.024760679035378957 0.031364796592099911 0.082555935733408012 -0.021944385153166358 -0.0022080965539326355 0.018234586795152285 -0.0086997242007563064 -0.05112853812849099 0.012560943057981659 -0.013990111550836931 -0.018241524405796402 -0.0093718093125668613 -0.0016881099560158491
leaf_weight=707.07789379358292 5525.3332850635052 19431.362031832337 36863.387089416385 2755.0512080043554 51878.727730810642 28768.102610811591 5350.2031980454922 163829.72277362645 9522.9613707661629 5741.9299398362637 4715.5335584282875 36965.985429540277 2906.2807595282793 56377.361426815391 18942.318712085485 1639.197264790535 27983.198052689433 6698.4065055847168 19516.875909030437 8935.8432125896215 10407.128401190042 12002.87654080987 3132.6925475150347 11029.199834734201 6928.8144608736038 6343.6333244889975 14178.389097630978 2794.5781246125698 4773.6836420297623 15362.765302419662
leaf_count=2839 33399 76751 119957 13351 132803 105161 13054 577073 20590 12634 16869 139764 10584 192773 47045 4745 119406 18181 84364 58799 27246 43041 13866 29768 13306 23927 45183 8626 13843 49726
internal_value=0.000288388 0.0084031 0.00583723 0.0626082 -0.0237831 0.00274148 -0.0275179 0.000270894 -0.0309603 -0.0289531 0.019805 0.0110514 0.0167039 0.00210947 -0.0263718 -0.0162534 0.0222196 -0.00883154 0.0255541 0.0757642 -0.0182631 0.00552317 0.0302933 -0.0151303 -0.0433801 0.00519083 -0.00766101 -0.00303762 -0.018358 -0.00423638
internal_weight=602009 450232 429883 20348.9 151777 351892 121440 271249 93014.8 83491.8 77990.6 80643.2 39872.3 220207 70821 28425.7 66931.4 30336.5 47500.1 14461.2 26786.5 40771 5887.74 21436.3 12670.7 11059.2 51041.8 18864.4 11472.1 18157.3
internal_count=2068674 1674268 1554853 119415 394406 1233536 301191 934986 226378 205788 321317 298550 150348 769846 179848 74813 280521 93215 203770 92198 70068 148202 27217 57014 25940 40796 165140 61191 32024 58352
is_linear=0
shrinkage=0.1


Tree=24
num_leaves=31
num_cat=0
split_feature=5 5 52 5 5 59 0 57 0 8 11 10 59 5 0 4 1 0 3 55 8 9 10 10 0 8 8 9 36 33
split_gain=13150 7747.57 916.815 743.914 451.543 329.739 280.957 267.355 226.976 150.096 133.297 120.212 105.309 98.3438 128.317 97.1438 115.358 89.2778 68.902 65.862 61.5071 59.4048 52.8292 48.6104 48.1259 46.5119 43.7189 42.9039 40.5299 42.122
threshold=0.095255499860763024 0.020852672292545716 1.5000000000000002 0.15220382211228897 0.043416760643651409 9.5000000000000018 0.043797953964194385 188.50000000000003 0.21420168067226894 7.5000000000000009 42.873965348592385 0.90606162843004967 6.5000000000000009 0.010871524168229476 0.02086962833914054 0.013814673452078033 0.043373745819397999 0.12478373702422146 0.81016731016731025 1.0000000180025095e-35 8.5000000000000018 5.5000000000000009 0.97261737501463541 0.89058363071255908 0.20091116173120732 8.5000000000000018 3.5000000000000004 4.5000000000000009 17.500000000000004 5.5000000000000009
decision_type=10 8 2 10 8 2 10 2 10 2 2 2 2 10 10 10 10 10 10 2 2 2 2 2 10 2 2 2 2 2
left_child=1 13 10 17 6 7 18 -6 11 -7 12 26 19 -1 -15 20 -17 23 -4 -3 -13 22 -10 -2 25 -19 -5 -28 29 -12
right_child=3 2 4 8 5 9 -8 -9 21 -11 28 15 -14 14 -16 16 -18 24 -20 -21 -22 -23 -24 -25 -26 -27 27 -29 -30 -31
leaf_value=-0.0771382206523821 0.027753373251479519 -0.018414687831944037 -0.028808065505460848 0.033051025753292211 -0.011481805998965892 -0.0032700293897589897 -0.074903553778370019 -0.002391297055685004 0.053389624300072741 0.0053779648120735983 -0.027161800927894497 0.034018425512680639 0.004884496459719786 -0.027256572851872829 -0.078910451842336096 0.0077795411487306806 0.034471744741706667 0.021744892319897964 0.0041749459112569651 -0.0033537653097157442 0.05052423933208916 0.064855501242114658 0.030767285691835972 0.010098344383233976 -0.0077929283711946412 0.034181375950204956 0.045732675935277654 0.059510902923381397 0.00057000803913099401 0.0042472448935000073
leaf_weight=15420.275195576251 2106.8768501579762 21128.385963737965 2057.1954408362508 1463.3442674428225 48928.943124264479 31129.768685609102 1266.9620099514723 95509.71607863158 11185.797243371606 56482.110066927969 16687.058008387685 3828.4315387010574 2582.404385663569 960.37322060018778 964.93113800883293 1933.0168726593256 10002.682010501623 5076.936680585146 914.38203395158052 3368.0973058640957 5521.4778377264738 4392.1612303107977 1139.6667204201221 6016.9068052321672 363.02471653372049 7399.4472587257624 5253.3229443877935 3983.1505201756954 577.02581235021353 437.62095168232918
leaf_count=161622 7531 156701 11872 4412 286339 176711 8032 543918 26663 314600 126528 12239 16095 8547 8954 7885 30818 17559 6456 21056 16575 10189 3152 23906 1201 24701 15401 11027 4211 3267
internal_value=-0.000482388 -0.00961495 -0.00561215 0.0386368 -0.00312578 -0.00253493 -0.0354712 -0.0054708 0.0454165 0.00230509 -0.0187315 0.0404799 -0.0143194 -0.0744762 -0.0531498 0.0361316 0.0301497 0.0228851 -0.0186555 -0.0163443 0.0437668 0.054861 0.0512987 0.0146783 0.028077 0.0291215 0.0491293 0.0516755 -0.0254802 -0.0263586
internal_weight=368081 298415 281070 69666.2 236289 232051 4238.54 144439 48703.1 87611.9 44780.6 31985.4 27078.9 17345.6 1925.3 21285.6 11935.7 20963.2 2971.58 24496.5 9349.91 16717.6 12325.5 8123.78 12839.4 12476.4 10699.8 9236.47 17701.7 17124.7
internal_count=2068168 1854909 1675786 213259 1347928 1321568 26360 830257 138361 491311 327858 98357 193852 179123 17501 67517 38703 74898 18328 177757 28814 40004 29815 31437 43461 42260 30840 26428 134006 129795
is_linear=0
shrinkage=0.1


Tree=25
num_leaves=31
num_cat=0
split_feature=6 4 6 59 57 29 5 10 1 19 5 26 5 57 9 6 1 11 4 10 10 5 10 9 11 5 8 11 11 10
split_gain=10060.5 6628.38 616.168 477.608 330.004 236.016 228.848 153.494 148.654 134.983 111.981 80.9169 70.2934 45.4721 39.9533 34.8113 34.6679 30.1855 30.0178 29.9615 29.2464 28.904 28.8512 28.5701 28.4689 26.6199 25.6655 23.1611 20.8417 20.4724
threshold=0.096035087009171474 0.010139824191641394 0.15009157509157511 1.5000000000000002 147.50000000000003 14.500000000000002 0.0060150511957740883 0.95906575800231175 0.21103238866396765 5.5000000000000009 0.071450021450021467 5.5000000000000009 0.02941261118503696 146.50000000000003 4.5000000000000009 0.12004070556309364 0.31009615384615391 42.873965348592385 0.15034246575342466 0.87127857522594376 0.93258486987419587 0.066743471582181274 0.97438325563325578 4.5000000000000009 16.978486140609142 0.083363237639553459 7.5000000000000009 9.3088782663360004 60.285945340694973 0.98454990020775313
decision_type=10 8 10 2 2 2 8 2 10 2 10 2 10 2 2 10 10 2 10 2 2 10 2 2 2 10 2 2 2 2
left_child=1 -1 10 13 5 9 22 -8 12 -5 14 -7 19 -3 20 -12 23 -15 21 27 24 -14 -6 26 -2 -25 -10 -4 -19 -17
right_child=2 3 8 4 6 11 7 -9 16 -11 15 -13 18 17 -16 29 -18 28 -20 -21 -22 -23 -24 25 -26 -27 -28 -29 -30 -31
leaf_value=-0.076273414006517659 0.0060527193471647464 -0.037008210340381466 -0.017662675228892734 0.0085037683395829226 0.040766914609711789 0.10471107442712985 -0.0038412220331094124 -0.012204876337937286 0.046159922813431412 -0.0094095007464522536 0.017114220090265472 0.020174524135262967 0.073214854908351584 -0.01463049070936571 0.044990299249186842 0.029722768322508104 0.08377130605945933 -0.026012849915273153 0.039555074208474567 0.052406888475745476 0.024040928123407086 0.04597253394391506 -0.0085420576099280825 0.076002684464785253 0.041235224915500315 0.054309349957114221 0.06278150416258263 0.071613775973780366 -0.014668025577846251 -0.0122764995544817
leaf_weight=13922.365429386497 250.61453826352954 1369.8085507154465 29.589330404996872 23998.215516105294 1214.2135014235973 321.31954337656498 111368.19822134823 27329.980358161032 1448.9628580361605 5100.1562642455101 5688.5454401224852 175.33631324023008 536.31881737709045 10627.152878075838 3997.7129592746496 4684.7639634460211 842.75641588866711 5691.1204045265913 7818.4015594422817 6065.3039911389351 2577.0189567804337 1441.7334072738886 131.15123894065619 2044.8855597525835 2889.854839220643 787.66081263124943 2620.8634523302317 1213.4225992560387 2270.262574672699 118.66706135123968
leaf_count=191007 1368 16123 135 201285 11312 2479 933670 252202 5111 46494 29089 1355 2238 117286 21004 21374 2263 65009 33346 27608 14705 5435 1270 6824 15367 2434 8907 4873 25886 709
internal_value=-0.000209705 -0.00967557 0.0425466 -0.00478514 -0.00306352 0.00653077 -0.00509113 -0.00548932 0.0530924 0.00536371 0.0295774 0.0748869 0.0478856 -0.0194178 0.037315 0.0224116 0.0645901 -0.018121 0.0423443 0.0553122 0.0319467 0.0533639 0.0359527 0.0622467 0.0384308 0.0699738 0.0568663 0.0694805 -0.022779 0.0286831
internal_weight=248576 203519 45057.1 189597 169639 29595 140044 138698 24849.9 29098.4 20207.2 496.656 17104.8 19958.3 9715.2 10492 7745.13 18588.5 9796.45 7308.32 5717.49 1978.05 1345.36 6902.37 3140.47 2832.55 4069.83 1243.01 7961.38 4803.43
internal_count=2068168 1865378 202790 1674371 1450067 251613 1198454 1185872 99174 247779 103616 3834 73635 224304 52444 51172 25539 208181 41019 32616 31440 7673 12582 23276 16735 9258 14018 5008 90895 22083
is_linear=0
shrinkage=0.1


Tree=26
num_leaves=31
num_cat=0
split_feature=3 3 5 5 3 5 6 1 3 3 4 5 7 5 10 2 19 7 5 6 4 7 57 6 4 6 5 4 10 5
