tree
version=v4
num_class=4
num_tree_per_iteration=4
label_index=0
max_feature_idx=60
objective=multiclass num_class:4
feature_names=word_zero_to_end_count_max word_one_to_end_count_max word_many_to_end_min word_many_to_end_max word_one_to_end_count_min word_zero_to_end_count_mean word_one_to_end_count_mean word_many_to_end_mean time_hour day_of_week user_intro_acc user_intro_wpm a_len b_len c_len d_len e_len f_len g_len h_len i_len j_len k_len l_len m_len n_len o_len p_len q_len r_len s_len t_len u_len v_len w_len x_len y_len z_len 0_len 1_len 2_len 3_len 4_len 5_len 6_len 7_len 8_len 9_len apostrophe_len open_paren_len close_paren_len comma_len period_len exclamation_len question_len colon_len dash_len passage_len punc_len caps_len numbers_len
feature_infos=[0:0.98219584569732943] [0:0.55555555555555558] [0.011869436201780416:1] [0.079787234042553196:1] [0:0.55555555555555558] [0:0.89893617021276595] [0:0.55555555555555558] [0.079787234042553196:1] [0:23] [1:7] [0.51639344262295084:1] [1.5562197716300781:129.23213100243416] [0:71] [0:26] [0:39] [0:38] [0:76] [0:42] [0:31] [0:40] [0:58] [0:22] [0:26] [0:42] [0:37] [0:63] [0:55] [0:27] [0:18] [0:59] [0:49] [0:63] [0:34] [0:23] [0:28] [0:22] [0:26] [0:20] [0:34] [0:18] [0:23] [0:12] [0:10] [0:11] [0:14] [0:21] [0:16] [0:16] [0:15] [0:13] [0:13] [0:39] [0:21] [0:5] [0:3] [0:7] [0:29] [14:600] [0:47] [0:111] [0:79]
tree_sizes=3455 3455 3469 3534 3532 3527 3589 3575 3548 3532 3587 3584 3571 3562 3593 3576 3557 3555 3576 3589 3554 3537 3588 3588 3568 3558 3580 3590 3555 3534 3583 3584 3573 3540 3578 3592 3554 3537 3577 3577 3573 3517 3590 3576 3571 3529 3578 3576 3571 3505 3580 3574 3564 3531 3592 3571 3542 3511 3587 3538 3576 3548 3593 3546 3562 3529 3573 3596 3559 3574 3589 3551 3542 3532 3587 3536 3565 3537 3586 3562 3551 3560 3590 3548 3559 3576 3565 3551 3546 3564 3571 3570 3532 3548 3575 3513 3519 3547 3588 3534 3558 3575 3589 3566 3527 3541 3592 3537 3553 3577 3570 3526 3556 3490 3570 3544 3533 3540 3573 3545 3547 3559 3555 3543 3563 3548 3579 3554 3543 3543 3585 3519 3538 3577 3590 3560 3517 3556 3601 3495 3553 3526 3600 3533 3536 3543 3607 3583 3571 3528 3555 3530 3524 3555 3560 3522 3496 3571 3569 3559 3517 3511 3525 3547 3550 3540 3530 3546 3526 3499 3601 3555 3517 3540 3563 3575 3518 3558 3541 3558 3500 3542 3525 3579 3516 3563 3572 3538 3537 3518 3499 3591 3524 3552 3493 3548 3515 3507 3545 3607 3514 3522 3499 3543 3513 3535 3488 3560 3538 3518 3494 3505 3506 3501 3501 3550 3516 3568 3538 3532 3529 3537 3550 3567 3535 3498 3581 3597 3506 3485 3545 3523 3509 3481 3481 3577 3548 3508 3462 3586 3507 3491 3578 3522 3471 3498 3484 3572 3505 3508 3502 3548 3496 3466 3488 3562 3527 3495 3539 3554 3493 3492 3431 3585 3496 3527 3491 3569 3506 3506 3502 3520 3499 3520 3496 3542 3516 3525 3490 3561 3556 3476 3515 3471 3502 3493 3538 3547 3488 3471 3462 3549 3438 3457 3475 3538 3469 3494 3449 3553 2579 3540 3505 3567 3532 3510 3484 3545 3496 3482 3438 3529 3433 3501 3452 3539 3536 3486 3478 3567 3427 3509 3492 3562 3441 3472 3431 3514 3451 3510 3291 3541 3458 3521 3503 3566 3523 3546 3488 3494 3514 3529 3450 3526 3428 3542 3469 3594 3451 3539 3489 3608 3434 3498 3421 3548 3482 3571 3509 3539 3519 3431 3470 3519 3548 3494 3480 3556 3446 3465 3476 3539 2373 3519 3530 3550 3478 3562 3474 3514 3504 3055 3536 3553 3456 3545 3457 3524 3467 3504 3483 3514 3459 3486 3449 3495 3509 3457 3009 3556 3518 3533 3444 3522 2686 3512 3482 3557 3367 3504 3451 3496 3433 3533 3433 3548 3465 3475 3404 3568 3460 3449 3522 3579 3494 3535 3478 3464 3461 3435 3494 3535 3516 2821 3463 3501 3492 3486 3475 3566 3468 3505 3470 3522 3529 3460 3485 3543 3494 3418 3509 3563 3461 3464 3439 3541 3497 3464 3469 3541 3472 3515 3442 3528 3530 3443 3527 3471 3449 3445 3529 3527 2819 3482 3450 3450 3369 3409 3460 3459 3424 3503 3435 3528 3459 3464 3437 3528 3516 3467 3477 3469 3252 3504 3380 3577 3482 3512 3424 3501 3459 3440 3486 3535 3478 3553 2607 3536 3457 3486 3457 3527 3435 3463 3417 3487 3284 3462 3445 3527 3252 3456 3558 3473 3523 3437 3470 3560 2671 3452 3516 3520 3481 3439 3465 3470 3480 2760 3550 3533 3527 3470 3452 3534 3512 3451 3486 3527 3526 3490 3492 3544 3527 3411 3510 3529 3497 3458 3496 3550 3508 3433 3479 3530 3527 3473 3419 3457 3441 3528 3420 3550 3457 3445 3454 3539 3452 3408 2818 3533 3528 3488 3400 3550 3445 3495 3507 3592 3474 3475 3461 3565 3471 3478 3433 3521 3505 3555 2793 3535 3482 3465 3526 3548 3400 3546 3481 3518 3463 3529 3507 3485 3398 3486 3482 3564 2165 3442 3356 3516 3428 3555 3394 3463 3486 3468 3451 3563 3520 3415 3485 3523 3467 3438 3451 3499 3493 3490 3453 3553 3504 2936 2933 3494 3442 3523 3384 3512 3521 2505 3564 3462 3367 3479 3521 3490 3458 3448 3477 3526 3403 3454 3488 3493 3468 3441 3490 3476 3514 3468 3377 3543 3529 3452 3539 3457 3484 3422 3195 3513 3432 3449 3451 3485 3375 3426 3227 3568 3521 3455 3474 3514 3518 2634 3441 3562 2955 3420 3504 3494 3511 3457 3472 3564 3017 3430 3459 3525 3469 3497 3380 3534 3458 3523 3492 3446 3474 3431 3463 3533 3479 3423 3435 3507 3475 3528 3449 3527 3418 3428 3474 3453 3464 3461 3371 3485 3451 3493 3397 3522 3506 3533 3483 3491 3527 3287 3490 3604 3504 3412 3463 3542 3419 3455 3459 3444 3456 3463 3515 3499 3456 3511 3571 3459 3470 3482 3409 3471 3380 3487 3477 3510 3472 3480 3469 3526 3498 3486 3439 3527 3490 3520 2597 3528 3459 3425 3497 3473 3529 2838 3420 3512 3513 3492 3490 3474 2921 3513 3471 3505 1755 3534 3479 3528 3499 3487 3468 3533 3507 3516 3458 3495 3477 3520 3453 3511 3426 3518 3412 3475 3450 3477 3436 3572 3514 3469 3496 3495 3469 3516 3515 3460 3480 3466 3427 3555 3507 3441 3453 3517 3485 3525 3466 3525 3507 3444 3514 3466 3429 3482 3398 3547 3438 3502 3512 3463 3413 3414 3440 3479 3422 3468 3490 3488 3512 3435 3415 3533 3445 3391 3500 3468 3463 3497 3400 3558 3446 3541 3466 3490 2412 3519 3450 3448 3525 3489 2549 3549 3490 3470 3467 3523 3490 3456 3466 3516 3457 3457 3462 3522 3457 3414 3435 3442 3436 3546 3492 3525 3460 3506 3459 3538 2403 3366 3407 3532 3434 3537 3429 3519 3464 3499 3375 3562 3245 3415 3432 3553 3509 3528 3478 3446 3450 2640 3405 3523 3468 2917 3393 3507 3481 2657 3488 3521 2805 2938 3436 3502 3544 3431 3552 3497 3429 2643 3503 3514 3475 3469 3496 3467 3164 3487 3448 3531 3492 3444 3504 3532 2504 2393 3475 3553 3489 3525 3494 3475 3437 3454 3476 3487 3355 3419 3424 3446 3457 3469 3395 3511 3467 3069 3425 3523 2695 3501 3430 3506 3467 3494 3468 3511 3465 3524 3396 3462 3495 3536 3449 3536 3472 3476 3466 3492 3448 3481 3471 3499 3400 3505 3433 3514 3268 2611 3435 3569 3508 3400 3471 3518 3489 3498 3442 3544 3421 3481 3257 3491 3487 3404 3487 3461 3421 3554 3518 3509 3512 3463 3407 3501 3505 3475 3469 3482 2485 3450 3469 3470 3461 3515 3458 3547 3258 3416 3523 3528 3482 3434 3464 3491 3046 3467 3475 3449 3493 2933 3512 3505 2627 3469 3449 3441 3481 3449 3519 3540 3445 3250 3442 3461 3048 3469 3454 3492 3031 3477 3490 3429 3450 3469 3466 3451 3456 3442 3472 3520 3474 3462 3450 3518 3465 3519 3494 3485 3437 3436 3393 3460 3520 3450 3521 3389 3481 3211 3454 3483 3455 3525 3470 3534 3490 3514 3468 3468 3500 3406 3514 3527 3479 3495 3522 3508 3471 3404 3413 3525 3507 3475 3431 3532 1652 3475 3458 3535 3496 3389 3407 3496 3508 3464 3491 3548 3455 3462 3508 3513 3413 3525 3431 3419 3453 3458 3471 3549 2975 3509 2791 3447 3455 3485 3495 3491 3476 3530 3393 3440 3486 3526 3435 3492 3441 3406 3509 3496 3458 3465 3435 3524 3446 3469 3477 3531

Tree=0
num_leaves=31
num_cat=0
split_feature=5 5 0 5 52 0 10 4 1 5 0 0 5 57 10 0 5 10 0 0 10 4 0 10 5 0 0 3 10 5
split_gain=80014.2 14167.6 5231.05 3653.48 2695.8 1344.79 1286.22 689.058 1534.8 534.474 527.091 409.477 360.758 354.464 253.098 235.612 232.93 225.291 207.925 201.551 194.539 189.091 186.876 181.45 167.086 161.179 145.62 133.523 124.358 107.372
threshold=0.11201616072305728 0.029908538117493343 0.21320346320346323 0.061532960746347481 1.5000000000000002 0.16580756013745707 0.90606162843004967 0.012490249609984402 0.04332186424773226 0.20002195871761094 0.28062500000000007 0.17974358974358975 0.087741303312901461 227.50000000000003 0.95896025151583209 0.30881190727081148 0.016270837603334021 0.90606162843004967 0.24662162162162166 0.12233560090702948 0.93016208597603955 0.013606071825249909 0.20995538796537258 0.90606162843004967 0.17035130730782908 0.062678571428571445 0.032522474881015347 0.9331300813008131 0.94157529239766091 0.18336167800453518
decision_type=10 8 10 10 2 10 2 10 10 10 10 10 10 2 2 10 10 2 10 10 2 10 10 2 10 10 10 10 2 10
left_child=1 16 5 4 23 14 25 10 15 11 20 24 19 -8 21 -9 -1 -13 -10 -5 -4 -2 -11 -3 -7 -6 -18 -12 -14 -20
right_child=2 3 7 12 6 9 13 8 18 22 27 17 28 -15 -16 -17 26 -19 29 -21 -22 -23 -24 -25 -26 -27 -28 -29 -30 -31
leaf_value=-2.0639675354629081 -1.8577342499177978 -2.0048642577760489 -1.7532716291662562 -1.9585297380369684 -1.9766860469041996 -1.8527786146595284 -1.9992049099665661 -1.8337263610079155 -1.8099316723873198 -1.961911972844107 -1.6972281783550227 -1.8077021534534956 -1.9263980490021011 -1.9893190115065287 -1.9183915205162307 -2.0044161430492098 -2.0205017861265908 -1.8408138237354676 -1.876218883943312 -2.0243188863616997 -1.7984473337928346 -1.8908988272884937 -1.8452569153392893 -2.0187981847806222 -1.8886127615598713 -2.037857898150262 -2.0616862500304394 -1.9899329046453178 -1.9503727002295674 -1.7599477652724769
leaf_weight=27308.812176555395 2231.0783988237381 13093.700859099627 2028.440623909235 11225.053688079119 70515.089382112026 4955.6599143147469 61867.835735917091 100.28745007514954 2180.2999430894852 531.11091044545174 1281.9973246157169 3088.4408873617649 6052.9506061971188 87673.6056227386 2608.9018460214138 417.49411574006081 2163.6382623016834 6164.6632088124752 83.308403939008713 485.72766563296318 1805.4914667010307 7526.477918535471 185.34136343002319 32692.756628453732 1767.8836729228497 433.36238315701485 1425.1290967166424 15.709584742784498 3370.8960473835468 1862.4585467278957
leaf_count=161155 10935 74266 8532 56590 381225 23051 346108 462 9046 2853 4910 13360 29170 486154 13157 2368 12379 28207 365 2642 8142 35600 860 190096 8640 2267 7877 91 16975 7201
internal_value=-1.97994 -1.99647 -1.84443 -1.98956 -1.99273 -1.86572 -1.98815 -1.78115 -1.80907 -1.8472 -1.75589 -1.84341 -1.94954 -1.99341 -1.89071 -1.97138 -2.06082 -1.82976 -1.7887 -1.96126 -1.77454 -1.88331 -1.93172 -2.01481 -1.8622 -1.97706 -2.03686 -1.70078 -1.93497 -1.76492
internal_weight=357144 318309 38835 287411 266276 29059.6 220490 9775.49 4643.85 16693.1 5131.64 15976.6 21134.6 149541 12366.5 517.782 30897.6 9253.1 4126.07 11710.8 3833.93 9757.56 716.452 45786.5 6723.54 70948.5 3588.77 1297.71 9423.85 1945.77
internal_count=1944684 1766904 177780 1585493 1480116 136663 1215754 41117 19442 76971 21675 73258 105377 832262 59692 2830 181411 41567 16612 59232 16674 46535 3713 264362 31691 383492 20256 5001 46145 7566
is_linear=0
shrinkage=1


Tree=1
num_leaves=31
num_cat=0
split_feature=6 4 1 6 1 59 10 1 1 10 10 0 19 1 10 10 1 0 10 0 0 0 1 10 10 0 0 0 9 10
split_gain=55490.1 10751.7 5957.04 2398.79 1511.82 1185.91 790.578 730.879 329.927 194.99 194.338 187.841 178.223 177.533 173.25 130.853 130.799 118.228 116.588 108.663 93.135 72.1381 71.1354 65.8037 62.3389 61.2334 60.5412 59.9549 55.36 52.1989
threshold=0.10833735909822868 0.013606071825249909 0.18107302533532046 0.064549731182795708 0.26423200859291091 1.5000000000000002 0.90606162843004967 0.15235814296241715 0.21132376395534294 0.95908039329091965 0.97634954844006583 0.01152747325759086 2.5000000000000004 0.096267535760549042 0.95896025151583209 0.96429940972650219 0.30384615384615393 0.039736842105263161 0.90708284678550177 0.030405752439650751 0.10741758241758244 0.21778656126482215 0.13906469760900145 0.91432748538011699 0.97076972734867484 0.019803921568627456 0.084055055532375689 0.11900808379612834 3.5000000000000004 0.86551368952684749
decision_type=10 8 10 10 10 2 2 10 10 2 2 10 2 10 2 2 10 10 2 10 10 10 10 2 2 10 10 10 2 2
left_child=1 -1 7 5 8 -3 12 11 9 17 -8 -2 -7 26 19 22 23 -4 20 -9 -10 -20 -13 -6 28 -16 -5 -15 -18 -21
right_child=2 3 4 13 16 6 10 14 18 -11 -12 15 -14 27 25 -17 24 -19 21 29 -22 -23 -24 -25 -26 -27 -28 -29 -30 -31
leaf_value=-2.5128134952324772 -2.311409865104272 -2.4668649678903987 -2.2183658559503106 -2.3934791279971539 -2.1013252634898514 -2.4125629244697748 -2.4438946462590669 -2.268667443199412 -2.1563970952421938 -2.2931205976449824 -2.4564288983371769 -2.3548221831575789 -2.4324562849593954 -2.3706951299403967 -2.2982131144095823 -2.3815949301566413 -2.100217987172182 -2.2551662223910944 -2.2181736168488695 -2.2750562550580096 -2.2228344201848094 -2.3107904445226479 -2.332166865435966 -2.1627913999331678 -2.1779884725311107 -2.3442844200879005 -2.4128073964471697 -2.3935978516078782 -2.0223483511399882 -2.3062471489740579
leaf_weight=23040.017085857689 1476.234052233398 19414.154630325735 1392.7139373868704 2234.4300896599889 291.67958374321461 4980.5543900877237 95812.204150870442 1607.4952049404383 619.45865368098021 911.35184483230114 14205.682191900909 3051.1542917191982 47026.631017185748 2142.0453089624643 415.57131364941597 1147.3869543969631 159.67080833017826 2359.8170693740249 1641.9926470443606 669.12215147912502 322.65251778811216 89.18068628013134 2550.9948256611824 442.05851227045059 46.886611938476562 953.75272282958031 5916.4709958210588 2459.4644795581698 220.12142872065306 2778.6992840468884
leaf_count=186290 12287 167830 10916 17718 1930 39662 790609 12987 4516 6889 120051 21864 378187 16349 3431 8777 1070 16088 11961 4661 1978 506 18726 3071 334 7153 41626 16012 1395 19810
internal_value=-2.43254 -2.44823 -2.28536 -2.44056 -2.21875 -2.44351 -2.44071 -2.32399 -2.23552 -2.25159 -2.44551 -2.34374 -2.43055 -2.39864 -2.29872 -2.35081 -2.11267 -2.24151 -2.2075 -2.29017 -2.17914 -2.22294 -2.3445 -2.13834 -2.06854 -2.3303 -2.40751 -2.38293 -2.05506 -2.30019
internal_weight=240380 217232 23148 194192 8497.58 181439 162025 14650.4 7337.17 4663.88 110018 8225.77 52007.2 12752.4 6424.64 6749.54 1160.42 3752.53 2673.28 5055.32 942.111 1731.17 5602.15 733.738 426.679 1369.32 8150.9 4601.51 379.792 3447.82
internal_count=1944684 1774334 170350 1588044 60654 1496339 1328509 109696 52854 33893 910660 61654 417849 91705 48042 49367 7800 27004 18961 37458 6494 12467 40590 5001 2799 10584 59344 32361 2465 24471
is_linear=0
shrinkage=1


Tree=2
num_leaves=31
num_cat=0
split_feature=3 3 5 5 4 3 10 4 52 2 7 4 2 5 6 10 5 5 4 5 3 0 6 9 4 0 4 52 2 27
split_gain=4542.29 2346.34 700.015 350.751 454.743 341.591 320.132 311.749 142.199 128.599 124.534 108.504 106.241 102.748 98.3865 97.7515 95.8121 86.8396 81.7299 79.0531 67.7509 65.3287 91.6685 59.5948 58.1021 50.1632 47.661 44.3393 43.5037 41.5568
threshold=0.69732205778717427 0.62119246434243858 0.057551940446545401 0.14558298056444835 0.074393358876117519 0.7770467836257311 0.90606162843004967 0.013606071825249909 1.5000000000000002 0.56280339805825252 0.52466596466596471 0.18677325581395351 0.54558862965942623 0.054095969832655084 0.097771021870286592 0.97634954844006583 0.058796296296296305 0.07145632145632147 0.041494490358126725 0.22228832860845535 0.97530487804878063 0.022347066167290892 0.004784798534798536 5.5000000000000009 0.11583184257602865 0.22361111111111112 0.062284482758620696 1.5000000000000002 0.55291153415453542 8.5000000000000018
decision_type=10 8 10 10 10 10 2 10 2 10 10 10 10 10 10 2 10 10 10 10 10 10 10 2 10 10 10 2 10 2
left_child=1 2 7 4 9 13 17 28 -8 -4 24 -12 -6 -2 19 16 -10 23 25 -5 21 22 -7 27 -9 -15 -19 -3 29 -1
right_child=5 6 3 14 12 20 8 10 15 -11 11 -13 -14 18 -16 -17 -18 26 -20 -21 -22 -23 -24 -25 -26 -27 -28 -29 -30 -31
leaf_value=-2.9616070979423865 -3.2964597849351014 -3.2836918494400837 -3.1297000310323631 -3.2402466101867855 -3.2055312591950358 -3.3095752233287432 -3.2948573036194038 -3.0087262119708864 -3.2786645734137299 -3.1952203819123577 -3.1735193495858036 -3.2604143085099047 -3.2483377170182819 -3.3019692497437867 -3.298021263924988 -3.2934433256366313 -3.2977264656169303 -3.2761530225165836 -3.3381048633326098 -3.2899020244022985 -3.359168953232293 -3.3516808008900689 -3.3441783308866371 -3.2613662042382336 -3.1432827376319685 -3.3396036108707094 -3.3114639612624552 -3.2701775217129012 -3.0489238144066659 -2.6246581696180677
leaf_weight=26.53188115730882 1904.0356510542333 2878.4924136288464 448.34545175731182 1077.0691690444946 706.68218813464046 1252.7766822688282 9933.0355021953583 57.638224568217993 38739.002135030925 907.33254761248827 900.97645662724972 171.32564994320273 3243.3418842963874 1612.9553813152015 814.78395051136613 6177.883504986763 2829.2808152958751 761.14236176013947 2151.0566008090973 456.04980760812759 2853.3569538705051 2779.8766273632646 1973.9045442901552 6851.148037429899 73.528461921960115 454.46078222990036 767.16139241680503 15456.096753612161 111.56872706860304 4.3337010964751235
leaf_count=551 33417 54083 7517 16235 10924 25867 190071 1073 708514 15410 16314 2891 53417 25397 11135 114879 43562 11409 32871 6831 59041 47083 37336 121299 1254 6116 11098 276709 2290 90
internal_value=-3.2828 -3.2746 -3.22607 -3.23776 -3.22352 -3.33392 -3.27978 -3.15955 -3.28397 -3.17354 -3.17612 -3.18739 -3.24068 -3.31575 -3.26995 -3.28171 -3.27996 -3.27073 -3.32445 -3.25502 -3.34647 -3.34044 -3.33075 -3.26933 -3.08408 -3.31025 -3.29387 -3.2723 -3.01961 -2.91397
internal_weight=108375 93392.8 8999.51 7653.6 5305.7 14982.4 84393.2 1345.9 57679.2 1355.68 1203.47 1072.3 3950.02 6122.51 2347.9 47746.2 41568.3 26714 4218.47 1533.12 8859.91 6006.56 3226.68 25185.7 131.167 2067.42 1528.3 18334.6 142.434 30.8656
internal_count=1944684 1677556 145932 121469 87268 267128 1531624 24463 1057026 22927 21532 19205 64341 97801 34201 866955 752076 474598 64384 23066 169327 110286 63203 452091 2327 31513 22507 330792 2931 641
is_linear=0
shrinkage=1


Tree=3
num_leaves=31
num_cat=0
split_feature=3 5 52 0 10 2 0 1 4 10 1 0 55 1 0 10 9 3 9 10 4 10 1 5 1 10 11 6 5 1
split_gain=58474 15061.9 4792.3 4552.09 2680.48 2270.69 1085.7 1024.97 974.683 764.666 763.802 743.888 595.539 472.9 558.012 431.084 343.226 332.922 327.086 323.265 320.961 246.837 228.513 222.238 219.018 206.932 206.476 197.583 185.037 182.946
threshold=0.84807692307692317 0.041672913543228392 1.5000000000000002 0.088060627423334523 0.90606162843004967 0.56615139804501036 0.21132376395534294 0.05853797829811537 1.0000000180025095e-35 0.97634954844006583 0.21132376395534294 0.045199182839632285 1.0000000180025095e-35 0.054969236495806977 0.17669683257918556 0.95908039329091965 5.5000000000000009 0.57092555331991968 5.5000000000000009 0.90606162843004967 0.022770480470100246 0.90606162843004967 0.16552511415525115 0.16399982932241 0.15184453227931491 0.86819889002531825 50.143517058520352 0.076979009014937191 0.022990024543753495 0.16552511415525115
decision_type=8 8 2 10 2 10 10 10 10 2 10 10 2 10 10 2 2 10 2 2 10 2 10 10 10 2 2 10 10 10
left_child=3 8 12 10 18 13 7 21 28 16 11 29 19 20 22 -9 -6 -8 25 -3 23 -7 -15 -5 -13 -4 -11 -10 -2 -1
right_child=1 2 4 5 9 6 17 15 27 26 -12 24 -14 14 -16 -17 -18 -19 -20 -21 -22 -23 -24 -25 -26 -27 -28 -29 -30 -31
leaf_value=-0.31142866329334051 -0.20969215047000767 -0.27857925271516742 -0.31376617887992103 -0.35535038467052787 -0.29266252181461072 -0.36391574245225805 -0.28264288177078528 -0.38271205328978636 -0.24777743779061429 -0.28626155167600881 -0.37491144865511655 -0.34056732652424582 -0.29172909482873238 -0.38755986428972566 -0.43972282009700148 -0.35316017583783149 -0.30211382239895135 -0.40400675106768452 -0.32036731740772367 -0.26254333012151454 -0.32148375320253259 -0.34164942663978665 -0.42205833649431834 -0.41593496109344325 -0.3619377748326098 -0.30366852192625204 -0.26988711844660646 -0.30015264592359336 -0.24355401623770703 -0.33188406756200017
leaf_weight=10253.661239027977 22041.167773276567 17418.935708582401 37162.051797509193 948.14351183176041 155335.91760995984 7418.2851612269878 231.27975580096245 25188.279642730951 6779.2908482551575 15477.117078602314 5530.7940846979618 14241.814108520746 11537.082761675119 5001.2306631803513 6755.2314403057098 6141.8486097157001 51055.65279519558 9709.6103744804859 30616.369043886662 45207.689950525761 793.43960717320442 15155.032743990421 3120.7244765460491 1678.977173268795 7234.6066697835922 44711.757752180099 15335.089590162039 806.37472200393677 1743.1353413462639 7624.7296043634415
leaf_count=35165 84845 61026 122938 3001 531303 21541 806 72079 24689 53439 16829 45594 39656 14643 16763 18605 171993 25189 100280 162036 2577 46202 8514 4360 22065 150295 54194 2728 6308 25021
internal_value=-0.305731 -0.28899 -0.293939 -0.365722 -0.298836 -0.379716 -0.370814 -0.365214 -0.222129 -0.292807 -0.340113 -0.335222 -0.27085 -0.410774 -0.418483 -0.376919 -0.295 -0.401182 -0.311549 -0.267003 -0.377238 -0.348967 -0.400817 -0.394073 -0.347767 -0.308252 -0.278112 -0.253344 -0.212173 -0.320153
internal_weight=582255 455228 423858 127028 349694 82142.1 63844.3 53903.4 31370 237204 44885.6 39354.8 74163.7 18297.7 14877.2 31330.1 206392 9940.89 112490 62626.6 3420.56 22573.3 8121.96 2627.12 21476.4 81873.8 30812.2 7585.67 23784.3 17878.4
internal_count=1944684 1565730 1447160 378954 1184442 234280 184422 158427 118570 810929 144674 127845 262718 49858 39920 90684 703296 25995 373513 223062 9938 67743 23157 7361 67659 273233 107633 27417 91153 60186
is_linear=0
shrinkage=1


Tree=4
num_leaves=31
num_cat=0
split_feature=5 5 0 52 5 10 4 6 0 0 57 0 5 4 5 51 10 0 10 5 10 10 10 10 55 9 10 10 10 5
split_gain=54866.8 12644.6 2895.58 2501.28 1735.69 920.437 763.414 1184.53 520.178 441.315 324.406 315.355 307.507 285.246 236.532 158.428 154.831 153.153 143.225 138.451 131.331 117.41 110.399 104.205 100.485 91.4003 88.9814 88.1757 84.3837 76.8798
threshold=0.1110810648398534 0.029908538117493343 0.17974358974358975 1.5000000000000002 0.0690107306486617 0.90606162843004967 0.01417005500218718 0.042561425466043086 0.26365441906653431 0.1329931972789116 264.50000000000006 0.22111111111111112 0.054095969832655084 0.01417005500218718 0.016270837603334021 2.5000000000000004 0.90352379235760638 0.032522474881015347 0.9625365497076025 0.20002195871761094 0.89722826782742293 0.97076972734867484 0.90606162843004967 0.99205899035734546 1.0000000180025095e-35 4.5000000000000009 0.99227495010387667 0.97941674904674492 0.91792050303166417 0.090952326050613944
decision_type=10 8 10 2 10 2 10 10 10 10 2 10 10 10 10 2 2 10 2 8 2 2 2 2 2 2 2 2 2 10
left_child=1 14 9 12 5 15 8 19 20 28 -7 -9 16 21 -1 -5 -3 -16 -15 -8 -4 25 29 -22 -18 -11 -13 -10 -2 -6
right_child=2 3 6 4 22 10 7 11 27 13 -12 26 -14 18 17 -17 24 -19 -20 -21 23 -23 -24 -25 -26 -27 -28 -29 -30 -31
leaf_value=-0.082256695725933457 0.061664431506555956 -0.022191464849942676 0.15333075556733766 -0.0015671456149339556 0.028946347007518837 -0.015799866607766062 0.067433410236119054 0.10604261988256164 0.19107114376343615 0.093909864467200427 -0.006423977611045819 0.14236964866318511 0.017776666517991663 0.078535907088755241 -0.036831867889656353 0.0080475521829908286 -0.037937156780855373 -0.080291676383349164 0.050218146566628485 0.0020867736484191301 0.12820060549529022 0.059307466861551507 0.020808852692623617 0.036814353198829815 -0.022109530895751385 0.12018880404839127 -0.015483529088146286 0.10376485942971631 0.030750856791552452 0.053646903234836951
leaf_weight=24982.193335533142 1553.7863907665014 11859.997757300735 2521.4880854189396 44409.584159016609 3343.6027519106865 82441.012397050858 489.12797297537327 6270.3131375312805 2253.5321581214666 3201.5131566375494 66817.728141739964 4326.1994346529245 1280.2616905122995 10703.489097520709 2043.2060360759497 27906.594090536237 27018.668873474002 1345.9868561327457 2146.476284429431 962.72107328474522 6344.9670971632004 634.19754493236542 11152.473067581654 127.59289099276066 4714.4005529880524 2265.1217155754566 35.8923329859972 122.48350016772747 2050.3028884232044 2025.3934775590897
leaf_count=161356 6705 69467 9056 239474 15565 468745 2103 23419 6885 14034 374202 14118 6332 44952 12337 148922 166336 7901 9769 5106 24725 3009 53205 580 27608 9519 154 447 9433 8905
internal_value=-0.000184816 -0.0152479 0.101745 -0.00886658 -0.00478494 -0.00711642 0.126347 0.108844 0.144949 0.0761622 -0.0116027 0.120413 -0.0305234 0.082263 -0.0788928 0.002143 -0.0319421 -0.0540945 0.0738064 0.0241089 0.133952 0.100073 0.0264826 0.126401 -0.0355861 0.1048 0.141069 0.186575 0.044081 0.0382662
internal_weight=357350 311341 46009.2 282970 238096 221575 23454.3 12084.3 11370.1 22554.9 149259 10632.4 44873.3 18950.8 28371.4 72316.2 43593.1 3389.19 12850 1451.85 8994.05 6100.83 16521.5 6472.56 31733.1 5466.63 4362.09 2376.02 3604.09 5369
internal_count=1944369 1760355 184014 1578761 1309018 1231343 86593 44900 41693 97421 842947 37691 269743 81283 181594 388396 263411 20238 54721 7209 34361 26562 77675 25305 193944 23553 14272 7332 16138 24470
is_linear=0
shrinkage=0.1


Tree=5
num_leaves=31
num_cat=0
split_feature=1 4 1 1 4 59 10 1 1 1 5 5 5 10 57 10 5 10 4 5 10 10 0 9 11 4 9 59 1 4
split_gain=36976.7 9986.64 2854.54 2119.63 1196.61 950.84 652.561 579.29 407.358 232.653 227.911 196.412 181.297 168.467 160.676 136.041 126.094 119.49 87.9516 86.5085 81.9165 81.7673 67.1452 64.1456 58.6104 56.9796 56.6728 51.888 39.8024 39.0144
threshold=0.12517409470752092 0.013606071825249909 0.19859154929577469 0.06472559698366151 0.0081972720553651849 1.5000000000000002 0.90606162843004967 0.16552511415525115 0.24662162162162166 0.098476102516739786 0.011502557969570131 0.074130979091470761 0.032274865591397854 0.97634954844006583 166.50000000000003 0.95424734653870025 0.058796296296296305 0.90606162843004967 0.01986842105263158 0.083308760415003125 0.90606162843004967 0.98367319738771164 0.084055055532375689 5.5000000000000009 25.097726365363169 0.083365688253869655 4.5000000000000009 1.0000000180025095e-35 0.29814814814814822 1.0000000180025095e-35
decision_type=10 8 10 10 10 2 2 10 10 10 10 10 10 2 2 2 10 2 10 10 2 2 10 2 2 10 2 2 10 10
left_child=1 29 4 5 -2 27 14 10 11 22 26 17 20 -8 -7 -12 23 24 -13 -11 -9 -19 -5 28 -4 -14 -6 -3 -10 -1
right_child=2 3 8 9 7 6 13 12 16 19 15 18 25 -15 -16 -17 -18 21 -20 -21 -22 -23 -24 -25 -26 -27 -28 -29 -30 -31
leaf_value=-0.080132284022632297 -0.081229938727535075 -0.029298092116454583 0.15804177202140979 0.033335984496152792 0.094469723491753199 0.01212531758222235 -0.010164255664704358 0.16254571475328855 0.18934607752224292 0.066661829088250663 0.079738681083330515 -0.081816140938781409 0.066142394230960785 -0.022045140596612986 -0.001073591336795946 0.049851999178395251 0.17297001802701537 0.15553807927831848 0.12682626723592449 0.037888813717708074 0.12547347411614559 0.074058422366877028 0.01430422915865868 0.25847011824511062 0.20773006229879978 0.10804984739661844 0.12473586384859187 -0.045938887974761894 0.23174295154337027 -0.052119950331788713
leaf_weight=20353.330358542502 394.39462817460299 16324.097159214318 356.74015956372023 2512.9932502508163 1533.7581014707685 11983.201204501092 94029.795441001654 890.7074456140399 537.09881930053234 1362.2458939254284 6554.1302505210042 20.345186546444893 355.23360155522823 13672.11732493341 40037.699707739055 1986.8976978734136 1000.2676115781069 2078.7463520467281 2065.2554247006774 4505.8574389964342 1820.093156196177 131.43320394307375 7082.2722825333476 331.94073496758938 723.61543700844049 3907.8455283418298 1043.507382594049 2119.6315580680966 383.48030012845993 511.77169379591942
leaf_count=177931 3223 147837 2161 19108 11334 96349 788173 5858 3096 10027 42362 138 2110 119732 320204 13880 4723 13080 10921 27928 12491 894 47268 1725 4192 23411 7524 19751 1992 4946
internal_value=-3.47943e-05 -0.0137136 0.112313 -0.00663042 0.0910737 -0.00971282 -0.00723028 0.0948304 0.16378 0.0288838 0.0806558 0.148815 0.117427 -0.0116726 0.00196663 0.0727873 0.19949 0.164042 0.124786 0.04457 0.137658 0.150697 0.0192897 0.220662 0.191332 0.10456 0.106728 -0.0312111 0.207018 -0.0794457
internal_weight=240611 214495 26115.5 193630 18486.6 178167 159723 18092.2 7628.92 15463.4 11118.3 5376.14 6973.88 107702 52020.9 8541.03 2252.79 3290.54 2085.6 5868.1 2710.8 2210.18 9595.27 1252.52 1080.36 4263.08 2577.27 18443.7 920.579 20865.1
internal_count=1944369 1779254 165115 1596377 122193 1492046 1324458 118970 42922 104331 75100 31386 43870 907905 416553 56242 11536 20327 11059 37955 18349 13974 66376 6813 6353 25521 18858 167588 5088 182877
is_linear=0
shrinkage=0.1


Tree=6
num_leaves=31
num_cat=0
split_feature=3 3 5 4 3 10 5 6 5 5 52 5 5 4 5 6 2 4 6 3 0 1 2 0 4 6 9 6 6 55
split_gain=4001.09 1602.9 498.634 461.497 303.356 227.667 159.343 130.609 101.058 100.393 98.2772 104.899 97.0862 96.8022 88.9498 86.3232 81.0521 77.7069 73.3451 68.6028 71.1847 95.7198 55.8387 51.2972 49.9122 48.7504 45.5842 39.3648 34.8467 28.6522
threshold=0.69732205778717427 0.62119246434243858 0.11111797066853248 0.074393358876117519 0.7770467836257311 0.90606162843004967 0.037051396930429192 0.099875953004778334 0.054095969832655084 0.041672913543228392 1.5000000000000002 0.057551940446545401 0.22228832860845535 0.062640134529148003 0.07145632145632147 0.18699677938808376 0.53923076923076929 0.041494490358126725 0.1968975468975469 0.97530487804878063 0.028778467908902695 1.0000000180025095e-35 0.58387445887445899 0.22361111111111112 0.017700501253132835 0.076407342657342683 5.5000000000000009 0.12811478758169936 0.20890945890945892 1.0000000180025095e-35
decision_type=10 8 10 10 10 2 10 10 10 10 2 10 10 10 10 8 10 10 10 10 10 10 10 10 10 10 2 8 10 2
left_child=1 2 3 9 8 14 18 12 28 -1 29 15 24 -13 26 -12 -8 23 -5 20 21 -6 -11 -10 -4 -16 27 -3 -2 -7
right_child=4 5 7 6 19 10 16 -9 17 22 11 13 -14 -15 25 -17 -18 -19 -20 -21 -22 -23 -24 -25 -26 -27 -28 -29 -30 -31
leaf_value=0.17166316555087899 -0.0089457052327498992 0.22335756501157819 0.065347266836824389 0.10835559804173563 -0.02388029343726188 -0.012160895348226347 0.077987546244369765 -0.0075004668003411839 -0.019190736222253871 0.12400972076814086 0.041479633010390579 0.0018944134346153667 -0.010037678327401508 -0.032424457474537753 0.0048292647797273484 0.0020234029134867828 0.034480938199628851 -0.054806213176277929 0.040301576805284289 -0.075779498834337128 -0.068766301034218297 -0.059629387378978098 0.078474301955953743 -0.057493547639278081 0.030837294170203061 -0.030490630839662709 0.018777230462860138 0.0092190344397422314 -0.053924309156429519 0.0029801334188932949
leaf_weight=258.73155342787504 1713.7637048214674 8.5926317609846574 575.88314996287227 574.66978122666478 1208.2512049973011 8142.4674134068191 493.84642303735018 1323.2920359186828 1617.2741167806089 565.40148935839534 561.63877982273698 1577.5005912780762 469.440176256001 1714.7354545332491 789.04711785167456 43786.743072476238 3245.8806421384215 2105.0602011419833 219.34877566993237 2528.0046586357057 2446.7402040995657 1975.430691126734 517.83226857334375 446.70315274968743 1548.5439055077732 773.44357983395457 7040.1973209828138 18475.972690802068 191.65705372020602 1475.2467095665634
leaf_count=4177 30326 149 8137 9389 26917 162088 6925 17918 25381 8384 9840 24294 6844 25872 11540 806890 50375 32975 3418 59115 43248 40208 8142 6082 22101 10974 121411 330411 3091 27747
internal_value=-6.82382e-05 0.00740294 0.0456984 0.0641233 -0.0494845 0.00295657 0.0488721 0.0180585 -0.0325618 0.115641 -0.000616668 0.00124461 0.0311015 -0.0159773 0.0105102 0.00252331 0.0402288 -0.0412828 0.0895682 -0.0620832 -0.0559319 -0.0460653 0.102251 -0.0274854 0.0401969 -0.0126479 0.0119282 0.00931912 -0.0134751 -0.0098374
internal_weight=108371 94138.5 9792.87 5875.71 14232.9 84345.6 4533.75 3917.16 6074.46 1341.97 57258.3 47640.6 2593.87 3292.24 27087.3 44348.4 3739.73 4169.04 794.019 8158.43 5630.42 3183.68 1083.23 2063.98 2124.43 1562.49 25524.8 18484.6 1905.42 9617.71
internal_count=1944369 1677026 145810 90810 267343 1531216 70107 55000 97855 20703 1056731 866896 37082 50166 474485 816730 57300 64438 12807 169488 110373 67125 16526 31463 30238 22514 451971 330560 33417 189835
is_linear=0
shrinkage=0.1


Tree=7
num_leaves=31
num_cat=0
split_feature=3 5 52 0 10 2 4 10 10 55 1 0 1 9 5 9 0 1 10 1 6 0 10 11 5 6 7 1 6 10
split_gain=41217.4 12609.2 3809.77 2915.27 1976.38 1546.46 921.192 704.255 641.623 491.361 450.737 446.689 429.798 308.495 296.763 287.857 268.82 284.304 268.19 267.768 244.812 219.526 189.207 183.648 165.95 163.645 136.862 122.287 120.538 114.543
threshold=0.84807692307692317 0.031608052183058809 1.5000000000000002 0.06990850950435247 0.90606162843004967 0.56280339805825252 1.0000000180025095e-35 0.90606162843004967 0.97634954844006583 1.0000000180025095e-35 0.19859154929577469 0.20995538796537258 0.098476102516739786 5.5000000000000009 0.12958686254540672 5.5000000000000009 0.22111111111111112 0.099907578558225532 0.90606162843004967 0.074393358876117519 0.12408609908609909 0.037268518518518527 0.86819889002531825 48.764516521011231 0.35806186018528913 0.1034670573210127 0.57137970130580984 0.23205128205128209 0.060026990553306354 0.95896025151583209
decision_type=8 8 2 10 2 10 10 2 2 2 10 10 10 2 10 2 10 10 2 10 10 10 2 2 10 10 10 10 10 2
left_child=3 6 9 10 15 14 -2 16 13 18 21 12 -9 -6 20 22 17 -7 -3 24 -5 28 -4 -10 -16 -8 -13 -12 -1 -21
right_child=1 2 4 5 8 7 25 11 23 -11 27 26 -14 -15 19 -17 -18 -19 -20 29 -22 -23 -24 -25 -26 -27 -28 -29 -30 -31
leaf_value=0.032706254571672387 0.090119433848083894 0.024195623715980802 -0.0069964327266157748 -0.05104280231219735 0.011459614477178475 -0.051922944563519584 0.05321799586751326 -0.032680113409338518 0.016678155517033076 0.01213593709143267 -0.035836658751524898 0.022538590123106536 -0.052591378536195887 0.0024755708157763812 -0.079316074058205677 -0.013055269657489713 -0.092163172671991589 -0.074864227194752775 0.038976431622684792 -0.10768598346848182 -0.0844771752076411 -0.027172637623982004 0.0026364320300694749 0.032276842932112269 -0.0250121778070127 0.0012189123850189587 -0.068606273310330618 -0.063338719733354962 -0.010527548482666035 -0.078212158089089129
leaf_weight=676.21345540881157 20994.939414143562 17075.033660724759 37422.906712710857 4542.2267334163189 153975.48766486347 14493.024382978678 6343.7214689254761 28034.877310961485 14447.489992856979 11324.46382804215 5184.3958909809589 168.32052209973335 17681.627114802599 50845.686755955219 3391.3625529110432 31004.060839921236 3030.1001026034355 8617.544685125351 43714.960724025965 6515.9227449893951 4233.4960206151009 11138.697683244944 44799.112668037415 15812.773619800806 675.39409977197647 669.48193889856339 7419.5493407547474 2351.9469802677631 13874.119891166687 1656.7458691895008
leaf_count=2600 88041 61210 123125 13311 532627 39996 24436 82089 50726 39630 15842 597 49353 172407 8383 100632 6881 22684 162508 14578 10894 34669 150578 57238 2027 2259 18134 6637 46249 4028
internal_value=0.000140576 0.0146694 0.0103413 -0.0485944 0.00600978 -0.0570869 0.0796371 -0.0507053 0.0112376 0.0312621 -0.022916 -0.0441114 -0.0403813 0.00922943 -0.0812112 -0.00484414 -0.064151 -0.0604778 0.0348249 -0.0912758 -0.067173 -0.0166068 -0.00174779 0.0248297 -0.0702999 0.0482556 -0.0665831 -0.0444208 -0.00851761 -0.101712
internal_weight=582116 448430 420422 133686 348308 100460 28008.1 79445 235081 72114.5 33225.4 53304.4 45716.5 204821 21015.1 113226 26140.7 23110.6 60790 12239.4 8775.72 25689 82222 30260.3 4066.76 7013.2 7587.87 7536.34 14550.3 8172.67
internal_count=1944369 1565417 1450681 378952 1187333 272955 114736 219734 812998 263348 105997 150173 131442 705034 53221 374335 69561 62680 223718 29016 24205 83518 273703 107964 10410 26695 18731 22479 48849 18606
is_linear=0
shrinkage=0.1


Tree=8
num_leaves=31
num_cat=0
split_feature=5 5 52 0 5 10 4 4 1 10 5 0 58 0 0 59 1 5 5 10 5 0 10 10 59 9 10 5 5 10
split_gain=39615.4 11388.7 1920.46 1743.78 1150.04 712.591 453.675 359.001 821.747 316.754 243.188 231.527 216.241 193.072 160.438 153.866 133.687 127.369 121.288 108.568 106.49 169.11 102.151 101.171 85.3839 85.2494 92.3098 80.9097 79.0287 69.0843
threshold=0.1110810648398534 0.029908538117493343 1.5000000000000002 0.19538706256627789 0.066368993001900134 0.90606162843004967 0.013606071825249909 0.0081972720553651849 0.04332186424773226 0.95896025151583209 0.01044266286672829 0.12880184331797237 2.5000000000000004 0.26365441906653431 0.029631255487269536 9.5000000000000018 0.05853797829811537 0.23529857397504458 0.055319768648200027 0.99148920759090264 0.090044113344962928 0.14590936739659369 0.95940082414522787 0.90069725596041394 9.5000000000000018 4.5000000000000009 0.89931210280047502 0.20191733296572009 0.15252390975222482 0.89731434751261729
decision_type=10 8 2 10 10 2 10 10 10 2 10 10 2 10 10 2 10 10 10 2 10 10 2 2 2 2 2 10 10 2
left_child=1 10 12 6 5 15 19 13 27 -7 -1 -8 23 -5 -12 -4 -13 28 24 25 21 -6 -18 -3 -14 -2 -27 -9 -10 -15
right_child=3 2 4 7 20 9 11 8 17 -11 14 16 18 29 -16 -17 22 -19 -20 -21 -22 -23 -24 -25 -26 26 -28 -29 -30 -31
leaf_value=-0.081732244221874514 0.077858295143293815 -0.022335721765501207 -0.0018578562377061895 0.1095930027323989 0.015183070349349259 -0.0073311638473072972 0.033396049679024813 0.085700536643398717 0.047396312631827794 -0.017310107724058887 -0.041247420932000838 0.04895483712017433 -0.022583126314376752 0.16491906494106476 -0.079274055988623401 0.0077498530841327677 0.072471385297431634 0.124734754692709 0.017210578970097097 -0.0041443525672403524 0.028114635561445774 -0.0543851055839411 0.049739298462323542 -0.035188961001096801 0.00296099707448675 0.11838249395342706 0.086205653819986017 -0.0006951702264546074 0.097542028924823665 0.13028538607017637
leaf_weight=21342.582186616957 5719.5204818099737 8358.0794316083193 46027.015116780996 7276.3461555689573 10397.268841817975 99464.046501889825 3125.3559142649174 122.13988573849201 331.40665107965469 46769.390194609761 2779.7033012807369 4984.5430703312159 9286.3298052996397 827.9961177110672 1848.7306394129992 26131.806056275964 10586.849465951324 1848.716203391552 1012.2535716146231 136.1061640381813 7940.3370955586433 361.51463301479816 2434.6617456972599 22964.179177120328 1522.4098175466061 1335.6103858202696 2698.8168865442276 961.44963605701923 6377.7580225765705 1917.5711083859205
leaf_count=151401 22546 50715 247373 23936 48287 565547 13152 468 1113 272629 18492 20960 57150 2030 11759 138787 38653 5060 4798 651 34680 1946 9891 148244 8984 4652 10491 4997 20069 5267
internal_value=-0.000319742 -0.0138747 -0.00800361 0.0815704 -0.00447221 -0.00651019 0.0668021 0.104869 0.0910883 -0.0105228 -0.0772249 0.0585273 -0.02741 0.118125 -0.0564385 0.00162137 0.0628888 0.101477 -0.015884 0.0844813 0.0193293 0.0128445 0.0682219 -0.0317595 -0.0189843 0.085719 0.0968604 0.00903394 0.0950665 0.140734
internal_weight=356890 306206 280235 50684.8 237091 218392 31021.5 19663.4 9641.47 146233 25971 21131.4 43143.3 10021.9 4628.43 72158.8 18006.1 8557.88 11821 9890.05 18699.1 10758.8 13021.5 31322.3 10808.7 9753.95 4034.43 1083.59 6709.16 2745.57
internal_count=1944728 1760792 1579140 183936 1309249 1224336 120996 62940 31707 838176 181652 82656 269891 31233 30251 386160 69504 26242 70932 38340 84913 50233 48544 198959 66134 37689 15143 5465 21182 7297
is_linear=0
shrinkage=0.1


Tree=9
num_leaves=31
num_cat=0
split_feature=6 4 1 6 59 10 1 1 5 5 19 57 5 10 10 10 10 6 1 5 5 10 5 10 57 4 11 36 5 10
split_gain=28165.9 9224.73 1813.77 1044.64 797.539 468.27 364.231 297.371 194.118 176.458 166.369 142.761 95.7066 88.8525 68.7655 65.6912 62.3625 58.6141 55.2911 52.026 47.4789 46.5025 45.7348 45.6773 45.4451 45.3182 40.9573 37.3739 36.9135 42.6886
threshold=0.1034670573210127 0.013606071825249909 0.18107302533532046 0.062440476190476192 1.5000000000000002 0.90606162843004967 0.14218328840970354 0.24662162162162166 0.062455799151343715 0.022990024543753495 4.5000000000000009 102.50000000000001 0.069704254079254097 0.95558226495726506 0.90606162843004967 0.95908039329091965 0.98297345928924884 0.095250626566416058 0.3257575757575758 0.088034591552938482 0.10734355044699873 0.98635073933107176 0.11527692895339957 0.96429940972650219 148.50000000000003 1.0000000180025095e-35 21.350396102314171 10.500000000000002 0.11931670573153143 0.95461190855927713
decision_type=10 8 10 10 2 2 10 10 10 10 2 2 10 2 2 2 2 10 10 10 10 2 10 2 2 10 2 2 10 2
left_child=1 25 6 4 24 11 20 8 14 16 -7 -6 -5 19 26 22 -8 -14 28 -11 23 -16 -10 -2 -3 -1 -4 -26 29 -9
right_child=2 3 7 12 5 10 9 18 15 13 -12 -13 17 -15 21 -17 -18 -19 -20 -21 -22 -23 -24 -25 27 -27 -28 -29 -30 -31
leaf_value=-0.079478541989219054 0.060296677519870882 -0.04486693276398597 0.10994184268128926 0.038776422349519793 0.024376247745630467 -0.0029866517566899515 0.098156583763093164 0.1534865407437695 0.10821129432699905 0.082357372258459099 -0.012452459136960033 8.4422838410387895e-05 0.012380501991565887 0.051861084169146567 0.11750023681272154 0.069370262805005037 0.037822626465724929 0.029543692652674453 0.1744400339553584 0.064185787095228569 0.036804480567238923 0.055263586010314149 0.084013341179585616 0.031095243305179422 -0.028399291810363592 -0.048571216747143327 0.14809260890429229 -0.0062114157002455227 0.10579409768829551 0.11724973936394001
leaf_weight=19110.913717709482 3159.7633417919278 1622.2249297648668 360.26245723664761 2213.7017380818725 2543.3495637476444 24016.190537244081 3939.5845908299088 1411.7100124359131 2500.6146811246872 4418.5911439061165 81888.390102274716 49621.675995633006 9185.4757353812456 1992.7508441656828 3273.7621522545815 827.75444948673248 179.67910601943731 2541.7876134216785 599.58350217342377 2459.8243308290839 2177.702776260674 125.26752128452063 1143.1380798593163 646.89221585541964 15210.515539862216 488.21505112200975 1326.6541438102722 800.27552835643291 277.18566676974297 426.09708146750927
leaf_count=181253 20473 16061 1956 16768 19965 205882 25230 6181 12175 26308 701142 396145 58961 12499 18400 4308 1231 15523 2274 12808 12399 796 4961 4458 144378 5047 6778 7299 1055 2014
internal_value=-0.000170785 -0.0133957 0.0883889 -0.00664569 -0.00873633 -0.00648602 0.0690119 0.118348 0.110048 0.0784168 -0.010306 0.00126898 0.0197027 0.0704705 0.123418 0.0948394 0.0955273 0.0161013 0.147568 0.0758604 0.0485946 0.11521 0.100623 0.0553369 -0.0289084 -0.0787091 0.139951 -0.0272909 0.139945 0.14509
internal_weight=240490 209243 31246.8 189644 175703 158070 18974.8 12272 9557.45 12990.4 105905 52165 13941 8871.17 5085.95 4471.51 4119.26 11727.3 2714.58 6878.42 5984.36 3399.03 3643.75 3806.66 17633 19599.1 1686.92 16010.8 2114.99 1837.81
internal_count=1944728 1768424 176304 1582124 1490872 1323134 115406 60898 49374 78076 907024 416110 91252 51615 27930 21444 26461 74484 11524 39116 37330 19196 17136 24931 167738 186300 8734 151677 9250 8195
is_linear=0
shrinkage=0.1


Tree=10
num_leaves=31
num_cat=0
split_feature=3 3 5 3 5 4 4 5 59 5 4 58 7 5 52 4 5 5 6 3 0 1 52 4 7 5 0 4 6 7
split_gain=3517.42 1063.75 384.087 280.785 170.74 166.788 157.06 121.531 117.975 104.278 101.224 96.4507 98.059 94.2916 76.6332 73.2899 72.3305 70.969 74.5482 68.1561 83.3709 106.205 64.2028 57.5456 52.5614 47.6162 46.8614 37.8454 37.5561 35.6302
threshold=0.69732205778717427 0.62082869855394895 0.083359794898106049 0.7770467836257311 0.057551940446545401 0.074393358876117519 0.01417005500218718 0.15341518180501237 1.5000000000000002 0.18336167800453518 0.06472559698366151 3.5000000000000004 0.6428981054787507 0.054095969832655084 1.0000000180025095e-35 0.041494490358126725 0.20002195871761094 0.022227711901624949 0.17245398279881044 0.97530487804878063 0.027100470035252646 1.0000000180025095e-35 1.0000000180025095e-35 0.13079116179615113 0.64519046428273741 0.027864124779309458 0.22361111111111112 0.11089152393500221 0.20890945890945892 0.62505479126488883
decision_type=10 8 10 10 10 10 10 10 2 10 10 2 8 10 2 10 10 10 10 10 10 10 2 10 10 10 10 10 10 10
left_child=1 2 5 13 8 25 9 23 22 -4 16 14 -13 28 -10 26 29 18 -7 20 21 -5 -3 -8 -12 -1 -15 -9 -2 -6
right_child=3 4 6 19 10 17 7 27 11 -11 24 12 -14 15 -16 -17 -18 -19 -20 -21 -22 -23 -24 -25 -26 -27 -28 -29 -30 -31
leaf_value=0.13824748973821288 -0.0085012565947510752 -0.0045096533999088315 0.080430115105215985 -0.018684725761770098 0.040558765347352504 0.1010006915926992 0.031901608615972313 0.0043528543240117651 -0.015659687142361812 0.016270312329504422 -0.013545343685199643 0.054735069143669435 0.0033546145019474451 -0.018958655852914147 0.01452971297004094 -0.053553538681076186 -0.024646588985070304 0.041379962937939024 0.03555532995220978 -0.075229575671371604 -0.068356664319766086 -0.058014201968884342 -0.037830243712636075 -0.00035560753865865953 -0.041744259253166105 0.086603885687994736 -0.056034513765251093 -0.02729161107532161 -0.055545615419470597 0.0043491250157102878
leaf_weight=253.90225962176919 1715.685903351754 7592.2581213675439 711.03257813304663 1109.1914568953216 338.64941413700581 483.87254502251744 3207.0695903636515 1271.0713757053018 893.83408869430423 394.19266806915402 1281.8561281375587 373.96899482235312 55604.417654063553 1621.210005197674 14100.296081770211 2037.2727857045829 817.30920240655541 1975.3629035428166 272.71487346291542 2234.4558657296002 2358.8698715344071 1806.0178305506706 626.09141642227769 667.54521706327796 1367.7577445581555 610.20405096188188 432.30065680295229 537.65582821890712 188.4663829356432 1380.1186846159399
leaf_count=3503 30348 152786 9425 26683 4829 7169 45113 17284 18208 4942 18769 6080 1008142 25444 257238 32934 11176 29040 4007 59121 44198 39516 12896 8771 20985 8463 6067 6930 3132 21529
internal_value=5.43092e-05 0.00685859 0.0370596 -0.0476943 0.00314148 0.063485 0.02306 0.01635 0.00429271 0.0575558 -0.014437 0.00560621 0.00369805 -0.0315528 0.0127294 -0.0401104 -0.000152351 0.0513656 0.0774239 -0.0605806 -0.0543724 -0.0430534 -0.0070493 0.0263415 -0.0281057 0.10179 -0.0267687 -0.00504814 -0.0131628 0.0114893
internal_weight=108265 94761.2 10384.6 13503.5 84376.6 3596.06 6788.57 5683.34 79190.9 1105.23 5185.69 70972.5 55978.4 5994.94 14994.1 4090.78 2536.08 2731.95 756.587 7508.54 5274.08 2915.21 8218.35 3874.61 2649.61 864.106 2053.51 1808.73 1904.15 1718.77
internal_count=1944728 1677285 144647 267443 1532638 52182 92465 78098 1455350 14367 77288 1289668 1014222 97925 275446 64445 37534 40216 11176 169518 110397 66199 165682 53884 39754 11966 31511 24214 33480 26358
is_linear=0
shrinkage=0.1


Tree=11
num_leaves=31
num_cat=0
split_feature=3 5 52 0 10 2 4 10 0 55 10 1 6 11 0 9 10 1 10 11 10 0 0 1 1 4 19 6 2 10
split_gain=29405.6 10565.9 2970.26 2013.21 1492.46 1141.13 880.904 567.538 462.483 442.027 410.275 299.586 289.605 267.455 258.103 240.68 234.56 227.937 174.432 167.593 160.772 156.244 150.485 124.475 124.065 123.023 122.836 119.974 109.528 106.27
threshold=0.84807692307692317 0.029908538117493343 1.5000000000000002 0.06990850950435247 0.90606162843004967 0.60069471526145146 1.0000000180025095e-35 0.97634954844006583 0.1623310810810811 1.0000000180025095e-35 0.90069725596041394 0.18677325581395351 0.14283901918976546 29.094594482182575 0.20995538796537258 5.5000000000000009 0.90606162843004967 0.076726844583987458 0.95940082414522787 50.143517058520352 0.86819889002531825 0.037268518518518527 0.21702898550724639 0.13586239961644495 0.099390592328428021 0.01417005500218718 4.5000000000000009 0.052674588409450086 0.64739304812834242 0.95896025151583209
decision_type=8 8 2 10 2 10 10 2 10 2 2 10 10 2 10 2 2 10 2 2 2 10 10 10 10 10 2 10 10 2
left_child=3 6 9 11 15 8 -2 13 12 16 22 21 27 -6 18 20 -3 25 -12 -9 -4 -1 24 -8 -7 -10 -18 -5 -13 -19
right_child=1 2 4 5 7 10 23 19 17 -11 14 28 -14 -15 -16 -17 26 29 -20 -21 -22 -23 -24 -25 -26 -27 -28 -29 -30 -31
leaf_value=-0.0061866871708610932 0.08625540766648726 0.021225643202375861 -0.006155185241566768 -0.026360685485929743 0.0012172782036859028 -0.041006248727047501 0.048763993684379274 0.015310798003939731 -0.067337678221031622 0.0095647939274726233 -0.033950896861171094 -0.048051502926421921 -0.067637483942841123 0.0098879886067039045 -0.0514010307901481 -0.011642262932481356 0.03036756522221154 -0.084711992342136541 -0.01866458963678462 0.030350002491598756 0.0027086800883466596 -0.022144907893740687 -0.07351539579134507 0.0057747273157197866 -0.058935817520143464 -0.039715455547240555 0.041217210282479703 -0.047412569936387761 -0.025406952206875832 -0.060969579687146142
leaf_weight=14101.237139821053 18943.238740712404 16765.129647538066 37624.257180064917 3429.6083548069 45986.537250563502 11626.195678710938 5820.43468567729 15013.662195667624 4291.1768606603146 11199.856099590659 26421.556546121836 3573.5004817247391 6737.1134214103222 157165.45791105926 6392.7952354848385 31228.475488305092 23410.708399370313 9318.5594157576561 10409.331098198891 14638.313358664513 44860.014526069164 10863.882999956608 2434.5578889846802 762.28364281356335 5783.5529453158379 2586.7163178920746 18846.447990015149 12894.140270441771 5318.1383694708347 2367.8057259619236
leaf_count=47080 87401 61322 123284 10305 157940 30808 23731 53591 9927 39620 72675 10050 16620 547784 15032 100561 89694 19969 30130 54311 150807 33180 5195 2614 14553 6953 73116 35254 15684 5537
internal_value=0.000257061 0.0128509 0.00902553 -0.0399437 0.005225 -0.0467987 0.075304 0.0098117 -0.0596501 0.0277794 -0.0383166 -0.018746 -0.0501912 0.00792529 -0.0328509 -0.00416526 0.0312356 -0.0713995 -0.0296309 0.0227356 -0.00133435 -0.0131315 -0.0502211 0.0437873 -0.0469631 -0.0569507 0.0352067 -0.0429902 -0.0345088 -0.0799023
internal_weight=580815 442265 416739 138550 346517 104693 25526 232804 41625.1 70222.1 63068 33856.8 23060.9 203152 43223.7 113713 59022.3 18564.3 36830.9 29652 82484.3 24965.1 19844.3 6582.72 17409.7 6877.89 42257.2 16323.7 8891.64 11686.4
internal_count=1944728 1565776 1452030 378952 1188278 272958 113746 813626 104565 263752 168393 105994 62179 705724 117837 374652 224132 42386 102805 107902 274091 80260 50556 26345 45361 16880 162810 45559 25734 25506
is_linear=0
shrinkage=0.1


Tree=12
num_leaves=31
num_cat=0
split_feature=5 5 52 0 5 10 4 1 57 0 5 58 0 0 0 0 4 0 1 5 36 5 5 10 0 2 59 10 10 10
split_gain=29615.3 10175.6 1523.92 1265.89 723.545 552.421 321.12 644.082 281.029 254.183 213.715 185.496 181.497 159.151 152.293 129.245 111.942 106.38 104.23 94.9668 87.3741 82.0404 77.5726 72.8937 71.2041 101.344 68.9899 68.0103 62.8665 59.9084
threshold=0.10623883755241499 0.027864124779309458 1.5000000000000002 0.17974358974358975 0.066368993001900134 0.90606162843004967 0.0081972720553651849 0.04332186424773226 287.50000000000006 0.15300120048019211 0.01044266286672829 2.5000000000000004 0.24662162162162166 0.027874902874902876 0.067321310546690591 0.24662162162162166 0.01417005500218718 0.16740412979351035 0.073350071736011491 0.087741303312901461 17.500000000000004 0.055319768648200027 0.13812501312501316 0.99205899035734546 0.30881190727081148 0.66738651189994158 9.5000000000000018 0.88035959674387942 0.95505752992609294 0.99148920759090264
decision_type=10 8 2 10 10 2 10 10 2 10 10 2 10 10 10 10 10 10 10 10 2 10 10 2 10 10 2 2 2 2
left_child=1 10 11 9 5 14 12 24 -7 28 -1 20 23 -12 -4 22 29 19 -18 -6 27 26 -9 -5 25 -8 -13 -3 -2 -11
right_child=3 2 4 6 17 8 7 15 -10 16 13 21 -14 -15 -16 -17 18 -19 -20 -21 -22 -23 -24 -25 -26 -27 -28 -29 -30 -31
leaf_value=-0.080452066968467364 0.042478357999238658 -0.019638806033959899 0.0016065796724308503 0.085653169569330487 0.0092528947524240773 -0.012829050529300008 0.070254553276640985 0.028256003244435408 -0.0036705861943645592 0.069912329553610736 -0.038153294170739142 -0.020225933339157117 0.10942201479417096 -0.078775071567536173 -0.051202726056577608 0.096331088810280366 0.040447383766500845 -0.045359169467955332 0.060468032220419535 0.023817647840890264 -0.0018169693342214605 0.012841041677999153 0.074353031806616982 0.008330479761811161 -0.025563945901680742 0.0025307332749871575 0.0028667657775863957 -0.032493709669777333 0.023117012531942455 -0.017817032712272623
leaf_weight=19395.637986108661 7427.8782492280006 4976.981403440237 72002.359645448625 9823.9405460208654 10171.310893878341 91828.437337972224 314.16366808116436 380.15722973644733 52757.555055335164 6370.8498318493366 2328.2404131367803 9024.7945415079594 4235.7633801847696 1648.5090289264917 550.24673062562943 2982.949376732111 4449.6809483170509 290.135563403368 6271.9894203543663 8000.9314242005348 1121.2165327519178 1015.4446509927511 9645.0868253558874 123.74297839403152 431.62506522238255 745.91689458489418 1509.3288457840681 23903.660272806883 2169.5164575874805 78.618580043315887
leaf_count=151192 28264 31005 384173 30655 46401 537518 1186 1295 302157 23173 16605 57308 10597 11349 2729 7532 17674 1452 21973 33678 7174 4707 29308 508 2388 3412 8998 160608 9180 378
internal_value=-0.000366266 -0.0127561 -0.00741249 0.0667811 -0.00429838 -0.00591433 0.0813778 0.0709101 -0.00948731 0.0511399 -0.076121 -0.0250696 0.0920783 -0.054995 0.00120593 0.0780473 0.0584261 0.0147065 0.05216 0.0156661 -0.0292154 -0.0142991 0.072606 0.0846923 0.00866465 0.0226107 -0.0169163 -0.0302788 0.0381027 0.0688414
internal_weight=355977 300525 277152 55451.9 235601 217139 28683.3 14499.9 144586 26768.5 23372.4 41551.4 14183.4 3976.75 72552.6 13008.2 17171.1 18462.4 10721.7 18172.2 30001.9 11549.6 10025.2 9947.68 1491.71 1060.08 10534.1 28880.6 9597.39 6449.47
internal_count=1944577 1757054 1577908 187523 1308108 1226577 86881 45121 839675 100642 179146 269800 41760 27954 386902 38135 63198 81531 39647 80079 198787 71013 30603 31163 6986 4598 66306 191613 37444 23551
is_linear=0
shrinkage=0.1


Tree=13
num_leaves=31
num_cat=0
split_feature=6 4 1 52 6 10 1 58 5 5 58 10 5 1 6 10 5 1 10 10 57 10 1 10 10 34 10 4 10 11
split_gain=21175.2 8524.12 1192.96 780.401 611.579 356.613 273.515 181.057 179.486 176.928 127.456 89.037 77.6221 76.5795 61.1666 60.943 55.1292 49.4218 46.7469 44.7333 39.4042 37.7391 39.8791 35.8191 35.1581 30.2312 26.7679 25.236 24.7086 24.5594
threshold=0.1034670573210127 0.010804934812901722 0.16552511415525115 1.0000000180025095e-35 0.066632653061224498 0.90069725596041394 0.22792207792207794 3.5000000000000004 0.015511291725992724 0.055319768648200027 3.5000000000000004 0.95461190855927713 0.035810992633455559 0.14093535572408813 0.13333664456852864 0.90480055658627101 0.066368993001900134 0.086114200964034132 0.86551368952684749 0.98297345928924884 162.50000000000003 0.97002809975412718 0.3585714285714286 0.97507516481924228 0.95424734653870025 1.0000000180025095e-35 0.95350361335040368 1.0000000180025095e-35 0.95727759329178619 21.624434736794907
decision_type=10 8 10 2 10 2 10 2 10 10 2 2 10 10 10 2 10 10 2 2 2 2 10 2 2 2 2 10 2 2
left_child=1 27 8 18 5 10 9 -7 24 15 -5 13 -6 25 -11 29 21 -14 -3 -17 28 22 -8 -16 26 -10 -2 -1 -20 -4
right_child=2 3 6 4 12 7 16 -9 11 14 -12 -13 17 -15 23 19 -18 -19 20 -21 -22 -23 -24 -25 -26 -27 -28 -29 -30 -31
leaf_value=-0.078775500508197399 0.078540282114326093 -0.011952035802489352 0.088691552283779021 0.011284692504628048 0.04501348954105213 -0.00075333280638387829 0.1241331617068908 -0.010971526284162449 0.059171588858153414 0.036926677076397553 -0.0012410612281308873 0.031191315429712936 0.0062378476929745175 0.059700656753499018 0.077192715027468731 0.090620099548927718 0.098825615536978606 0.019350485055320971 -0.021858227050793239 0.048849240389992006 -0.036677563755053835 0.087939036637929402 0.18291456873360257 0.050645899471045419 0.054930713869734096 0.037669133658196893 0.31015966876055778 -0.049130032577282781 -0.031667935875144153 0.11311215530275563
leaf_weight=17571.467061050236 2503.1450008302927 2106.5268240198493 532.73427560925484 10244.080669023097 899.32728103548288 21736.037745565176 1978.8086634129286 85795.617436051369 805.99577637016773 450.19214117527008 39242.817204222083 2783.2662314102054 4519.0218204632401 5209.4972816854715 6260.4801667481661 4543.9940732568502 1567.9311666190624 7910.5295884013176 8083.1595197618008 272.84715783596039 3811.8280683532357 273.00439116358757 123.39777691662312 555.69763845205307 804.21829066425562 3515.0190943032503 5.0291188806295386 293.75916691124439 3774.1453478783369 1886.6909967362881
leaf_count=181282 15264 19742 2733 82039 6915 190453 7942 741640 4569 2175 311245 17238 28800 27959 28437 23969 5740 48108 79375 1636 37586 1219 397 2875 5108 20028 25 3254 37774 9050
internal_value=-0.000197891 -0.0122769 0.0728279 -0.00600804 -0.00392739 -0.00567318 0.090051 -0.00890615 0.0524964 0.0836988 0.00135164 0.0469355 0.0166378 0.0515324 0.0726706 0.0947716 0.113411 0.0145839 -0.0259466 0.0882561 -0.0278274 0.123035 0.127588 0.0750299 0.0731658 0.0416823 0.0790087 -0.0782886 -0.0249815 0.107739
internal_weight=240060 205988 34071.9 188123 170347 157019 18445.8 107532 15626.2 14502.6 49486.9 12313.8 13328.9 9530.51 7266.37 7236.27 3943.14 12429.6 17775.7 4816.84 15669.1 2375.21 2102.21 6816.18 3312.39 4321.01 2508.17 17865.2 11857.3 2419.43
internal_count=1944577 1768213 176364 1583677 1409200 1325377 86173 932093 90191 70875 393284 69794 83823 52556 33487 37388 15298 76908 174477 25605 154735 9558 8339 31312 20397 24597 15289 184536 117149 11783
is_linear=0
shrinkage=0.1


Tree=14
num_leaves=31
num_cat=0
split_feature=3 3 5 3 4 5 10 2 4 6 5 5 3 5 1 6 10 52 5 4 5 5 57 2 5 7 6 7 2 5
split_gain=3075.52 766.08 308.617 248.541 212.726 186.715 160.61 107.18 97.7859 97.6418 94.8661 71.642 70.5862 81.4347 115.456 70.5398 68.4725 67.4774 60.0685 54.1367 49.8976 45.3837 43.4983 41.3135 40.859 39.0988 35.7226 35.0077 34.3252 31.9881
threshold=0.69732205778717427 0.62119246434243858 0.10378776504345798 0.7770467836257311 0.050316455696202543 0.065991037219485502 0.90606162843004967 0.58387445887445899 0.06472559698366151 0.081126960293626968 0.037051396930429192 0.22228832860845535 0.98533818493150693 0.022227711901624949 1.0000000180025095e-35 0.15555937118437121 0.99205899035734546 1.5000000000000002 0.22031374000906981 0.040270270270270282 0.15341518180501237 0.20002195871761094 100.50000000000001 0.52277432712215333 0.075997778081111425 0.6428981054787507 0.20455812303638396 0.68181878990574651 0.58387445887445899 0.068608057908259371
decision_type=10 8 10 10 10 10 2 10 10 10 10 10 10 10 10 10 2 2 10 10 10 10 2 10 10 10 10 10 10 10
left_child=1 2 4 10 23 6 22 15 18 11 26 28 13 14 -5 -6 17 -8 -7 21 -11 -12 -3 -1 -21 -10 27 -2 -4 -9
right_child=3 5 9 12 7 8 16 29 25 20 19 -13 -14 -15 -16 -17 -18 -19 -20 24 -22 -23 -24 -25 -26 -27 -28 -29 -30 -31
leaf_value=0.14064804868788247 0.058999700330326435 0.030747894416078992 0.048493309534305237 -0.014616582756400537 0.069006409774757346 0.0051294173696068597 -0.0062991252702159469 0.038887362210594183 -0.016628900830192205 0.011254499639100031 -0.017955459104700058 -0.009030714461112789 -0.075179903001876838 -0.066866589143330366 -0.056769684409703862 0.029674050348474604 -0.022720258991463047 0.0032722000989568729 -0.033881846214772457 -0.030353610743395307 -0.016282735532104589 -0.053749037736835606 0.0098660515477228053 0.081321163703900579 -0.057859418695385571 -0.042253719943864981 -0.050005424369102651 -0.0072885046369703449 0.021547780346178214 0.017714866792102209
leaf_weight=138.05291736125946 85.321149971336126 1039.8009381331503 1037.6666169129312 1032.6794523075223 1366.9585449211299 2094.5511651039124 8873.0519393570721 1189.2938386872411 1120.0421312823892 1617.2884023673832 1563.0359044373035 428.51173950731754 1904.6948426999152 2213.9525516480207 1755.7463666684926 685.81511966884136 1179.3325838968158 43345.819862857461 486.30279927328229 828.52247334644198 1109.3932448476553 458.72076457738876 24850.766083501279 807.17452896386385 1561.7160359919071 1275.5212427675724 183.96911542117596 1199.7374873906374 871.77089335396886 1791.3016742952168
leaf_count=1546 1451 18059 12453 26919 17780 31321 184083 16839 16256 21491 24719 6152 57146 44254 41102 8711 23929 798455 6219 14390 13985 6648 432966 10210 25758 19967 3178 21693 11656 25241
internal_value=0.000129107 0.00630781 0.0310734 -0.0459193 0.0464604 0.00306207 0.00424145 0.0382827 -0.0157269 0.0129077 -0.0308074 0.0279026 -0.0587849 -0.0525404 -0.0411621 0.0558707 0.00110732 0.00164565 -0.00221749 -0.0381368 4.68756e-05 -0.0260817 0.0107051 0.0899966 -0.0483293 -0.030277 -0.00878801 -0.00287953 0.0361963 0.0261663
internal_weight=108097 95308.4 11043.2 12788.1 5978.6 84265.2 79288.8 5033.37 4976.42 5064.63 5881.02 2337.95 6907.07 5002.38 2788.43 2052.77 53398.2 52218.9 2580.85 4412 2726.68 2021.76 25890.6 945.227 2390.24 2395.56 1469.03 1285.06 1909.44 2980.6
internal_count=1944577 1677319 146064 267258 80327 1531255 1457492 68571 73763 65737 97837 30261 169421 112275 68021 26491 1006467 982538 37540 71515 35476 31367 451025 11756 40148 36223 26322 23144 24109 42080
is_linear=0
shrinkage=0.1


Tree=15
num_leaves=31
num_cat=0
split_feature=3 3 52 0 10 3 1 0 10 5 0 10 11 1 0 4 6 9 59 9 4 0 10 8 10 1 10 2 8 0
split_gain=21504.1 8744.16 2459.9 1415.66 1167.35 929.484 806.519 516.825 457.059 338.936 295.446 294.57 267.741 248.44 245.278 232.673 208.131 197.345 196.271 164.675 160.591 221.529 139.461 134.148 125.121 117.311 116.118 115.574 109.035 95.9364
threshold=0.8452991452991454 0.93120351588911443 1.5000000000000002 0.088060627423334523 0.90606162843004967 0.97700845665961955 0.066300366300366315 0.17974358974358975 0.95896025151583209 0.01925824175824176 0.22111111111111112 0.86551368952684749 43.041516605363164 0.22996794871794876 0.052478580171358639 1.0000000180025095e-35 0.15154198871304139 5.5000000000000009 6.5000000000000009 5.5000000000000009 0.01417005500218718 0.30881190727081148 0.95461190855927713 3.5000000000000004 0.89056366658655783 0.10157209530827808 0.90069725596041394 0.44543650793650796 8.5000000000000018 0.33215962441314556
decision_type=8 10 2 10 2 10 10 10 2 10 10 2 2 10 10 10 10 2 2 2 10 10 2 2 2 10 2 10 2 10
left_child=3 2 11 13 17 9 10 16 19 15 24 -2 -10 14 26 -3 22 23 -13 -6 29 -22 -8 -4 -5 -16 -1 -9 -26 -12
right_child=1 5 4 6 8 -7 7 27 12 -11 20 18 -14 -15 25 -17 -18 -19 -20 -21 21 -23 -24 -25 28 -27 -28 -29 -30 -31
leaf_value=-0.021084068021460917 0.0078508153949456063 0.075527393930687844 0.0082527471490555279 -0.036052095791395428 0.0071278954113301214 0.088098700190081397 -0.04125777237321563 -0.087378556701227503 0.0078659177221475415 0.030281498124504626 -0.047096596017296662 0.029376454534333803 0.020094203343912757 -0.044357892619703465 -0.015280154161370031 0.04496016799674446 -0.054184746615625549 -0.010884094986873103 0.009466953515602965 -0.00032304986920932008 -0.055470511966842953 0.020473501649205576 -0.024083269042510676 -0.0032140701416505458 -0.012996559606982767 -0.030842075459588572 -0.0056923599292493625 -0.060076315531864634 -0.027184803498864558 -0.079512327369867436
leaf_weight=7079.3394687622786 8718.9247547537088 5377.6577582657337 11935.984073594213 7724.3506108820438 116475.86546392739 11446.602202817798 20330.55361533165 1719.0930106639862 31510.660052254796 5399.4639601260424 6482.59994328022 53716.151318252087 41480.581497326493 3757.8668325543404 7500.3265665769577 4642.3517097830772 10020.087264508009 31256.371223852038 5455.9453929364681 39793.86897058785 742.88815388083458 795.0532765686512 6165.1126857697964 70229.948921754956 9279.972909450531 13694.856792718172 15941.907668501139 15983.193352162838 13021.706259042025 1063.9993299245834
leaf_count=22007 31814 27214 40198 19768 408614 58527 52169 3257 111475 20736 14312 209992 151310 9711 22631 19985 23790 99962 20057 136452 1651 2631 16996 232134 26039 38015 51289 34587 35268 1986
internal_value=0.000283255 0.0112388 0.00762215 -0.0336325 0.00417685 0.0665094 -0.0408089 -0.0487046 0.0082821 0.050482 -0.029863 0.0250123 0.0148153 -0.0196714 -0.0175732 0.0613663 -0.0419059 -0.00412103 0.0275409 0.00523046 -0.0456655 -0.016204 -0.0372619 -0.0015482 -0.0250815 -0.0253357 -0.0104259 -0.0627282 -0.0212814 -0.0516682
internal_weight=578743 437440 410574 141303 342683 26866.1 93328.6 54218 229261 15419.5 39110.6 67891 72991.2 47974.3 44216.4 10020 36515.8 113422 59172.1 156270 9084.54 1537.94 26495.7 82165.9 30026 21195.2 23021.2 17702.3 22301.7 7546.6
internal_count=1944577 1568470 1442008 376107 1180145 126462 232454 130799 807851 67935 101655 261863 262785 143653 133942 47199 92955 372294 230049 545066 20580 4282 69165 272332 81075 60646 73296 37844 61307 16298
is_linear=0
shrinkage=0.1


Tree=16
num_leaves=31
num_cat=0
split_feature=5 5 52 5 5 10 57 0 5 5 58 8 0 4 1 3 0 0 3 8 11 1 10 0 10 5 11 10 5 4
split_gain=21885.7 9177.93 1198.15 884.925 513.228 456.399 343.034 281.233 205.775 175.145 169.576 167.68 164.144 154.852 206.782 129.247 100.207 99.4751 112.492 93.5441 85.7838 81.0409 80.8811 78.8333 77.4386 76.4585 72.4171 67.0271 66.5096 62.8334
threshold=0.10623883755241499 0.027047415298028048 1.5000000000000002 0.16329931972789116 0.0690107306486617 0.95727759329178619 285.50000000000006 0.22111111111111112 0.01044266286672829 0.13045431940892302 2.5000000000000004 7.5000000000000009 0.027100470035252646 0.01417005500218718 0.04332186424773226 0.56856030083266196 0.29705882352941182 0.3920793818054093 0.56646586345381544 8.5000000000000018 44.395939817280329 0.01526806526806527 0.97076972734867484 0.14342857142857143 0.86250147024229606 0.086964906051125682 29.695226291097519 0.95896025151583209 0.055319768648200027 0.036038961038961044
decision_type=10 8 2 10 10 2 2 10 10 10 2 2 10 10 10 10 10 10 10 2 2 10 2 10 2 10 2 2 10 10
left_child=1 8 10 9 5 6 -4 13 -1 -2 24 -7 -10 19 29 17 27 18 -9 -5 28 -19 -11 26 -3 -25 -6 -17 -12 -15
right_child=3 2 4 7 23 11 -8 15 12 22 20 -13 -14 14 -16 16 -18 21 -20 -21 -22 -23 -24 25 -26 -27 -28 -29 -30 -31
leaf_value=-0.079280491715267215 0.026530496624348178 -0.012398764528504969 -0.0061300035057155807 0.055749203620260659 0.023278538833410946 -0.021216155562378027 0.0032212939567036157 0.0706855097905216 -0.034137425716107006 0.048072776388029717 -0.0093029987941463908 -0.0091252352470971229 -0.077849129571865627 0.040595571398930705 0.056074189197777104 0.080274127026159145 0.098192168125383505 0.12433562594019239 -0.02209599385142369 0.075379787495633427 -0.024942176863687087 -0.0051960958866781688 0.023592707547331785 -0.059964647415737843 -0.028454347244769279 0.0036793095359515787 0.0093952929994048952 0.058411021333115459 0.021536259874169395 0.0032726021716408139
leaf_weight=17657.11799736321 6859.5190852433443 3407.8781184703112 105892.16768725216 4107.8626077920198 5781.5561706274748 18269.633785046637 62309.353527225554 2079.6637130975723 2016.3538153469563 14047.338565140963 6970.0429930612445 30831.739598326385 1498.4626392126083 803.59450505673885 10392.226743891835 6866.3740591257811 2606.0368608683348 55.618239015340805 139.26679001748562 5954.9603547602892 3572.2824921086431 366.29159915447235 1494.9756626039743 277.46558611094952 25497.618405431509 589.6310808211565 10742.253785595298 1767.1250774562359 777.14885956048965 1029.666342228651
leaf_count=151349 25817 21453 596082 13396 23905 111330 342801 5121 15248 48504 44572 184370 11132 3053 32240 17245 5617 112 810 18436 23142 1800 5946 1574 177536 2584 46243 4897 3464 4476
internal_value=-0.00038959 -0.011438 -0.00655217 0.0554633 -0.00381905 -0.005142 -0.00266581 0.0651374 -0.0748808 0.0398437 -0.0224984 -0.0136242 -0.0527758 0.0581767 0.0506113 0.0763136 0.080993 0.0563938 0.0648578 0.0673672 -0.0121212 0.0118557 0.0457187 0.0127109 -0.0265618 -0.0166748 0.0142535 0.0758003 -0.00620811 0.0196383
internal_weight=354661 296091 274919 58570.5 234694 217303 168202 36168.7 21171.9 22401.8 40225 49101.4 3514.82 22288.3 12225.5 13880.4 11239.5 2640.84 2218.93 10062.8 11319.5 421.91 15542.3 17390.9 28905.5 867.097 16523.8 8633.5 7747.19 1833.26
internal_count=1944255 1756785 1579056 187470 1308889 1234583 938883 107203 177729 80267 270167 295700 26380 71601 39769 35602 27759 7843 5931 31832 71178 1912 54450 74306 198989 4158 70148 22142 48036 7529
is_linear=0
shrinkage=0.1


Tree=17
num_leaves=31
num_cat=0
split_feature=6 4 6 59 6 10 1 57 57 5 6 5 5 10 10 59 1 3 1 10 4 4 10 1 2 1 8 25 5 11
split_gain=16009.2 7847.23 835.475 626.585 444.265 294.346 268.881 146.539 129.735 100.026 91.1111 80.0282 75.4356 62.21 49.4622 46.0443 43.702 41.0103 39.6028 37.5444 47.3372 33.198 32.803 30.3829 29.4836 28.4677 27.1227 27.1113 26.9174 25.7435
threshold=0.1034670573210127 0.012490249609984402 0.15154198871304139 1.5000000000000002 0.062440476190476192 0.90606162843004967 0.19859154929577469 100.50000000000001 166.50000000000003 0.021281699970021606 0.12505787037037039 0.035810992633455559 0.049958574979287497 0.97414104646868382 0.98764880952380973 1.0000000180025095e-35 0.080018832391713771 0.76882591093117425 0.27888888888888896 0.95896025151583209 0.15022123893805314 1.0000000180025095e-35 0.97076972734867484 0.14218328840970354 0.76764950166112966 0.2752525252525253 7.5000000000000009 9.5000000000000018 0.10529779174137384 18.365875329988878
decision_type=10 8 10 2 10 2 10 2 2 10 10 10 10 2 2 2 10 10 10 2 10 10 2 10 10 10 2 2 10 2
left_child=1 21 10 15 5 8 9 -7 -5 14 28 -6 18 17 -4 22 -13 23 26 29 -21 -1 27 -12 -19 -14 -8 -3 -2 -11
right_child=2 3 6 4 11 7 12 -9 -10 19 13 16 25 -15 -16 -17 -18 24 -20 20 -22 -23 -24 -25 -26 -27 -28 -29 -30 -31
leaf_value=-0.078166841613782304 0.038579902672109569 -0.015936797137070698 0.075742470010079666 0.0099275421513363646 0.039054779437966085 0.0098961650359225689 0.078309924177951656 -0.0090831160694688166 -0.0018398765846972375 0.037461219496018834 0.037159692652627627 0.0015460364451096594 0.072354327464975735 0.021269539173965471 0.0064367602872343194 -0.038835388930104901 0.014354281640819616 0.096526841949168385 0.11149826560678439 0.084370679511825808 0.032738296656963511 -0.047890922163314843 -0.033369892589797272 0.0512332236072977 0.058748087675031514 0.09400307081493714 0.094378846935867733 -0.025399455145266606 0.023500921204126363 0.060739898841207465
leaf_weight=16075.14112431556 2211.3543939515948 6780.6325086802244 4392.2135822474957 12215.399422734976 1092.3576846122742 4242.3074224367738 1638.4414477348328 98813.61079441756 40204.924947805703 524.26849795877934 2244.200347661972 3644.061894826591 4254.0693175643682 829.44311451166868 105.77177308499813 1881.4881177544594 9922.6721576824784 249.19623271375895 915.75743745267391 208.92977495491505 1196.4091518372297 372.29166429489851 2227.2971386164427 4894.8140707612038 1239.7825635522604 712.98074953258038 2980.7261707484722 5485.309119194746 2560.1883612424135 5318.7487583011389
leaf_count=181367 12749 68642 22594 96428 8415 37236 7084 869907 319651 2462 12740 23070 16371 5137 655 20003 59149 1278 3032 1031 6419 4371 23492 25324 7112 2171 12615 56250 12933 24567
internal_value=-0.000304594 -0.0112669 0.0606887 -0.00542762 -0.00362939 -0.00519852 0.0727923 -0.00830173 0.00090207 0.0623942 0.0417628 0.0130123 0.0844214 0.0474486 0.0741149 -0.0241108 0.0109147 0.0499641 0.0924582 0.0551195 0.0404215 -0.0774821 -0.0221986 0.0468105 0.0650775 0.0754638 0.0886813 -0.0201693 0.0304913 0.0586529
internal_weight=239435 202957 36477.3 186510 170135 155476 22248.3 103056 52420.3 11746.3 14229 14659.1 10502 9457.44 4497.99 16374.7 13566.7 8627.99 5534.93 7248.36 1405.34 16447.4 14493.2 7139.01 1488.98 4967.05 4619.17 12265.9 4771.54 5843.02
internal_count=1944255 1767981 176274 1582243 1413856 1323222 99001 907143 416079 57728 77273 90634 41273 51591 23249 168387 82219 46454 22731 34479 7450 185738 148384 38064 8390 18542 19699 124892 25682 27029
is_linear=0
shrinkage=0.1


Tree=18
num_leaves=31
num_cat=0
split_feature=3 5 6 3 7 2 10 5 6 57 5 3 0 4 6 7 5 4 5 0 0 7 10 6 5 4 2 6 4 7
split_gain=2681.32 560.931 291.319 220.989 170.242 140.904 115.544 101.396 97.9985 91.3032 82.1075 71.4162 97.9486 125.036 68.7576 60.24 55.2679 51.8909 49.3664 44.9699 41.0732 39.3425 38.777 38.5879 36.4275 35.27 32.7 32.6004 28.9369 23.7769
threshold=0.69732205778717427 0.1033219178082192 0.13333664456852864 0.7770467836257311 0.62505479126488883 0.58387445887445899 0.95461190855927713 0.054095969832655084 0.074314939939939956 100.50000000000001 0.037051396930429192 0.97402159244264519 0.028778467908902695 1.0000000180025095e-35 0.076407342657342683 0.5775124598334318 0.041672913543228392 0.038278388278388288 0.05002415458937199 0.22361111111111112 0.20734437975817291 0.59967096916886298 0.99205899035734546 0.21060080623960084 0.075194444444444453 1.0000000180025095e-35 0.45584415584415588 0.15089313500293758 0.079877300613496946 0.6296522131887986
decision_type=10 8 10 10 10 10 2 10 10 2 10 10 10 10 8 10 10 10 10 10 10 10 2 10 10 8 10 10 10 10
left_child=1 2 5 10 6 16 9 21 20 -3 27 12 13 -5 -11 -9 -1 19 -7 -12 -6 -4 25 -23 -19 -8 -18 -2 -20 -29
right_child=3 4 7 11 8 18 22 15 -10 14 17 -13 -14 -15 -16 -17 26 24 28 -21 -22 23 -24 -25 -26 -27 -28 29 -30 -31
leaf_value=0.097005000500141075 0.013064454000986957 0.025128751119675011 0.050526890194591424 -0.010536055738620074 0.0030172127262505393 0.060169250870947655 0.034860658691959583 0.023997053137747498 -0.043141482148878349 0.02393906260041008 -0.016722624114293212 -0.074186836251403682 -0.066699184951917623 -0.055557472525708973 0.0050289699350485181 -0.016747299283644584 0.11366997587389814 -0.02930962474572292 0.042595782172761915 -0.054581008615944018 -0.028556506637475193 0.025484997982067249 -0.01967591325801421 -0.017050507181975368 -0.055461744623670518 -0.0016631046575157132 0.05324992335418996 0.078486525590482289 0.019733799430519949 -0.021730059973319088
leaf_weight=492.42766710370779 448.47202859446406 2503.9565555863082 484.79703267291188 1036.3804153949022 1412.4720895625651 556.91515318676829 268.13243672996759 482.74448781833053 1121.5735896974802 1987.7986180707812 1520.5936453789473 1740.4515121374279 2048.8884154353291 1526.2152707651258 59096.587930578738 1459.999333716929 97.023618038743734 805.42832663655281 825.76182371377945 395.87780398502946 581.4355655759573 1123.3898460641503 1200.9838400781155 262.9660442173481 1584.4101778008044 18882.254494734108 1222.7498363405466 24.215769611299038 1689.636936917901 986.86564611271024
leaf_count=5760 8301 43800 6305 28818 21772 7197 3311 5696 17054 24573 24222 59383 43242 37942 1055977 22126 1022 14280 10661 5981 8174 17830 24705 3924 27114 359130 14524 389 23487 17555
internal_value=0.000271663 0.00588037 0.0300938 -0.0440469 0.00346088 0.0462654 0.00431293 0.00938006 -0.0194925 0.0064119 -0.0298692 -0.0569149 -0.050394 -0.0373535 0.0056445 -0.00661775 0.0683853 -0.0368173 0.0332147 -0.0245481 -0.00618486 0.0259953 -0.00224488 0.0174096 -0.0466521 -0.0011512 0.0576993 -0.00936245 0.027243 -0.0193199
internal_weight=107871 95753.6 8698.41 12117.8 87055.2 4884.52 83939.7 3813.9 3115.48 63588.3 5765.86 6351.94 4611.48 2562.6 61084.4 1942.74 1812.2 4306.31 3072.31 1916.47 1993.91 1871.15 20351.4 1386.36 2389.84 19150.4 1319.77 1459.55 2515.4 1011.08
internal_count=1944255 1677028 118532 267227 1558496 62651 1511496 55881 47000 1124350 97842 169385 110002 66760 1080550 27822 21306 71597 41345 30203 29946 28059 387146 21754 41394 362441 15546 26245 34148 17944
is_linear=0
shrinkage=0.1


Tree=19
num_leaves=31
num_cat=0
split_feature=3 5 52 5 10 4 2 10 55 10 11 11 10 9 1 10 10 0 0 1 11 19 1 4 8 3 10 2 9 6
split_gain=15469.6 7393.85 1892.99 1068.51 881.913 812.074 759.755 524.63 340.585 300.214 258.033 256.173 244.896 243.011 201.727 183.475 165.099 164.494 134.959 120.617 114.232 113.33 104.522 103.665 101.191 101.101 94.1605 92.4823 86.6436 81.8046
threshold=0.84807692307692317 0.027864124779309458 1.5000000000000002 0.060325546140284569 0.95727759329178619 0.0081972720553651849 0.60292588969059568 0.8654408457040037 1.0000000180025095e-35 0.90069725596041394 43.041516605363164 78.428524848324358 0.95461190855927713 5.5000000000000009 0.19859154929577469 0.90606162843004967 0.99205899035734546 0.15227743271221536 0.17974358974358975 0.10157209530827808 6.8440528509449088 4.5000000000000009 0.082160077145612354 0.03980198019801981 7.5000000000000009 0.98129370629370638 0.97507516481924228 0.70750469043151976 5.5000000000000009 0.10408219365104301
decision_type=8 8 2 10 2 10 10 2 2 2 2 2 2 2 10 2 2 10 10 10 2 2 10 10 2 10 2 10 2 10
left_child=3 5 8 14 7 25 12 20 15 28 24 -12 17 -9 23 -3 18 19 -11 -5 -4 -17 -19 -1 -6 -2 27 -25 -8 -7
right_child=1 2 4 6 10 29 9 13 -10 16 11 -13 -14 -15 -16 21 -18 22 -20 -21 -22 -23 -24 26 -26 -27 -28 -29 -30 -31
leaf_value=0.025840320406174802 0.068836043806909997 0.016401496705434011 0.030049538841594566 -0.030882587654516975 0.013850548027171916 0.039403365966874576 -0.031812218700741683 0.0052494026587086625 0.0060895105195406876 -0.018440946053184439 0.020434798605635095 -0.0082112826623692969 -0.029202798655719016 -0.0024276729190154957 -0.025055681852104064 0.024274195452266042 0.020441037102576429 -0.044256112251593746 -0.030041782575540001 -0.04761910495686137 -0.0086430448498773429 0.035026601774695673 -0.060457152727753066 -0.016583547247641228 0.0025574889208333966 0.085515386597358634 0.011606835349936104 -0.0033294164217028523 -0.046044158045906884 0.0013447837544546999
leaf_weight=898.17855843901634 5837.1417225152254 16118.163161769509 774.71957787871361 7828.8288618922234 12465.104324102402 5096.6030693948269 15300.084271907806 158350.19173805416 10919.472303837538 30280.17062677443 40607.615160927176 3381.2436955422163 10169.435167863965 55746.004245683551 8951.2037454843521 22067.071739464998 922.60751691460609 6625.4155204594135 15001.364291518927 9583.5784469246864 50032.02587968111 17653.333645910025 10007.434409797192 11956.248145565391 21838.202364563942 9668.9650426954031 2066.2647817581892 9410.0257423222065 5944.6133762896061 635.76934882998466
leaf_count=3464 31936 61316 2644 21317 44980 22973 37526 551847 39682 82084 150464 12143 25596 187796 24509 89755 2748 15166 35851 23002 161449 73140 20301 36804 77303 55718 6834 29760 13980 2167
internal_value=0.000315547 0.009816 0.00683544 -0.0279469 0.00383839 0.0673475 -0.0326343 0.00108248 0.0222428 -0.0259555 0.0131629 0.0182327 -0.0428226 0.00325041 -0.0122196 0.0254014 -0.0214311 -0.0468906 -0.0222844 -0.0400947 -0.00805285 0.0290532 -0.0540043 -0.0074969 0.00666144 0.0792372 -0.00877515 -0.0107467 -0.035795 0.0351841
internal_weight=576137 431192 409953 144945 343195 21238.5 111664 264903 66758 67448.8 78292.2 43988.9 44214.7 214096 33281.9 55838.6 46204.1 34045.3 45281.5 17412.4 50806.7 39720.4 16632.8 24330.7 34303.3 15506.1 23432.5 21366.3 21244.7 5732.37
internal_count=1944255 1565313 1452519 378942 1188626 112794 277571 903736 263893 172189 284890 162607 105382 739643 101371 224211 120683 79786 117935 44319 164093 162895 35467 76862 122283 87654 73398 66564 51506 25140
is_linear=0
shrinkage=0.1


Tree=20
num_leaves=31
num_cat=0
split_feature=5 5 52 5 5 10 5 0 57 0 55 51 5 3 0 3 3 2 10 4 10 0 11 10 0 1 8 10 11 10
split_gain=16668.5 8282.48 949.295 661.254 420.084 378.048 262.516 223.004 212.995 170.367 149.603 134.205 113.949 104.41 100.23 92.3136 91.6085 264.363 89.8322 83.2775 67.6589 66.5891 64.542 59.3822 58.036 57.8493 56.604 54.0872 53.0632 51.9705
threshold=0.1110810648398534 0.029908538117493343 1.5000000000000002 0.16399982932241 0.075997778081111425 0.90069725596041394 0.01044266286672829 0.22111111111111112 227.50000000000003 0.029631255487269536 1.0000000180025095e-35 2.5000000000000004 0.13045431940892302 0.56856030083266196 0.3920793818054093 0.56646586345381544 0.69732205778717427 0.66738651189994158 0.92316126855600555 0.065901164703559931 0.8768064567812226 0.29705882352941182 48.285867042812306 0.92469435852113724 0.079823008849557536 0.062284482758620696 7.5000000000000009 0.90606162843004967 28.779188841644142 0.94516234386457898
decision_type=10 8 2 10 10 2 10 10 2 10 2 2 10 10 10 10 10 10 2 10 2 10 2 2 8 10 2 2 2 2
left_child=1 6 10 12 5 11 -1 16 -7 -8 18 -4 26 14 15 -9 17 20 24 -16 -5 -15 -18 -20 -3 -19 -2 -14 -12 -6
right_child=3 2 4 7 29 8 9 13 -10 -11 28 -13 27 21 19 -17 22 25 23 -21 -22 -23 -24 -25 -26 -27 -28 -29 -30 -31
leaf_value=-0.078198823638942289 0.0092122386846099687 0.031785121914822065 -0.0019673390306618323 0.06461267260646289 0.016519968226876781 -0.011928708106387118 -0.032473284834272045 0.060863360935070512 -0.0042282681447258523 -0.07553612627733837 0.005543120553665383 0.0070163440765560626 0.0461753327836886 0.065121448941091176 -0.010963977933047132 -0.022746030329218753 0.060640018829461677 -0.0049551555570471681 -0.052900562858116257 0.13960076134738522 0.04512296310195086 0.082921944170648368 0.04253359691715683 -0.026369433239749576 -0.017743611714088114 0.039742269634183806 0.029286785947019341 0.034071113314512957 -0.013007795440884654 0.0044233792078918876
leaf_weight=16063.004481464624 2160.6529564857483 240.86346391588449 42635.068355947733 2246.0543166697025 10360.997869610786 60837.33318978548 2369.5173397287726 2187.6540636569262 87716.984236598015 1501.903153732419 2250.4736620038748 27260.370471745729 5612.1950590014458 9083.2019643634558 389.10443867743015 140.35778038203716 8029.2607144266367 1222.4885496199131 886.38147892802954 40.561329066753387 8667.1572790294886 2741.532851561904 2614.2082979232073 17828.555966861546 12890.393921025097 379.32975189387798 4023.1848806589842 10832.370789185166 4893.2189223766327 5408.0615100860596
leaf_count=151368 8039 1357 227829 6166 41803 363845 18461 5133 510078 11788 13298 142284 17717 22141 1839 814 23921 5018 6661 77 26253 5616 8334 130574 87790 1194 14337 37602 30338 23435
internal_value=-0.000481936 -0.010336 -0.00579556 0.0473676 -0.00339049 -0.00452837 -0.072564 0.0554719 -0.00738189 -0.0491819 -0.020243 0.0015363 0.0338502 0.0651611 0.0476276 0.0558182 0.0493704 0.0435668 -0.0231769 0.00322637 0.0491351 0.0692493 0.0561937 -0.0276265 -0.0168344 0.00562349 0.0222743 0.0382026 -0.00716231 0.012372
internal_weight=353512 293143 273209 60369.3 234219 218450 19934.4 37740.9 148554 3871.42 38989.9 69895.4 22628.4 14582.4 2757.68 2328.01 23158.5 12515 31846.2 429.666 10913.2 11824.7 10643.5 18714.9 13131.3 1601.82 6183.84 16444.6 7143.69 15769.1
internal_count=1945110 1760909 1579292 184201 1309274 1244036 181617 106506 873923 30249 270018 370113 77695 35620 7863 5947 70886 38631 226382 1916 32419 27757 32255 137235 89147 6212 22376 55319 43636 65238
is_linear=0
shrinkage=0.1


Tree=21
num_leaves=31
num_cat=0
split_feature=6 4 6 59 19 6 1 10 5 58 3 5 40 57 10 57 1 6 10 10 8 36 10 10 8 9 10 8 4 57
split_gain=12359 7176.19 747.348 480.81 265.476 229.718 205.165 191.61 117.849 115.139 104.177 90.4169 77.3407 48.8851 48.5858 47.7934 39.9182 37.8999 39.2263 37.7903 34.5743 33.1655 32.0557 31.3221 29.4603 29.2266 27.1033 26.6742 25.8387 25.8134
threshold=0.099875953004778334 0.010084062097484919 0.15154198871304139 1.5000000000000002 2.5000000000000004 0.054374266869219083 0.21807065217391305 0.95940082414522787 0.081987279088086021 3.5000000000000004 0.80795574288724981 0.029908538117493343 1.0000000180025095e-35 106.50000000000001 0.86819889002531825 148.50000000000003 0.27888888888888896 0.11251281152227857 0.98635073933107176 0.98297345928924884 3.5000000000000004 10.500000000000002 0.96595468145345753 0.79887488768942316 19.500000000000004 3.5000000000000004 0.79887488768942316 21.500000000000004 0.15184453227931491 162.50000000000003
decision_type=10 8 10 2 2 10 10 2 10 2 10 10 2 2 2 2 10 10 2 2 2 2 2 2 2 2 2 2 10 2
left_child=1 -1 8 15 9 7 11 -6 14 12 -7 19 -5 -11 -2 -3 20 -10 -19 26 -8 29 -16 24 -13 -18 -4 -22 -25 -17
right_child=2 3 6 4 5 10 16 -9 17 13 -12 23 -14 -15 22 21 25 18 -20 -21 27 -23 -24 28 -26 -27 -28 -29 -30 -31
leaf_value=-0.077186695497877336 0.059840480985066627 -0.038873182455191641 0.0951906307605693 0.02160693469142904 -0.0041294830621835549 0.0058790769034686267 0.051019714026614087 -0.013530299027595231 0.017495043887577843 0.011607075884593122 0.0482661018447497 0.083912276747940273 -0.015344868755253777 -0.0041155515858056655 0.041777020732608569 -0.018855329131152822 0.074269212973736745 0.032618994519105625 -0.033161731345390973 0.027476102127261117 0.076777257448946271 0.00073097143983878775 0.023204944124668316 0.059352977160946396 -0.01513744460379152 0.10064625792653528 0.064428102472555857 0.034180672658856569 0.045836233059462689 -0.029688999760658669
leaf_weight=14905.356871768832 1322.3416158556938 1470.6019821986556 300.9081424921751 6438.1225748881698 111671.29900066555 12651.048794463277 686.11169005930424 26907.210141278803 3475.9405312910676 2993.1261441335082 607.78232036530972 388.67597815394402 620.73392018675804 5827.3619884997606 6207.3251411244273 10862.083069935441 729.31656713783741 4554.8203069120646 92.342675730586052 268.63857999444008 4122.5787621438503 735.73285889625549 1096.1350027993321 1743.8466621488333 32.359871029853821 1005.1441580653191 6602.9590011239052 153.33649633824825 7633.1735020130873 2763.3790923282504
leaf_count=183522 6993 16572 1298 52338 944718 77488 2559 248603 17944 23872 5467 1520 5310 48095 34238 114758 2267 21381 523 1533 14736 7341 6777 6999 143 2866 30646 576 33888 30139
internal_value=-0.000191552 -0.0104566 0.0502124 -0.0050376 -0.00346503 -0.0047517 0.0616524 -0.00595487 0.0340465 0.00883737 0.00782284 0.0558016 0.0183561 0.0012186 0.0421884 -0.0216962 0.0764784 0.0253995 0.0313097 0.0643375 0.0719034 -0.0199365 0.038991 0.049552 0.0762758 0.0895608 0.0657703 0.0752521 0.048351 -0.0210532
internal_weight=238870 198454 40416 183548 167717 151837 23667 138579 16748.9 15879.3 13258.8 16970.6 7058.86 8820.49 8625.8 15831.8 6696.49 8123.1 4647.16 7172.51 4962.03 14361.2 7303.46 9798.06 421.036 1734.46 6903.87 4275.92 9377.02 13625.5
internal_count=1945110 1758223 186887 1574701 1405891 1276276 99031 1193321 87856 129615 82955 76027 57648 71967 48008 168810 23004 39848 21904 33477 17871 152238 41015 42550 1663 5133 31944 15312 40887 144897
is_linear=0
shrinkage=0.1


Tree=22
num_leaves=31
num_cat=0
split_feature=7 5 3 4 6 5 5 1 3 10 0 1 6 7 6 57 6 5 3 4 7 7 57 3 5 0 7 5 57 5
split_gain=2344.75 502.346 307.865 224.884 128.553 116.11 108.121 97.5215 93.0688 92.1261 90.2318 98.8907 86.52 58.6147 56.1738 50.6128 49.7742 48.5188 47.4761 47.0699 46.0145 44.7811 38.3868 37.2641 35.6114 35.3623 35.0291 24.5841 24.0922 23.479
threshold=0.66663873760647963 0.13252719502719504 0.74700820223208297 0.077296489917849154 0.083434402608298305 0.055593958013312857 0.05002415458937199 0.062284482758620696 0.97530487804878063 0.90606162843004967 0.027874902874902876 1.0000000180025095e-35 0.15486575311942963 0.55161321340221525 0.19568322981366462 100.50000000000001 0.16674582876628916 0.18183822165858096 0.79361054766734285 0.013606071825249909 0.53847218672800079 0.55553926360377981 293.50000000000006 0.7770467836257311 0.086511484112372208 0.26201372997711675 0.59091115402389927 0.22228832860845535 100.50000000000001 0.15839585060729885
decision_type=10 8 10 10 10 10 10 10 10 2 10 10 10 10 10 2 10 8 10 10 10 10 2 10 10 10 10 10 2 8
left_child=1 3 6 19 9 14 16 25 10 22 11 -4 20 -14 26 -11 -2 -17 -13 -1 -7 -6 28 -12 -9 -8 -5 -23 -3 -24
right_child=2 4 8 5 21 12 7 24 -10 15 23 18 13 -15 -16 17 -18 -19 -20 -21 -22 27 29 -25 -26 -27 -28 -29 -30 -31
leaf_value=0.067844984728952215 0.016003957127225674 0.025779345442361545 -0.0057926614433260019 0.065542241273970292 -0.0010157809356288103 0.057564791527814477 -0.011388145420415765 -0.026782182836246355 -0.073522891227011972 0.017237608496285497 -0.044853177960484859 -0.023433632794288315 0.022001184902820645 -0.02462436085842723 0.008597699794250643 0.021279338429350911 -0.019227544121939423 0.00071595091279541415 -0.056854230464380366 0.041040255579718604 0.014509807621737234 -0.027226407787384135 0.041273115634421334 -0.066060151008373633 -0.053270140773975343 -0.070798718503769995 0.035278959039947433 -0.076027696223197647 0.010516537142956618 0.0024488569431918299
leaf_weight=1038.2104056440294 929.49722560122609 1099.2646970450878 922.60107643902302 608.41300147771835 761.82807186618447 265.72334786131978 2077.8922295086086 783.62714156508446 1514.5365990195423 2039.0559335835278 1464.7735511250794 640.26432082056999 371.19936606660485 983.86920871585608 514.73562570661306 1173.825600553304 705.21514509618282 51106.622304353863 1271.8512266185135 1785.8765388857573 3813.2629798389971 1288.8693299610168 158.89313044771552 1921.1725796367973 1450.919416192919 105.35195096582174 1037.2935420796275 112.52306549623609 17759.129096815363 8025.6407390460372
leaf_count=11055 16267 18119 26931 7198 9138 2979 33352 13873 58952 37959 25050 12721 4206 14007 7121 15503 12086 967938 35123 21124 51046 17912 1941 43227 24270 1605 14528 1426 305325 133128
internal_value=0.000446441 0.00609834 -0.0380628 0.0268033 0.00351558 0.0178422 -0.0211671 -0.0292975 -0.0512817 0.00415537 -0.045865 -0.032694 0.0100433 -0.0118447 0.0374539 0.00178088 0.000798965 0.00117784 -0.0456687 0.0508979 0.0173171 -0.0205434 0.0089245 -0.0568889 -0.0439856 -0.0142596 0.0464733 -0.031152 0.0114067 0.00320381
internal_weight=107732 93944.2 13787.7 10418.6 83525.7 7594.5 6052.5 4417.79 7735.2 81362.4 6220.66 2834.72 5434.05 1355.07 2160.44 54319.5 1634.71 52280.4 1912.12 2824.09 4078.99 2163.22 27042.9 3385.95 2234.55 2183.24 1645.71 1401.39 18858.4 8184.53
internal_count=1945110 1641653 303457 133264 1508389 101085 101453 73100 202004 1479913 143052 74775 72238 18213 28847 1021400 28353 983441 47844 32179 54025 28476 458513 68277 38143 34957 21726 19338 323444 135069
is_linear=0
shrinkage=0.1


Tree=23
num_leaves=31
num_cat=0
split_feature=3 3 52 3 5 10 1 10 55 0 5 5 9 4 10 11 10 8 10 1 4 1 10 11 19 1 10 7 10 10
split_gain=11326 6047.8 1530.66 871.758 786.798 734.72 466.818 364.24 293.794 284.449 276.518 262.74 212.423 210.526 157.56 152.759 152.702 174.215 152.117 151.41 289.218 147.611 146.276 139.28 127.358 101.479 83.5943 80.3954 78.9235 68.8153
threshold=0.8452991452991454 0.9331300813008131 1.5000000000000002 0.97700845665961955 0.055593958013312857 0.90606162843004967 0.099390592328428021 0.97634954844006583 1.0000000180025095e-35 0.17974358974358975 0.020280062671367022 0.13812501312501316 5.5000000000000009 0.0081972720553651849 0.86551368952684749 80.377649660046757 0.79538809144072309 18.500000000000004 0.89731434751261729 0.045715778474399171 0.013606071825249909 0.21807065217391305 0.95461190855927713 26.449105123454402 4.5000000000000009 0.21807065217391305 0.86551368952684749 0.61539966293487447 0.90352379235760638 0.90606162843004967
decision_type=8 10 2 10 10 2 10 2 2 10 10 10 2 10 2 2 2 2 2 10 10 10 2 2 2 10 2 10 2 2
left_child=4 2 8 10 21 16 9 12 14 22 13 18 -7 -3 -2 -9 17 -4 -8 20 -11 26 27 -18 -16 -20 -1 -6 -13 -10
right_child=1 3 5 -5 6 7 11 15 29 19 -12 28 -14 -15 24 -17 23 -19 25 -21 -22 -23 -24 -25 -26 -27 -28 -29 -30 -31
leaf_value=-0.02003306395196626 0.0086190189506212198 0.067964225423973859 -0.017894638088644339 0.082719056035619368 -0.025747534675530238 0.0066875179707621612 -0.040929992352709742 0.018618977344103237 -0.0065069127182185412 -0.029433890200673204 0.023479284833951865 -0.056281451801959287 -0.00087590722605850133 0.036570418632313632 0.020191840390887061 -0.014727265042595847 0.0027033384469969599 0.017710783761372705 -0.023215686760326041 -0.03888145439266126 0.0071415408021039935 -0.025237757439752012 -0.0056520190545045895 -0.0050225428475229993 0.030639984775285695 -0.04429106462432502 -0.0043089793364456952 -0.015389221893238542 -0.04097670161473399 0.010380364557674382
leaf_weight=3985.6067556738853 6874.3519469797611 4612.4985002577305 11586.619481503963 9142.8561631441116 13755.091227918863 148265.12342569232 9094.130846709013 26891.724166378379 3626.1889670342207 14341.035379558802 4813.9950770437717 4975.0482311844826 49538.165652245283 3982.3618971407413 26328.411308526993 1447.389746055007 36672.010532990098 1558.8539233803749 20072.772201120853 11292.345034748316 2545.2331109046936 5129.8660845160484 9120.4248095452785 64151.21302652359 20964.928601309657 2579.5765154957771 22311.523972451687 16476.751427352428 10477.810208231211 7209.855064958334
leaf_count=11940 26041 28030 36651 58393 36667 529517 21547 102265 12798 32474 19602 9794 171521 18958 108598 5283 120986 5213 51702 24365 7529 13336 25856 209896 88339 5729 69830 43191 22221 26838
internal_value=0.000292826 0.00850592 0.00570016 0.0589077 -0.0237392 0.00301287 -0.0275793 0.00631242 0.0197604 -0.0222461 0.0426711 -0.0352095 0.00479327 0.0534193 0.0227673 0.0169155 -0.00353417 -0.0136716 -0.0300033 -0.0299162 -0.0239204 -0.00971999 -0.0167536 -0.00221234 0.0248237 -0.0256161 -0.00669251 -0.0201024 -0.0459047 0.00472826
internal_weight=573824 427667 405115 22551.7 146157 340111 114730 226142 65003.7 67530.9 13408.9 47199.3 197803 8594.86 54167.7 28339.1 113969 13145.5 31746.5 28178.6 16886.3 31427 39352.3 100823 47293.3 22652.3 26297.1 30231.8 15452.9 10836
internal_count=1945110 1568929 1443946 124983 376181 1181332 281075 808586 262614 170082 66590 110993 701038 46988 222978 107548 372746 41864 78978 64368 40003 95106 105714 330882 196937 57431 81770 79858 32015 39636
is_linear=0
shrinkage=0.1


Tree=24
num_leaves=31
num_cat=0
split_feature=5 5 5 52 5 59 0 29 10 0 5 11 5 0 10 59 3 57 4 1 1 4 8 10 9 10 5 0 5 27
split_gain=12796.5 7351.14 752.981 665.581 413.193 314.361 262.689 231.69 203.637 180.047 179.581 119.227 104.292 110.068 101.335 95.6094 82.7352 75.9793 72.1602 100.452 65.825 64.6231 56.9928 55.6929 55.2162 42.9653 42.2617 41.9921 59.8315 40.8491
threshold=0.094160150194632974 0.021281699970021606 0.16329931972789116 1.5000000000000002 0.04500143321230652 7.5000000000000009 0.045199182839632285 9.5000000000000018 0.95461190855927713 0.24190177638453506 0.13045431940892302 42.869254588266024 0.0095854700854700881 0.021699890127138601 0.95908039329091965 8.5000000000000018 0.56856030083266196 184.50000000000003 0.013606071825249909 0.04332186424773226 0.040408163265306128 0.092120446242536944 7.5000000000000009 0.86971411554496736 3.5000000000000004 0.99205899035734546 0.35806186018528913 0.16580756013745707 0.15568150686149987 7.5000000000000009
decision_type=10 8 10 2 8 2 10 2 2 10 10 2 10 10 2 2 10 2 10 10 10 8 2 2 2 2 10 10 10 2
left_child=1 12 10 11 6 7 20 -6 -7 14 22 15 -1 -14 18 21 17 -11 -4 -20 -5 -3 -2 -18 -12 -16 -25 28 -26 -13
right_child=2 3 9 4 5 8 -8 -9 -10 16 24 29 13 -15 25 -17 23 -19 19 -21 -22 -23 -24 26 27 -27 -28 -29 -30 -31
leaf_value=-0.077389575303773148 0.0083911398004402667 0.015990212292260622 0.051943895026519804 0.0044260112607144141 -0.013282612079524875 0.0030159724853185844 -0.071298904281790504 -0.003728826017932316 -0.0072083883816920066 -0.019195539167684725 0.026415950000911667 -0.026625614460227383 -0.033061608710073014 -0.077659672612046288 0.033887739817377208 0.0095944190468125034 0.084192432957587715 0.047550990236163909 0.017760156556864408 0.044439601661696727 -0.027710509580290789 -0.016402508027217776 0.022176393384831961 0.05934886599204503 0.039991975776509203 -0.00051974095874780574 0.12263044761599334 0.051648690932928155 0.019762017292974381 -0.0056722665940345546
leaf_weight=14460.433099217713 4607.1769846081734 634.26759748160839 11755.93263797462 912.31159718334675 37832.173173561692 83366.092387586832 1333.3739224001765 77158.056805893779 25419.322659164667 190.51925486326218 7270.0803197771311 13666.423907287419 1174.1157607138157 1048.6814151704311 5423.7049696445465 1640.2989082708955 1196.7366250902414 1610.2682987898588 1613.618560180068 11327.362680792809 2111.1151001229882 20894.632114335895 8607.4645636454225 5794.4450119137764 5645.8623044490814 388.33449818193913 107.80531381070614 1825.7645199745893 1975.9239483773708 999.70440509170294
leaf_count=149901 17670 3908 31997 6354 220856 454388 8329 438005 153157 910 24147 100753 10319 9423 16483 10085 2319 4454 6183 30607 12055 148480 31841 12675 18399 1383 176 5081 6877 7341
internal_value=-0.000452955 -0.00989683 0.0380425 -0.00585775 -0.00382046 -0.00322659 -0.0343211 -0.00687214 0.000626807 0.0471246 0.0260847 -0.0181416 -0.0742881 -0.0541068 0.0434727 -0.0136744 0.0596423 0.0404838 0.0462694 0.0411137 -0.0180101 -0.0154477 0.017371 0.0645008 0.0329719 0.0315871 0.0605064 0.0380158 0.0347487 -0.025198
internal_weight=351992 282651 69341 265968 228132 223776 4356.8 114990 108785 39408.7 29932.3 37835.3 16683.2 2222.8 30509 23169.2 8899.77 1800.79 24696.9 12941 3023.43 21528.9 13214.6 7098.99 16717.6 5812.04 5902.25 9447.55 7621.79 14666.1
internal_count=1944556 1733354 211202 1563711 1293144 1266406 26738 658861 607545 107187 104015 270567 169643 19742 86653 162473 20534 5364 68787 36790 18409 152388 49511 15170 54504 17866 12851 30357 25276 108094
is_linear=0
shrinkage=0.1


Tree=25
num_leaves=31
num_cat=0
split_feature=6 4 1 52 58 5 52 10 5 19 5 59 1 6 5 10 10 1 10 10 57 1 0 30 10 4 9 57 5 4
split_gain=9726.77 6585.78 569.316 376.617 277.002 206.525 181.445 159.624 142.382 133.697 116.871 76.4284 52.7108 45.6195 43.7291 40.4018 39.104 35.8062 37.6972 34.6379 36.2121 31.189 29.6984 27.2737 26.8284 26.6859 24.4837 24.0483 22.8155 22.6942
threshold=0.098968723028226166 0.0090916604678072579 0.16552511415525115 1.0000000180025095e-35 3.5000000000000004 0.0066815476190476199 1.5000000000000002 0.95908039329091965 0.0784389373033164 2.5000000000000004 0.062455799151343715 1.5000000000000002 0.27097902097902099 0.12811478758169936 0.017291209886386289 0.95940082414522787 0.89056366658655783 0.21807065217391305 0.98814745196324161 0.86551368952684749 162.50000000000003 0.02339261285909713 0.06990850950435247 3.5000000000000004 0.96124515503875985 0.16415899393667191 4.5000000000000009 136.50000000000003 0.1613148720970197 0.15759905381431108
decision_type=10 8 10 2 2 8 2 2 10 2 10 2 10 10 10 2 2 10 2 2 2 10 10 2 2 10 2 2 10 10
left_child=1 -1 8 19 6 21 11 -7 14 -8 12 -5 15 -12 26 25 -16 18 -15 23 27 -6 -18 -3 28 -4 -2 -21 -10 -28
right_child=2 3 10 4 5 7 9 -9 24 -11 13 -13 -14 17 16 -17 22 -19 -20 20 -22 -23 -24 -25 -26 -27 29 -29 -30 -31
leaf_value=-0.076778705019970972 0.040086111695265096 0.046641072295617168 0.069822852757185486 -0.039432638832547023 -0.013771097816695331 -0.0039837286495681854 0.021686502780186117 -0.012830602491737437 0.027139043945589154 0.0046493925926100856 0.013446679951299976 -0.0066183188939358045 0.078346462687425344 0.044434932269993045 0.046124299767681363 0.045517512407489219 0.023542576419571852 0.056482839751502083 -0.0091030209581267965 -0.036494734751533399 -0.030006447531160836 0.03723763123594611 0.039474517416497212 -0.0094631186006442092 0.0089467560862509909 0.057645557184461182 0.059216846287679287 -0.016913499389826291 0.01445793950143502 0.018422654470273608
leaf_weight=13601.514688633382 2457.6114910729229 90.72607421875 2535.9305957481265 834.46365331858397 131.76701195538044 105900.0262048915 5829.4148150831461 25261.567245714366 5492.6239890232682 21961.569705754519 411.33437418192625 4760.2006820216775 1479.9560133218765 6472.6786936074495 1832.5677507966757 2043.5077002570033 3359.0797321870923 3037.8321609944105 133.9306046962738 670.02969481050968 3387.584238819778 1297.6568331941962 1800.7986942529678 1905.7278248295188 1444.0352825149894 6296.9642902314663 1571.7874065078795 10047.721906244755 1918.2917742282152 150.12795928120613
leaf_count=182904 13256 850 10098 9882 1484 871681 46349 230241 26273 184481 1812 43236 4393 24926 8976 9301 18758 9379 628 7395 37608 11794 8856 18966 7867 25853 8173 109898 8487 751
internal_value=-0.000244095 -0.00965646 0.0431546 -0.00464228 -0.00322565 -0.00527563 0.00491552 -0.0056877 0.0309009 0.00822344 0.0541039 -0.0115145 0.0606208 0.0460949 0.0384087 0.058208 0.0335666 0.0474863 0.0433481 -0.0192442 -0.0209895 0.0325286 0.0291048 -0.00690853 0.0214274 0.0611428 0.0465072 -0.0181386 0.0238579 0.0556659
internal_weight=238119 195680 42439.1 182078 165977 132591 33385.6 131162 20026.9 27791 22412.1 5594.66 12356.4 10055.8 11172 10876.4 6992.45 9644.44 6606.61 16101.8 14105.3 1429.42 5159.88 1996.45 8854.95 8832.89 4179.53 10717.8 7410.92 1721.92
internal_count=1944556 1756769 187787 1573865 1399148 1115200 283948 1101922 101397 230830 86390 53118 49645 36745 58770 45252 36590 34933 25554 174717 154901 13278 27614 19816 42627 35951 22180 117293 34760 8924
is_linear=0
shrinkage=0.1


Tree=26
num_leaves=31
num_cat=0
split_feature=3 5 3 7 6 4 5 5 10 6 6 3 0 1 5 7 2 0 10 5 6 6 5 2 17 7 0 6 4 7
